{"learner":{"attributes":{"scikit_learn":"{\"_estimator_type\": \"classifier\"}"},"feature_names":[],"feature_types":[],"gradient_booster":{"model":{"cats":{"enc":[],"feature_segments":[],"sorted_idx":[]},"gbtree_model_param":{"num_parallel_tree":"1","num_trees":"120"},"iteration_indptr":[0,1,2,3,4,5,6,7,8,9,10,11,12,13,14,15,16,17,18,19,20,21,22,23,24,25,26,27,28,29,30,31,32,33,34,35,36,37,38,39,40,41,42,43,44,45,46,47,48,49,50,51,52,53,54,55,56,57,58,59,60,61,62,63,64,65,66,67,68,69,70,71,72,73,74,75,76,77,78,79,80,81,82,83,84,85,86,87,88,89,90,91,92,93,94,95,96,97,98,99,100,101,102,103,104,105,106,107,108,109,110,111,112,113,114,115,116,117,118,119,120],"tree_info":[0,0,0,0,0,0,0,0,0,0,0,0,0,0,0,0,0,0,0,0,0,0,0,0,0,0,0,0,0,0,0,0,0,0,0,0,0,0,0,0,0,0,0,0,0,0,0,0,0,0,0,0,0,0,0,0,0,0,0,0,0,0,0,0,0,0,0,0,0,0,0,0,0,0,0,0,0,0,0,0,0,0,0,0,0,0,0,0,0,0,0,0,0,0,0,0,0,0,0,0,0,0,0,0,0,0,0,0,0,0,0,0,0,0,0,0,0,0,0,0],"trees":[{"base_weights":[-5.8658347E-2,1.9417475E-1,-1.7708808E-1,3.340858E-1,-6E-1,2.3094688E-1,-2.7508456E-1,-7.8688525E-2,4.233056E-1,5.9016395E-1,-9.182608E-2,-4.347826E-1,6.792453E-1,-4.239044E-1,8.224299E-2,1.3085502E-2,6.7210026E-2,9.6E-2,-2.5945945E-2,-7.597122E-2,6.819672E-2,-7.3846154E-2,7.9650655E-2,-3.6482085E-2,5.209302E-2,1.8512396E-2,-8.119403E-2],"categories":[],"categories_nodes":[],"categories_segments":[],"categories_sizes":[],"default_left":[0,0,0,0,0,0,0,0,0,0,0,0,0,0,0,0,0,0,0,0,0,0,0,0,0,0,0],"id":0,"left_children":[1,3,5,7,9,11,13,-1,15,17,-1,19,21,23,25,-1,-1,-1,-1,-1,-1,-1,-1,-1,-1,-1,-1],"loss_changes":[6.032335E0,7.3534017E0,5.53911E0,6.926487E0,7.197434E0,8.372004E0,5.930911E0,0E0,5.5531797E0,2.5153742E0,0E0,8.431111E0,9.315495E0,3.0056257E0,5.7070994E0,0E0,0E0,0E0,0E0,0E0,0E0,0E0,0E0,0E0,0E0,0E0,0E0],"parents":[2147483647,0,0,1,1,2,2,3,3,4,4,5,5,6,6,8,8,9,9,11,11,12,12,13,13,14,14],"right_children":[2,4,6,8,10,12,14,-1,16,18,-1,20,22,24,26,-1,-1,-1,-1,-1,-1,-1,-1,-1,-1,-1,-1],"split_conditions":[5.765E-1,3.3522728E-1,5.75E-1,6.25E-2,6.875E-2,1.1785714E-1,7.75E-1,-7.8688525E-2,7E-1,3.794643E-1,-9.182608E-2,7.75E-1,9.375E-2,4.625E-1,3.440476E-1,1.3085502E-2,6.7210026E-2,9.6E-2,-2.5945945E-2,-7.597122E-2,6.819672E-2,-7.3846154E-2,7.9650655E-2,-3.6482085E-2,5.209302E-2,1.8512396E-2,-8.119403E-2],"split_indices":[1,6,5,6,3,3,5,0,5,6,0,1,6,6,6,0,0,0,0,0,0,0,0,0,0,0,0],"split_type":[0,0,0,0,0,0,0,0,0,0,0,0,0,0,0,0,0,0,0,0,0,0,0,0,0,0,0],"sum_hessian":[1.993125E2,6.3375E1,1.359375E2,5.4375E1,9E0,2.60625E1,1.09875E2,2.8125E0,5.15625E1,2.8125E0,6.1875E0,1.05E1,1.55625E1,7.74375E1,3.24375E1,3.2625E1,1.89375E1,1.5E0,1.3125E0,7.6875E0,2.8125E0,2.25E0,1.33125E1,7.575E1,1.6875E0,2.925E1,3.1875E0],"tree_param":{"num_deleted":"0","num_feature":"7","num_nodes":"27","size_leaf_vector":"1"}},{"base_weights":[-3.38349E-2,4.046053E-1,-9.570698E-2,2.360774E-1,1.6671264E-1,-4.736277E-2,-7.828816E-1,-1.355364E-1,7.365813E-1,-6.751447E-2,1.1206233E-1,-8.09437E-2,5.5795502E-2,3.811302E-2,-5.4008435E-2,1.8705685E-1,1.5017284E-2,-1.0933855E-2,2.2541942E-2],"categories":[],"categories_nodes":[],"categories_segments":[],"categories_sizes":[],"default_left":[0,0,0,0,0,0,0,0,0,0,0,0,0,0,0,0,0,0,0],"id":1,"left_children":[1,3,5,7,-1,9,11,13,15,17,-1,-1,-1,-1,-1,-1,-1,-1,-1],"loss_changes":[5.4567904E0,6.552441E0,5.804389E0,4.516948E0,0E0,4.9197297E0,4.6002936E0,5.1007276E0,8.593477E0,4.0008492E0,0E0,0E0,0E0,0E0,0E0,0E0,0E0,0E0,0E0],"parents":[2147483647,0,0,1,1,2,2,3,3,5,5,6,6,7,7,8,8,9,9],"right_children":[2,4,6,8,-1,10,12,14,16,18,-1,-1,-1,-1,-1,-1,-1,-1,-1],"split_conditions":[4.505E-1,4.75E-1,5.3333336E-1,3.95E-1,1.6671264E-1,9.835E-1,8.888889E-1,6.375E-1,4.06E-1,3.809524E-1,1.1206233E-1,-8.09437E-2,5.5795502E-2,3.811302E-2,-5.4008435E-2,1.8705685E-1,1.5017284E-2,-1.0933855E-2,2.2541942E-2],"split_indices":[1,3,4,1,0,1,4,5,1,4,0,0,0,0,0,0,0,0,0],"split_type":[0,0,0,0,0,0,0,0,0,0,0,0,0,0,0,0,0,0,0],"sum_hessian":[1.9872815E2,2.389106E1,1.748371E2,2.2748676E1,1.1423829E0,1.6434407E2,1.04930315E1,1.3473834E1,9.274842E0,1.6302881E2,1.3152578E0,9.361839E0,1.1311927E0,6.3683057E0,7.105528E0,1.5351318E0,7.7397103E0,1.365924E2,2.6436403E1],"tree_param":{"num_deleted":"0","num_feature":"7","num_nodes":"19","size_leaf_vector":"1"}},{"base_weights":[-2.3706539E-2,-8.49558E-1,6.9245887E-3,-8.570175E-2,-5.54799E-3,3.720082E-1,-4.3174252E-2,1.699877E-1,1.3051705E-1,4.999276E-2,-2.9329813E-1,6.6113405E-2,-1.634768E-2,-2.8212587E-5,7.536897E-2,3.167639E-2,-3.2530893E-2],"categories":[],"categories_nodes":[],"categories_segments":[],"categories_sizes":[],"default_left":[0,0,0,0,0,0,0,0,0,0,0,0,0,0,0,0,0],"id":2,"left_children":[1,3,5,-1,-1,7,9,11,-1,13,15,-1,-1,-1,-1,-1,-1],"loss_changes":[5.0615773E0,1.1635189E0,3.5588806E0,0E0,0E0,5.6960998E0,4.004712E0,5.41464E0,0E0,5.6419134E0,3.8024588E0,0E0,0E0,0E0,0E0,0E0,0E0],"parents":[2147483647,0,0,1,1,2,2,5,5,6,6,7,7,9,9,10,10],"right_children":[2,4,6,-1,-1,8,10,12,-1,14,16,-1,-1,-1,-1,-1,-1],"split_conditions":[3.5714287E-2,2.25E-1,4.505E-1,-8.570175E-2,-5.54799E-3,4.0263158E-1,2.25E-1,8.148148E-2,1.3051705E-1,2.152174E-1,5.375E-1,6.6113405E-2,-1.634768E-2,-2.8212587E-5,7.536897E-2,3.167639E-2,-3.2530893E-2],"split_indices":[6,3,1,0,0,3,3,3,0,3,5,0,0,0,0,0,0],"split_type":[0,0,0,0,0,0,0,0,0,0,0,0,0,0,0,0,0],"sum_hessian":[1.988554E2,6.1556864E0,1.926997E2,4.502998E0,1.6526885E0,2.247716E1,1.7022255E2,2.0348211E1,2.1289475E0,1.24608185E2,4.5614365E1,6.951097E0,1.3397115E1,1.1889796E2,5.710223E0,6.0893116E0,3.952505E1],"tree_param":{"num_deleted":"0","num_feature":"7","num_nodes":"17","size_leaf_vector":"1"}},{"base_weights":[4.5123287E-2,-3.7245822E-1,9.933839E-2,-7.006532E-1,6.5210745E-2,5.7500595E-1,-2.4426468E-2,-9.3246514E-1,-2.4064216E-1,9.915356E-1,-5.8049244E-1,7.5325537E-1,-4.6342787E-1,-4.567423E-1,5.3389218E-2,-8.6451165E-2,-4.0191688E-2,5.746484E-2,-4.9219478E-2,1.9325206E-2,1.2942314E-1,-8.115125E-2,5.021285E-3,3.2937836E-2,1.344707E-1,-8.510284E-2,1.0179657E-1,-4.9767245E-2,3.0824127E-2,7.2197855E-2,-8.3043E-4],"categories":[],"categories_nodes":[],"categories_segments":[],"categories_sizes":[],"default_left":[0,0,0,0,0,0,0,0,0,0,0,0,0,0,0,0,0,0,0,0,0,0,0,0,0,0,0,0,0,0,0],"id":3,"left_children":[1,3,5,7,9,11,13,15,17,19,21,23,25,27,29,-1,-1,-1,-1,-1,-1,-1,-1,-1,-1,-1,-1,-1,-1,-1,-1],"loss_changes":[4.631471E0,3.425721E0,1.0635057E1,1.2186632E0,7.1542006E0,7.2515383E0,4.8727674E0,8.331776E-3,2.5549798E0,1.9044375E0,2.0486155E0,9.511953E0,7.692314E0,3.3151555E0,6.67105E0,0E0,0E0,0E0,0E0,0E0,0E0,0E0,0E0,0E0,0E0,0E0,0E0,0E0,0E0,0E0,0E0],"parents":[2147483647,0,0,1,1,2,2,3,3,4,4,5,5,6,6,7,7,8,8,9,9,10,10,11,11,12,12,13,13,14,14],"right_children":[2,4,6,8,10,12,14,16,18,20,22,24,26,28,30,-1,-1,-1,-1,-1,-1,-1,-1,-1,-1,-1,-1,-1,-1,-1,-1],"split_conditions":[8.125E-2,2.1428572E-1,1.5208334E-1,7.125E-1,1.9642857E-1,4.2857143E-1,1.9583334E-1,8.695652E-2,7.5E-1,1.673913E-1,4.4444445E-1,2.9411766E-1,7.1428573E-1,8.375E-1,5E-1,-8.6451165E-2,-4.0191688E-2,5.746484E-2,-4.9219478E-2,1.9325206E-2,1.2942314E-1,-8.115125E-2,5.021285E-3,3.2937836E-2,1.344707E-1,-8.510284E-2,1.0179657E-1,-4.9767245E-2,3.0824127E-2,7.2197855E-2,-8.3043E-4],"split_indices":[6,4,6,5,3,4,6,4,5,3,4,4,4,5,5,0,0,0,0,0,0,0,0,0,0,0,0,0,0,0,0],"split_type":[0,0,0,0,0,0,0,0,0,0,0,0,0,0,0,0,0,0,0,0,0,0,0,0,0,0,0,0,0,0,0],"sum_hessian":[2.0194298E2,2.2531141E1,1.7941183E2,1.253251E1,9.9986315E0,3.6290394E1,1.4312144E2,7.650279E0,4.8822303E0,3.8869E0,6.1117315E0,3.1208084E1,5.0823116E0,2.1089005E1,1.2203243E2,4.5648203E0,3.0854588E0,1.1137013E0,3.7685292E0,2.3993216E0,1.4875784E0,3.305268E0,2.8064637E0,2.3865263E1,7.34282E0,4.0639644E0,1.0183469E0,1.7845901E1,3.2431037E0,7.606099E0,1.1442633E2],"tree_param":{"num_deleted":"0","num_feature":"7","num_nodes":"31","size_leaf_vector":"1"}},{"base_weights":[-1.5362745E-2,-8.075841E-1,1.3029159E-2,-8.459084E-2,2.1225879E-2,2.9883817E-1,-9.596617E-2,-1.20042086E-1,5.7023644E-1,-5.8315307E-1,-3.9295545E-3,-4.784437E-2,3.139101E-2,6.0602345E-2,-4.1409466E-2,-8.068623E-2,-2.765802E-2,3.3051684E-2,-1.383859E-2],"categories":[],"categories_nodes":[],"categories_segments":[],"categories_sizes":[],"default_left":[0,0,0,0,0,0,0,0,0,0,0,0,0,0,0,0,0,0,0],"id":4,"left_children":[1,3,5,-1,-1,7,9,11,13,15,17,-1,-1,-1,-1,-1,-1,-1,-1],"loss_changes":[4.4582534E0,2.1184287E0,6.006216E0,0E0,0E0,6.1183724E0,6.260225E0,5.562199E0,7.007311E0,1.8922415E0,8.425293E0,0E0,0E0,0E0,0E0,0E0,0E0,0E0,0E0],"parents":[2147483647,0,0,1,1,2,2,5,5,6,6,7,7,8,8,9,9,10,10],"right_children":[2,4,6,-1,-1,8,10,12,14,16,18,-1,-1,-1,-1,-1,-1,-1,-1],"split_conditions":[3.5714287E-2,3.9130434E-1,1.5208334E-1,-8.459084E-2,2.1225879E-2,1E-1,1.9583334E-1,2.1428572E-1,4.2857143E-1,9.565217E-2,7.5E-2,-4.784437E-2,3.139101E-2,6.0602345E-2,-4.1409466E-2,-8.068623E-2,-2.765802E-2,3.3051684E-2,-1.383859E-2],"split_indices":[6,4,6,0,0,6,6,4,4,3,3,0,0,0,0,0,0,0,0],"split_type":[0,0,0,0,0,0,0,0,0,0,0,0,0,0,0,0,0,0,0],"sum_hessian":[1.9674132E2,5.8574095E0,1.908839E2,4.762939E0,1.0944709E0,5.2217285E1,1.3866663E2,2.0749647E1,3.1467636E1,2.1185759E1,1.1748086E2,1.064889E1,1.0100758E1,2.7104738E1,4.362898E0,6.425167E0,1.47605915E1,3.3467712E1,8.4013145E1],"tree_param":{"num_deleted":"0","num_feature":"7","num_nodes":"19","size_leaf_vector":"1"}},{"base_weights":[-5.329612E-4,-1.802065E-2,1.01337485E-1,1.627696E-2,-6.235902E-1,-4.669E-3,1.0480984E0,-8.583714E-2,-5.294791E-2,-5.9729565E-2,1.655465E-3,1.1964921E-1,8.598228E-3,-6.824153E-2,4.497455E-2],"categories":[],"categories_nodes":[],"categories_segments":[],"categories_sizes":[],"default_left":[0,0,0,0,0,0,0,0,0,0,0,0,0,0,0],"id":5,"left_children":[1,3,-1,5,7,9,11,-1,13,-1,-1,-1,-1,-1,-1],"loss_changes":[4.5317354E0,4.1988606E0,0E0,4.1510277E0,2.7217464E0,3.57232E0,1.447804E0,0E0,3.3465748E0,0E0,0E0,0E0,0E0,0E0,0E0],"parents":[2147483647,0,0,1,1,3,3,4,4,5,5,6,6,8,8],"right_children":[2,4,-1,6,8,10,12,-1,14,-1,-1,-1,-1,-1,-1],"split_conditions":[8.888889E-1,5.3333336E-1,1.01337485E-1,4.764706E-1,2.0654762E-1,3.5714287E-2,1.4017858E-1,-8.583714E-2,6.315789E-1,-5.9729565E-2,1.655465E-3,1.1964921E-1,8.598228E-3,-6.824153E-2,4.497455E-2],"split_indices":[4,4,0,3,6,6,6,0,4,0,0,0,0,0,0],"split_type":[0,0,0,0,0,0,0,0,0,0,0,0,0,0,0],"sum_hessian":[2.0245868E2,2.006752E2,1.7834773E0,1.9083974E2,9.835459E0,1.8801843E2,2.8212965E0,5.0099254E0,4.8255334E0,5.274674E0,1.8274376E2,1.5119362E0,1.3093603E0,1.9293654E0,2.8961682E0],"tree_param":{"num_deleted":"0","num_feature":"7","num_nodes":"15","size_leaf_vector":"1"}},{"base_weights":[2.6990574E-2,1.2206382E-1,-2.2999953E-1,-3.7556794E-1,2.2623575E-1,3.1755778E-1,-5.305651E-1,-7.573094E-1,5.4342013E-2,1.0797489E0,1.4359455E-1,5.672132E-1,-7.745283E-2,5.182412E-1,-7.199014E-1,-8.549754E-2,1.8396689E-2,8.27332E-2,-4.743386E-2,1.0592632E-1,-2.813774E-2,4.8899334E-3,4.2015817E-2,-4.120742E-2,6.65508E-2,-3.811329E-2,1.244682E-1,-8.6372405E-2,2.037258E-2],"categories":[],"categories_nodes":[],"categories_segments":[],"categories_sizes":[],"default_left":[0,0,0,0,0,0,0,0,0,0,0,0,0,0,0,0,0,0,0,0,0,0,0,0,0,0,0,0,0],"id":6,"left_children":[1,3,5,7,9,11,13,15,17,19,21,23,-1,25,27,-1,-1,-1,-1,-1,-1,-1,-1,-1,-1,-1,-1,-1,-1],"loss_changes":[4.9519644E0,7.7446766E0,9.182078E0,4.3004017E0,8.507114E0,6.980074E0,7.4689207E0,4.4926596E0,8.94626E0,4.2037096E0,3.5278406E0,5.415041E0,0E0,6.9808846E0,1.1034062E1,0E0,0E0,0E0,0E0,0E0,0E0,0E0,0E0,0E0,0E0,0E0,0E0,0E0,0E0],"parents":[2147483647,0,0,1,1,2,2,3,3,4,4,5,5,6,6,7,7,8,8,9,9,10,10,11,11,13,13,14,14],"right_children":[2,4,6,8,10,12,14,16,18,20,22,24,-1,26,28,-1,-1,-1,-1,-1,-1,-1,-1,-1,-1,-1,-1,-1,-1],"split_conditions":[2.7589285E-1,1E-1,9.565217E-2,2.1428572E-1,4.06E-1,8E-1,5.125E-1,7.75E-1,1.9642857E-1,7.25E-1,8E-1,3.1625E-1,-7.745283E-2,1.5714286E-1,7.86E-1,-8.549754E-2,1.8396689E-2,8.27332E-2,-4.743386E-2,1.0592632E-1,-2.813774E-2,4.8899334E-3,4.2015817E-2,-4.120742E-2,6.65508E-2,-3.811329E-2,1.244682E-1,-8.6372405E-2,2.037258E-2],"split_indices":[6,6,3,4,1,5,5,1,3,5,5,6,0,3,1,0,0,0,0,0,0,0,0,0,0,0,0,0,0],"split_type":[0,0,0,0,0,0,0,0,0,0,0,0,0,0,0,0,0,0,0,0,0,0,0,0,0,0,0,0,0],"sum_hessian":[2.0052716E2,1.4675887E2,5.3768284E1,2.4952917E1,1.21805954E2,1.9034864E1,3.473342E1,1.2813517E1,1.2139401E1,9.687593E0,1.1211836E2,1.6407717E1,2.6271462E0,5.045777E0,2.9687645E1,9.678245E0,3.1352713E0,4.5913386E0,7.548063E0,8.339235E0,1.3483586E0,9.314784E1,1.897052E1,3.0380898E0,1.3369628E1,2.8523543E0,2.1934223E0,2.1604578E1,8.083067E0],"tree_param":{"num_deleted":"0","num_feature":"7","num_nodes":"29","size_leaf_vector":"1"}},{"base_weights":[5.731491E-3,3.161361E-1,-4.875237E-2,-5.613572E-1,4.4602996E-1,-2.171308E-3,-7.790707E-1,-7.043373E-2,1.2517683E-2,5.489658E-1,-3.8954335E-1,-1.676397E-1,1.7950417E-1,-8.19264E-2,4.7116082E-2,-1.1918661E-3,5.593617E-2,-6.0157392E-2,1.5258232E-2,-2.850153E-3,-6.2049314E-2,1.0166066E-2,1.5391651E-1],"categories":[],"categories_nodes":[],"categories_segments":[],"categories_sizes":[],"default_left":[0,0,0,0,0,0,0,0,0,0,0,0,0,0,0,0,0,0,0,0,0,0,0],"id":7,"left_children":[1,3,5,7,9,11,13,-1,-1,15,17,19,21,-1,-1,-1,-1,-1,-1,-1,-1,-1,-1],"loss_changes":[3.4440348E0,3.715966E0,5.894743E0,1.1370815E0,2.5397162E0,4.958327E0,4.085475E0,0E0,0E0,2.0851068E0,8.9018506E-1,6.899913E0,6.9464664E0,0E0,0E0,0E0,0E0,0E0,0E0,0E0,0E0,0E0,0E0],"parents":[2147483647,0,0,1,1,2,2,3,3,4,4,5,5,6,6,9,9,10,10,11,11,12,12],"right_children":[2,4,6,8,10,12,14,-1,-1,16,18,20,22,-1,-1,-1,-1,-1,-1,-1,-1,-1,-1],"split_conditions":[4.72E-1,3.185E-1,5.3333336E-1,2.6086956E-1,3.6458334E-1,2E-1,8.75E-1,-7.043373E-2,1.2517683E-2,5.625E-1,4.1607141E-1,1.7391305E-1,9.78E-1,-8.19264E-2,4.7116082E-2,-1.1918661E-3,5.593617E-2,-6.0157392E-2,1.5258232E-2,-2.850153E-3,-6.2049314E-2,1.0166066E-2,1.5391651E-1],"split_indices":[1,1,4,4,6,4,4,0,0,5,6,4,1,0,0,0,0,0,0,0,0,0,0],"split_type":[0,0,0,0,0,0,0,0,0,0,0,0,0,0,0,0,0,0,0,0,0,0,0],"sum_hessian":[2.0173259E2,2.9404926E1,1.7232767E2,3.3632116E0,2.6041716E1,1.6293814E2,9.389525E0,2.1715026E0,1.191709E0,2.349084E1,2.550874E0,8.531304E1,7.76251E1,8.176542E0,1.2129833E0,5.131653E0,1.8359188E1,1.3880441E0,1.1628299E0,7.0963104E1,1.4349944E1,7.640174E1,1.2233582E0],"tree_param":{"num_deleted":"0","num_feature":"7","num_nodes":"23","size_leaf_vector":"1"}},{"base_weights":[4.5401122E-2,1.0666821E-1,-3.185258E-1,-7.3293835E-1,1.3779762E-1,2.2037958E-1,-6.695815E-1,-8.014355E-2,2.5718719E-2,3.953842E-1,1.066327E-2,-2.8283662E-1,1.1370283E0,-8.374459E-2,3.844124E-1,1.9791635E-2,7.446285E-2,1.8452074E-2,-1.7797284E-2,2.4972243E-2,-4.9035996E-2,1.6579423E-2,1.3260709E-1,7.3587924E-2,-5.9990074E-2],"categories":[],"categories_nodes":[],"categories_segments":[],"categories_sizes":[],"default_left":[0,0,0,0,0,0,0,0,0,0,0,0,0,0,0,0,0,0,0,0,0,0,0,0,0],"id":8,"left_children":[1,3,5,7,9,11,13,-1,-1,15,17,19,21,-1,23,-1,-1,-1,-1,-1,-1,-1,-1,-1,-1],"loss_changes":[4.500488E0,4.601844E0,5.6558156E0,2.112208E0,5.461145E0,5.9663486E0,7.5106764E0,0E0,0E0,4.1372976E0,5.834689E0,1.9003519E0,1.8520684E0,0E0,3.9958646E0,0E0,0E0,0E0,0E0,0E0,0E0,0E0,0E0,0E0,0E0],"parents":[2147483647,0,0,1,1,2,2,3,3,4,4,5,5,6,6,9,9,10,10,11,11,12,12,14,14],"right_children":[2,4,6,8,10,12,14,-1,-1,16,18,20,22,-1,24,-1,-1,-1,-1,-1,-1,-1,-1,-1,-1],"split_conditions":[3.4093046E-1,3.5714287E-2,9.565217E-2,3.9130434E-1,5.765E-1,3.9930555E-1,7.855E-1,-8.014355E-2,2.5718719E-2,5.385E-1,8.75E-2,5.765E-1,2.75E-2,-8.374459E-2,4.1875E-1,1.9791635E-2,7.446285E-2,1.8452074E-2,-1.7797284E-2,2.4972243E-2,-4.9035996E-2,1.6579423E-2,1.3260709E-1,7.3587924E-2,-5.9990074E-2],"split_indices":[6,6,3,4,1,6,1,0,0,1,0,1,3,0,6,0,0,0,0,0,0,0,0,0,0],"split_type":[0,0,0,0,0,0,0,0,0,0,0,0,0,0,0,0,0,0,0,0,0,0,0,0,0],"sum_hessian":[1.9932123E2,1.7120566E2,2.8115576E1,5.314726E0,1.6589093E2,1.1237355E1,1.687822E1,4.274682E0,1.0400438E0,5.4122837E1,1.117681E2,7.701099E0,3.5362568E0,1.2434656E1,4.4435635E0,4.354795E1,1.0574886E1,5.751031E1,5.4257786E1,2.7674713E0,4.9336276E0,1.771052E0,1.7652047E0,3.147058E0,1.2965055E0],"tree_param":{"num_deleted":"0","num_feature":"7","num_nodes":"25","size_leaf_vector":"1"}},{"base_weights":[-1.29088275E-2,5.8967322E-2,-2.1799538E-1,1.0892428E-3,6.49786E-1,2.6119646E-1,-4.890575E-1,3.3637237E-2,-8.1851214E-2,-7.625218E-1,1.1463444E0,4.9477974E-1,-7.4751966E-2,5.7620543E-1,-6.901349E-1,-1.3054447E-2,1.3406018E-2,-7.115757E-2,-1.8068355E-2,1.4152204E-1,2.5705703E-2,1.3975862E-2,1.389391E-1,-1.3659573E-2,1.4550617E-1,-8.95103E-2,-4.0327534E-2],"categories":[],"categories_nodes":[],"categories_segments":[],"categories_sizes":[],"default_left":[0,0,0,0,0,0,0,0,0,0,0,0,0,0,0,0,0,0,0,0,0,0,0,0,0,0,0],"id":9,"left_children":[1,3,5,7,9,11,13,15,-1,17,19,21,-1,23,25,-1,-1,-1,-1,-1,-1,-1,-1,-1,-1,-1,-1],"loss_changes":[2.93814E0,5.0511427E0,6.844808E0,4.553363E0,1.0116814E1,5.862177E0,7.5471706E0,3.5162277E0,0E0,7.359719E-2,4.646181E0,6.3866534E0,0E0,5.7356544E0,1.7118626E0,0E0,0E0,0E0,0E0,0E0,0E0,0E0,0E0,0E0,0E0,0E0,0E0],"parents":[2147483647,0,0,1,1,2,2,3,3,4,4,5,5,6,6,7,7,9,9,10,10,11,11,13,13,14,14],"right_children":[2,4,6,8,10,12,14,16,-1,18,20,22,-1,24,26,-1,-1,-1,-1,-1,-1,-1,-1,-1,-1,-1,-1],"split_conditions":[2.7589285E-1,2.7321428E-1,9.565217E-2,2.669643E-1,6.25E-1,8E-1,5.125E-1,1.1E-1,-8.1851214E-2,2.152174E-1,7.25E-1,7.625E-1,-7.4751966E-2,1E0,2E-1,-1.3054447E-2,1.3406018E-2,-7.115757E-2,-1.8068355E-2,1.4152204E-1,2.5705703E-2,1.3975862E-2,1.389391E-1,-1.3659573E-2,1.4550617E-1,-8.95103E-2,-4.0327534E-2],"split_indices":[6,6,3,6,5,5,5,3,0,3,5,5,0,2,4,0,0,0,0,0,0,0,0,0,0,0,0],"split_type":[0,0,0,0,0,0,0,0,0,0,0,0,0,0,0,0,0,0,0,0,0,0,0,0,0,0,0],"sum_hessian":[1.974478E2,1.4673459E2,5.071321E1,1.3455507E2,1.2179509E1,1.8335522E1,3.2377693E1,1.3134824E2,3.20683E0,3.0289574E0,9.150552E0,1.5829149E1,2.5063717E0,4.8449006E0,2.7532791E1,5.3100433E1,7.824781E1,1.9178891E0,1.1110682E0,4.562682E0,4.5878696E0,1.3492488E1,2.3366616E0,3.564715E0,1.2801858E0,6.8143888E0,2.0718403E1],"tree_param":{"num_deleted":"0","num_feature":"7","num_nodes":"27","size_leaf_vector":"1"}},{"base_weights":[-3.0145653E-2,-4.6637274E-2,8.755705E-2,-1.3864465E-2,-6.086785E-1,-2.8100943E-2,7.840737E-2,7.850165E-2,-9.190852E-1,5.125016E-3,-1.4901787E-2,-8.5226096E-2,-3.942945E-2],"categories":[],"categories_nodes":[],"categories_segments":[],"categories_sizes":[],"default_left":[0,0,0,0,0,0,0,0,0,0,0,0,0],"id":10,"left_children":[1,3,-1,5,7,9,-1,-1,11,-1,-1,-1,-1],"loss_changes":[3.7358353E0,3.6159086E0,0E0,2.672925E0,6.2408714E0,2.7128716E0,0E0,0E0,7.126808E-2,0E0,0E0,0E0,0E0],"parents":[2147483647,0,0,1,1,3,3,4,4,5,5,8,8],"right_children":[2,4,-1,6,8,10,-1,-1,12,-1,-1,-1,-1],"split_conditions":[8.888889E-1,5.3333336E-1,8.755705E-2,9.835E-1,4.12E-1,7.085E-1,7.840737E-2,7.850165E-2,7.09E-1,5.125016E-3,-1.4901787E-2,-8.5226096E-2,-3.942945E-2],"split_indices":[4,4,0,1,1,1,0,0,1,0,0,0,0],"split_type":[0,0,0,0,0,0,0,0,0,0,0,0,0],"sum_hessian":[1.9767729E2,1.9576506E2,1.9122307E0,1.859471E2,9.817967E0,1.8427937E2,1.6677121E0,1.2506596E0,8.567307E0,1.168108E2,6.746858E1,5.26226E0,3.3050473E0],"tree_param":{"num_deleted":"0","num_feature":"7","num_nodes":"13","size_leaf_vector":"1"}},{"base_weights":[-1.0908738E-2,3.2593903E-1,-6.2564775E-2,1.7109796E-1,1.2057675E0,-8.149032E-2,8.560581E-2,-1.6450138E-1,6.041834E-1,1.1772665E-1,1.979866E-2,1.1785366E-2,-3.533286E-1,2.7446726E-2,-8.808671E-2,-1.3982824E-3,8.456157E-2,-7.5562624E-3,2.6116228E-2,-3.3124104E-2,7.557572E-2],"categories":[],"categories_nodes":[],"categories_segments":[],"categories_sizes":[],"default_left":[0,0,0,0,0,0,0,0,0,0,0,0,0,0,0,0,0,0,0,0,0],"id":11,"left_children":[1,3,5,7,9,11,-1,13,15,-1,-1,17,19,-1,-1,-1,-1,-1,-1,-1,-1],"loss_changes":[3.503394E0,3.4414768E0,3.8254745E0,3.578063E0,6.1439943E-1,4.3769712E0,0E0,7.162037E0,3.020345E0,0E0,0E0,4.3555617E0,3.8663034E0,0E0,0E0,0E0,0E0,0E0,0E0,0E0,0E0],"parents":[2147483647,0,0,1,1,2,2,3,3,4,4,5,5,7,7,8,8,11,11,12,12],"right_children":[2,4,6,8,10,12,-1,14,16,-1,-1,18,20,-1,-1,-1,-1,-1,-1,-1,-1],"split_conditions":[4.505E-1,4.0263158E-1,9.835E-1,2.375E-1,1.7083333E-1,2.4782608E-1,8.560581E-2,1.4375E-1,3.95E-1,1.1772665E-1,1.979866E-2,1.6923077E-1,8.888889E-1,2.7446726E-2,-8.808671E-2,-1.3982824E-3,8.456157E-2,-7.5562624E-3,2.6116228E-2,-3.3124104E-2,7.557572E-2],"split_indices":[1,3,1,6,6,3,0,6,1,0,0,3,4,0,0,0,0,0,0,0,0],"split_type":[0,0,0,0,0,0,0,0,0,0,0,0,0,0,0,0,0,0,0,0,0],"sum_hessian":[1.9916997E2,2.5775932E1,1.7339404E2,2.2934206E1,2.8417256E0,1.7145717E2,1.9368725E0,1.3270791E1,9.663416E0,1.8053118E0,1.0364138E0,1.2836723E2,4.3089924E1,9.017434E0,4.2533574E0,4.477721E0,5.1856947E0,9.6489944E1,3.1877293E1,4.1814808E1,1.2751184E0],"tree_param":{"num_deleted":"0","num_feature":"7","num_nodes":"21","size_leaf_vector":"1"}},{"base_weights":[4.015196E-2,-8.213432E-1,6.430173E-2,-7.456599E-2,-1.759079E-2,1.3674864E-1,-1.808605E-1,1.9186105E-1,-2.587117E-1,-6.613925E-1,1.3249964E-1,6.8070088E-3,6.945368E-2,-4.7678333E-2,1.2694691E-1,-8.694659E-2,1.0129712E-3,7.5537674E-2,-1.4253244E-2],"categories":[],"categories_nodes":[],"categories_segments":[],"categories_sizes":[],"default_left":[0,0,0,0,0,0,0,0,0,0,0,0,0,0,0,0,0,0,0],"id":12,"left_children":[1,3,5,-1,-1,7,9,11,13,15,17,-1,-1,-1,-1,-1,-1,-1,-1],"loss_changes":[4.162583E0,1.5862894E-1,3.4540625E0,0E0,0E0,3.3102922E0,6.7842274E0,9.449586E0,1.2601112E1,5.0955086E0,7.166413E0,0E0,0E0,0E0,0E0,0E0,0E0,0E0,0E0],"parents":[2147483647,0,0,1,1,2,2,5,5,6,6,7,7,8,8,9,9,10,10],"right_children":[2,4,6,-1,-1,8,10,12,14,16,18,-1,-1,-1,-1,-1,-1,-1,-1],"split_conditions":[3.5714287E-2,3.6363637E-1,2.5384617E-1,-7.456599E-2,-1.759079E-2,8.35E-1,3.3684212E-1,7.75E-1,3.794643E-1,7.47E-1,5.75E-1,6.8070088E-3,6.945368E-2,-4.7678333E-2,1.2694691E-1,-8.694659E-2,1.0129712E-3,7.5537674E-2,-1.4253244E-2],"split_indices":[6,4,3,0,0,1,3,1,6,1,5,0,0,0,0,0,0,0,0],"split_type":[0,0,0,0,0,0,0,0,0,0,0,0,0,0,0,0,0,0,0],"sum_hessian":[1.9653844E2,4.459083E0,1.9207936E2,3.3015566E0,1.1575265E0,1.4860724E2,4.3472115E1,1.3088202E2,1.7725227E1,1.6720654E1,2.6751461E1,1.1400855E2,1.6873457E1,1.5558954E1,2.1662726E0,9.875317E0,6.8453374E0,6.8400607E0,1.9911402E1],"tree_param":{"num_deleted":"0","num_feature":"7","num_nodes":"19","size_leaf_vector":"1"}},{"base_weights":[-6.3447165E-3,5.527925E-2,-3.7663847E-1,1.1550519E-1,-4.3067792E-1,2.0234177E-1,-7.904015E-1,-1.7717063E-1,2.3639938E-1,-5.90354E-1,4.6919014E-2,-2.9116148E-1,1.2879076E0,-8.683427E-2,1.2957877E-1,-2.113867E-2,8.039755E-2,1.41125955E-2,1.01664476E-1,-6.7251466E-2,-6.1924374E-3,2.5956776E-2,-5.3655345E-2,-2.0882104E-2,1.5198623E-1,8.1761494E-2,-6.862595E-2],"categories":[],"categories_nodes":[],"categories_segments":[],"categories_sizes":[],"default_left":[0,0,0,0,0,0,0,0,0,0,0,0,0,0,0,0,0,0,0,0,0,0,0,0,0,0,0],"id":13,"left_children":[1,3,5,7,9,11,13,15,17,19,-1,21,23,-1,25,-1,-1,-1,-1,-1,-1,-1,-1,-1,-1,-1,-1],"loss_changes":[4.6111794E0,5.1227818E0,7.066256E0,5.5265875E0,3.4848793E0,7.2386603E0,4.759473E0,4.987946E0,6.6098304E0,2.1432858E0,0E0,2.4660833E0,4.4658046E0,0E0,5.3051577E0,0E0,0E0,0E0,0E0,0E0,0E0,0E0,0E0,0E0,0E0,0E0,0E0],"parents":[2147483647,0,0,1,1,2,2,3,3,4,4,5,5,6,6,7,7,8,8,9,9,11,11,12,12,14,14],"right_children":[2,4,6,8,10,12,14,16,18,20,-1,22,24,-1,26,-1,-1,-1,-1,-1,-1,-1,-1,-1,-1,-1,-1],"split_conditions":[3.4093046E-1,8.46E-1,9.565217E-2,6.125E-1,9.835E-1,4.25E-1,7.855E-1,4.631579E-1,8.135E-1,2.4583334E-1,4.6919014E-2,6.375E-1,2.5E-2,-8.683427E-2,6.375E-1,-2.113867E-2,8.039755E-2,1.41125955E-2,1.01664476E-1,-6.7251466E-2,-6.1924374E-3,2.5956776E-2,-5.3655345E-2,-2.0882104E-2,1.5198623E-1,8.1761494E-2,-6.862595E-2],"split_indices":[6,1,3,5,1,6,1,3,1,6,0,5,3,0,5,0,0,0,0,0,0,0,0,0,0,0,0],"split_type":[0,0,0,0,0,0,0,0,0,0,0,0,0,0,0,0,0,0,0,0,0,0,0,0,0,0,0],"sum_hessian":[2.0016415E2,1.7233502E2,2.7829132E1,1.5401042E2,1.83246E1,1.1811803E1,1.6017328E1,4.4884033E1,1.09126396E2,1.620096E1,2.1236405E0,8.623368E0,3.1884348E0,1.1991846E1,4.0254827E0,4.2528362E1,2.3556676E0,1.0425076E2,4.8756375E0,1.0458815E1,5.742145E0,3.3441143E0,5.279254E0,1.0653018E0,2.123133E0,2.096004E0,1.9294785E0],"tree_param":{"num_deleted":"0","num_feature":"7","num_nodes":"27","size_leaf_vector":"1"}},{"base_weights":[-1.729546E-2,-3.292917E-2,8.162182E-2,8.037849E-2,-2.2114407E-1,1.5206303E-1,-5.2340966E-1,-6.467699E-1,3.2368153E-2,-2.1906592E-2,1.8763104E-2,2.5394205E-2,-7.2327234E-2,-5.9730303E-2,2.0623695E-2,2.961423E-2,-3.418472E-2],"categories":[],"categories_nodes":[],"categories_segments":[],"categories_sizes":[],"default_left":[0,0,0,0,0,0,0,0,0,0,0,0,0,0,0,0,0],"id":14,"left_children":[1,3,-1,5,7,9,11,13,15,-1,-1,-1,-1,-1,-1,-1,-1],"loss_changes":[3.2274196E0,4.1750994E0,0E0,5.378112E0,7.9540634E0,3.935154E0,4.5175266E0,2.6758347E0,7.461112E0,0E0,0E0,0E0,0E0,0E0,0E0,0E0,0E0],"parents":[2147483647,0,0,1,1,3,3,4,4,5,5,6,6,7,7,8,8],"right_children":[2,4,-1,6,8,10,12,14,16,-1,-1,-1,-1,-1,-1,-1,-1],"split_conditions":[9.835E-1,7.085E-1,8.162182E-2,3.5791665E-1,7.75E-1,1E-1,6.875E-2,5.217391E-1,1.8333334E-1,-2.1906592E-2,1.8763104E-2,2.5394205E-2,-7.2327234E-2,-5.9730303E-2,2.0623695E-2,2.961423E-2,-3.418472E-2],"split_indices":[1,1,0,6,1,6,3,4,3,0,0,0,0,0,0,0,0],"split_type":[0,0,0,0,0,0,0,0,0,0,0,0,0,0,0,0,0],"sum_hessian":[1.958938E2,1.9393983E2,1.9539545E0,1.2141779E2,7.252205E1,1.0920108E2,1.2216708E1,2.6492357E1,4.6029694E1,1.7339865E1,9.186122E1,3.859066E0,8.357642E0,2.4015757E1,2.4766018E0,2.664407E1,1.9385622E1],"tree_param":{"num_deleted":"0","num_feature":"7","num_nodes":"17","size_leaf_vector":"1"}},{"base_weights":[-2.6417552E-2,-4.1900035E-2,8.568563E-2,-1.3594674E-2,-6.06257E-1,-7.780012E-2,3.1825492E-1,-8.080039E-2,-2.9328909E-2,2.3775913E-2,-1.0309708E-2,4.1528583E-2,-2.9088672E-2,-6.1547127E-2,4.5597535E-2],"categories":[],"categories_nodes":[],"categories_segments":[],"categories_sizes":[],"default_left":[0,0,0,0,0,0,0,0,0,0,0,0,0,0,0],"id":15,"left_children":[1,3,-1,5,7,9,11,-1,13,-1,-1,-1,-1,-1,-1],"loss_changes":[3.4544344E0,3.1679254E0,0E0,4.0805984E0,2.1769779E0,3.1083279E0,4.4419317E0,0E0,2.6248949E0,0E0,0E0,0E0,0E0,0E0,0E0],"parents":[2147483647,0,0,1,1,3,3,4,4,5,5,6,6,8,8],"right_children":[2,4,-1,6,8,10,12,-1,14,-1,-1,-1,-1,-1,-1],"split_conditions":[8.75E-1,5.3333336E-1,8.568563E-2,3.6842105E-1,2.0654762E-1,5.25E-1,2.752976E-1,-8.080039E-2,6.315789E-1,2.3775913E-2,-1.0309708E-2,4.1528583E-2,-2.9088672E-2,-6.1547127E-2,4.5597535E-2],"split_indices":[4,4,0,4,6,5,6,0,4,0,0,0,0,0,0],"split_type":[0,0,0,0,0,0,0,0,0,0,0,0,0,0,0],"sum_hessian":[1.996585E2,1.9782948E2,1.8289982E0,1.893564E2,8.473093E0,1.5930083E2,3.0055574E1,4.54308E0,3.9300137E0,1.8517046E1,1.4078378E2,2.3401138E1,6.654438E0,1.631595E0,2.2984185E0],"tree_param":{"num_deleted":"0","num_feature":"7","num_nodes":"15","size_leaf_vector":"1"}},{"base_weights":[1.1096369E-2,-3.309463E-1,6.893508E-2,-6.038521E-1,1.5128782E-1,4.9309623E-1,-2.5329096E-2,4.9138677E-1,-7.964096E-1,4.2566013E-1,-6.4497285E-2,1.207022E0,2.6791334E-1,-3.805229E-1,3.982228E-2,8.145381E-2,-2.2708692E-2,-7.0295066E-2,1.578835E-2,-3.6374216E-3,9.1087565E-2,1.5097963E-2,1.2141863E-1,-2.0811731E-2,4.8157394E-2,-4.2741127E-2,3.1123195E-2,9.53969E-2,2.6406243E-4],"categories":[],"categories_nodes":[],"categories_segments":[],"categories_sizes":[],"default_left":[0,0,0,0,0,0,0,0,0,0,0,0,0,0,0,0,0,0,0,0,0,0,0,0,0,0,0,0,0],"id":16,"left_children":[1,3,5,7,9,11,13,15,17,19,-1,21,23,25,27,-1,-1,-1,-1,-1,-1,-1,-1,-1,-1,-1,-1,-1,-1],"loss_changes":[3.8928206E0,3.8377101E0,6.7357864E0,4.2674727E0,3.2559943E0,4.599818E0,3.2209096E0,1.6638927E0,1.4827023E0,3.1662338E0,0E0,1.9466248E0,4.490052E0,2.7594078E0,4.9618545E0,0E0,0E0,0E0,0E0,0E0,0E0,0E0,0E0,0E0,0E0,0E0,0E0,0E0,0E0],"parents":[2147483647,0,0,1,1,2,2,3,3,4,4,5,5,6,6,7,7,8,8,9,9,11,11,12,12,13,13,14,14],"right_children":[2,4,6,8,10,12,14,16,18,20,-1,22,24,26,28,-1,-1,-1,-1,-1,-1,-1,-1,-1,-1,-1,-1,-1,-1],"split_conditions":[1.10416666E-1,7.125E-1,1.5208334E-1,4.34E-1,8.5E-1,3.0555556E-2,1.9583334E-1,5.75E-1,4.631579E-1,7.875E-1,-6.4497285E-2,6.75E-2,1.6176471E-1,8.375E-1,1.9821429E-1,8.145381E-2,-2.2708692E-2,-7.0295066E-2,1.578835E-2,-3.6374216E-3,9.1087565E-2,1.5097963E-2,1.2141863E-1,-2.0811731E-2,4.8157394E-2,-4.2741127E-2,3.1123195E-2,9.53969E-2,2.6406243E-4],"split_indices":[6,5,6,1,5,3,6,5,3,5,0,0,3,5,6,0,0,0,0,0,0,0,0,0,0,0,0,0,0],"split_type":[0,0,0,0,0,0,0,0,0,0,0,0,0,0,0,0,0,0,0,0,0,0,0,0,0,0,0,0,0],"sum_hessian":[1.9461981E2,2.7466774E1,1.6715303E2,1.7379293E1,1.0087481E1,2.9623766E1,1.3752927E2,2.3665884E0,1.5012704E1,8.272459E0,1.8150215E0,6.057794E0,2.3565973E1,2.0566072E1,1.16963196E2,1.2225201E0,1.1440682E0,1.3971713E1,1.0409913E0,5.5446305E0,2.727829E0,1.792057E0,4.265737E0,9.21713E0,1.4348843E1,1.739642E1,3.1696532E0,2.6201103E0,1.1434309E2],"tree_param":{"num_deleted":"0","num_feature":"7","num_nodes":"29","size_leaf_vector":"1"}},{"base_weights":[3.326914E-2,1.7404355E-2,9.407807E-2,4.731228E-2,-5.802335E-1,-3.1028867E-2,2.3840044E-1,5.6133717E-2,-8.307155E-1,1.6185116E-4,-8.0654725E-2,3.1386025E-2,-2.758653E-2,-7.923139E-2,-2.949141E-2],"categories":[],"categories_nodes":[],"categories_segments":[],"categories_sizes":[],"default_left":[0,0,0,0,0,0,0,0,0,0,0,0,0,0,0],"id":17,"left_children":[1,3,-1,5,7,9,11,-1,13,-1,-1,-1,-1,-1,-1],"loss_changes":[3.5185444E0,3.4871068E0,0E0,2.780703E0,3.5690725E0,4.2741184E0,4.981436E0,0E0,2.427001E-1,0E0,0E0,0E0,0E0,0E0,0E0],"parents":[2147483647,0,0,1,1,3,3,4,4,5,5,6,6,8,8],"right_children":[2,4,-1,6,8,10,12,-1,14,-1,-1,-1,-1,-1,-1],"split_conditions":[8.888889E-1,5.3333336E-1,9.407807E-2,2.777778E-1,4.12E-1,3.65E-1,2.752976E-1,5.6133717E-2,2.0654762E-1,1.6185116E-4,-8.0654725E-2,3.1386025E-2,-2.758653E-2,-7.923139E-2,-2.949141E-2],"split_indices":[4,4,0,4,1,3,6,0,6,0,0,0,0,0,0],"split_type":[0,0,0,0,0,0,0,0,0,0,0,0,0,0,0],"sum_hessian":[1.942149E2,1.9255676E2,1.6581341E0,1.8425674E2,8.300027E0,1.3127504E2,5.2981705E1,1.0622756E0,7.237751E0,1.2794525E2,3.3297834E0,4.2177635E1,1.0804069E1,4.5292315E0,2.7085195E0],"tree_param":{"num_deleted":"0","num_feature":"7","num_nodes":"15","size_leaf_vector":"1"}},{"base_weights":[1.0013072E-2,-8.170113E-1,3.3706427E-2,-7.395839E-2,-2.0490935E-2,4.433951E-1,1.0824369E-3,-1.5077086E-1,1.1152314E0,7.539864E-2,-2.247634E-1,9.423564E-2,-5.5662174E-2,4.2016017E-3,1.4393577E-1,1.701951E-2,-4.442044E-3,3.1393137E-2,-4.4678148E-2],"categories":[],"categories_nodes":[],"categories_segments":[],"categories_sizes":[],"default_left":[0,0,0,0,0,0,0,0,0,0,0,0,0,0,0,0,0,0,0],"id":18,"left_children":[1,3,5,-1,-1,7,9,11,13,15,17,-1,-1,-1,-1,-1,-1,-1,-1],"loss_changes":[3.936172E0,1.0045934E-1,2.604171E0,0E0,0E0,5.9048615E0,3.0633256E0,6.98025E0,4.8945427E0,2.4809937E0,9.526391E0,0E0,0E0,0E0,0E0,0E0,0E0,0E0,0E0],"parents":[2147483647,0,0,1,1,2,2,5,5,6,6,7,7,8,8,9,9,10,10],"right_children":[2,4,6,-1,-1,8,10,12,14,16,18,-1,-1,-1,-1,-1,-1,-1,-1],"split_conditions":[3.5714287E-2,7.875E-1,5E-1,-7.395839E-2,-2.0490935E-2,2.422619E-1,2.7589285E-1,4.25E-1,4.75E-1,8.75E-2,7.5E-2,9.423564E-2,-5.5662174E-2,4.2016017E-3,1.4393577E-1,1.701951E-2,-4.442044E-3,3.1393137E-2,-4.4678148E-2],"split_indices":[6,5,5,0,0,6,6,5,5,0,3,0,0,0,0,0,0,0,0],"split_type":[0,0,0,0,0,0,0,0,0,0,0,0,0,0,0,0,0,0,0],"sum_hessian":[1.9847115E2,4.595096E0,1.9387605E2,3.3121715E0,1.2829245E0,1.3371174E1,1.8050488E2,7.5073366E0,5.863837E0,1.3631544E2,4.418943E1,1.8458477E0,5.661489E0,2.7178173E0,3.1460195E0,6.622137E1,7.009408E1,1.5446467E1,2.8742964E1],"tree_param":{"num_deleted":"0","num_feature":"7","num_nodes":"19","size_leaf_vector":"1"}},{"base_weights":[-3.9748553E-2,-3.2589966E-1,8.5148085E-3,-5.4678327E-1,-1.0268386E-2,1.1395298E0,-2.3552759E-2,-8.5028505E-1,-9.56881E-2,1.1635154E0,-4.9807486E-1,1.2136325E-1,5.8946586E-1,1.1969652E-1,-1.7543826E-1,-7.952392E-2,5.2747917E-3,2.3725424E-2,-6.720001E-2,2.0386836E-2,1.3718134E-1,-6.849684E-2,2.180488E-2,8.631233E-2,-9.307774E-3,-4.5959638E-3,5.2361082E-2,2.5166193E-2,-2.8239533E-2],"categories":[],"categories_nodes":[],"categories_segments":[],"categories_sizes":[],"default_left":[0,0,0,0,0,0,0,0,0,0,0,0,0,0,0,0,0,0,0,0,0,0,0,0,0,0,0,0,0],"id":19,"left_children":[1,3,5,7,9,11,13,15,17,19,21,-1,23,25,27,-1,-1,-1,-1,-1,-1,-1,-1,-1,-1,-1,-1,-1,-1],"loss_changes":[2.7132401E0,1.9708862E0,6.1530023E0,2.1994138E0,7.8460484E0,7.7019215E-2,3.6160378E0,1.3606057E0,2.5343482E0,1.5794439E0,2.9009306E0,0E0,1.3481119E0,8.150067E0,7.1240263E0,0E0,0E0,0E0,0E0,0E0,0E0,0E0,0E0,0E0,0E0,0E0,0E0,0E0,0E0],"parents":[2147483647,0,0,1,1,2,2,3,3,4,4,5,5,6,6,7,7,8,8,9,9,10,10,12,12,13,13,14,14],"right_children":[2,4,6,8,10,12,14,16,18,20,22,-1,24,26,28,-1,-1,-1,-1,-1,-1,-1,-1,-1,-1,-1,-1,-1,-1],"split_conditions":[1.10416666E-1,2.5E-1,1.2875E-1,6.535E-1,1.71875E-1,1.1875E-1,6.75E-1,1.02380954E-1,1.6666667E-1,1.673913E-1,4.4444445E-1,1.2136325E-1,1.4347826E-1,7.64E-1,5.66E-1,-7.952392E-2,5.2747917E-3,2.3725424E-2,-6.720001E-2,2.0386836E-2,1.3718134E-1,-6.849684E-2,2.180488E-2,8.631233E-2,-9.307774E-3,-4.5959638E-3,5.2361082E-2,2.5166193E-2,-2.8239533E-2],"split_indices":[6,4,6,1,3,6,5,6,4,3,4,0,3,1,1,0,0,0,0,0,0,0,0,0,0,0,0,0,0],"split_type":[0,0,0,0,0,0,0,0,0,0,0,0,0,0,0,0,0,0,0,0,0,0,0,0,0,0,0,0,0],"sum_hessian":[1.9525957E2,2.7350033E1,1.6790953E2,1.5659162E1,1.169087E1,3.6772866E0,1.6423225E2,8.831977E0,6.827185E0,3.0255191E0,8.665351E0,1.1382005E0,2.539086E0,8.462807E1,7.960418E1,7.560684E0,1.2712926E0,4.8649096E0,1.9622753E0,1.6945374E0,1.3309819E0,5.8402042E0,2.8251472E0,1.187222E0,1.351864E0,6.424195E1,2.0386116E1,2.0967299E1,5.8636883E1],"tree_param":{"num_deleted":"0","num_feature":"7","num_nodes":"29","size_leaf_vector":"1"}},{"base_weights":[5.7687484E-2,3.772313E-1,9.29084E-3,2.1958564E-1,9.6019454E-2,6.201267E-2,-4.3392766E-1,-1.971915E-2,7.971336E-1,1.3124507E-2,4.3501472E-1,-9.2196524E-1,-2.5665632E-2,2.0278603E-2,-8.227932E-2,4.69794E-3,1.0014747E-1,-6.1802054E-3,1.706844E-2,4.5016173E-2,-5.7097495E-2,-8.702612E-2,9.250799E-3,-7.735712E-2,3.7668608E-2],"categories":[],"categories_nodes":[],"categories_segments":[],"categories_sizes":[],"default_left":[0,0,0,0,0,0,0,0,0,0,0,0,0,0,0,0,0,0,0,0,0,0,0,0,0],"id":20,"left_children":[1,3,5,7,-1,9,11,13,15,17,19,21,23,-1,-1,-1,-1,-1,-1,-1,-1,-1,-1,-1,-1],"loss_changes":[3.10121E0,3.1592834E0,4.1250186E0,3.2449121E0,0E0,2.8683538E0,3.7159927E0,5.0824165E0,2.2328234E0,2.5567796E0,3.075928E0,1.5921593E0,5.7125235E0,0E0,0E0,0E0,0E0,0E0,0E0,0E0,0E0,0E0,0E0,0E0,0E0],"parents":[2147483647,0,0,1,1,2,2,3,3,5,5,6,6,7,7,8,8,9,9,10,10,11,11,12,12],"right_children":[2,4,6,8,-1,10,12,14,16,18,20,22,24,-1,-1,-1,-1,-1,-1,-1,-1,-1,-1,-1,-1],"split_conditions":[4.505E-1,4.0263158E-1,4.5454547E-1,4.28E-1,9.6019454E-2,3.809524E-1,1.9583334E-1,4.06E-1,6.625E-1,7.75E-1,3.5555556E-1,8.4615386E-1,6.375E-1,2.0278603E-2,-8.227932E-2,4.69794E-3,1.0014747E-1,-6.1802054E-3,1.706844E-2,4.5016173E-2,-5.7097495E-2,-8.702612E-2,9.250799E-3,-7.735712E-2,3.7668608E-2],"split_indices":[1,3,4,1,0,4,6,1,5,1,6,4,5,0,0,0,0,0,0,0,0,0,0,0,0],"split_type":[0,0,0,0,0,0,0,0,0,0,0,0,0,0,0,0,0,0,0,0,0,0,0,0,0],"sum_hessian":[1.9975949E2,2.538143E1,1.7437807E2,2.2364397E1,3.0170314E0,1.5660915E2,1.776892E1,1.6495436E1,5.868963E0,1.3937668E2,1.723246E1,7.520557E0,1.02483635E1,1.3569251E1,2.9261835E0,2.6670501E0,3.2019126E0,9.645469E1,4.2921997E1,1.5967722E1,1.2647378E0,6.442338E0,1.0782192E0,3.2118795E0,7.0364842E0],"tree_param":{"num_deleted":"0","num_feature":"7","num_nodes":"25","size_leaf_vector":"1"}},{"base_weights":[-4.8362903E-2,1.0949192E-1,-1.280088E-1,-7.6008774E-2,6.369222E-1,2.3964484E-1,-2.241419E-1,2.0149039E-1,-3.722262E-1,9.863098E-1,-1.9922834E-2,-2.2099482E-2,1.1555963E0,-7.3747045E-1,-1.5170582E-1,-4.4628285E-2,2.6331475E-2,-8.675349E-3,-8.819996E-2,9.666923E-2,-5.0933864E-2,-6.51467E-2,2.7247056E-2,-2.0183858E-2,1.1075495E-1,2.225811E-2,1.3687846E-1,2.2848845E-2,-9.228853E-2,2.3562808E-2,-1.9333746E-2],"categories":[],"categories_nodes":[],"categories_segments":[],"categories_sizes":[],"default_left":[0,0,0,0,0,0,0,0,0,0,0,0,0,0,0,0,0,0,0,0,0,0,0,0,0,0,0,0,0,0,0],"id":21,"left_children":[1,3,5,7,9,11,13,15,17,19,21,23,25,27,29,-1,-1,-1,-1,-1,-1,-1,-1,-1,-1,-1,-1,-1,-1,-1,-1],"loss_changes":[2.5140936E0,6.625557E0,4.741301E0,4.236491E0,4.0582833E0,6.7322607E0,3.8167186E0,2.7802293E0,4.6652E0,4.916505E0,2.3080714E0,7.711558E0,2.5626745E0,5.78165E0,3.8388522E0,0E0,0E0,0E0,0E0,0E0,0E0,0E0,0E0,0E0,0E0,0E0,0E0,0E0,0E0,0E0,0E0],"parents":[2147483647,0,0,1,1,2,2,3,3,4,4,5,5,6,6,7,7,8,8,9,9,10,10,11,11,12,12,13,13,14,14],"right_children":[2,4,6,8,10,12,14,16,18,20,22,24,26,28,30,-1,-1,-1,-1,-1,-1,-1,-1,-1,-1,-1,-1,-1,-1,-1,-1],"split_conditions":[5.765E-1,5.33E-1,5.75E-1,4.505E-1,2.4583334E-1,3.3E-1,6.125E-1,3.185E-1,2.5384617E-1,4.090909E-1,2.669643E-1,4.1607141E-1,2.0625E-1,9.565217E-2,6.5E-1,-4.4628285E-2,2.6331475E-2,-8.675349E-3,-8.819996E-2,9.666923E-2,-5.0933864E-2,-6.51467E-2,2.7247056E-2,-2.0183858E-2,1.1075495E-1,2.225811E-2,1.3687846E-1,2.2848845E-2,-9.228853E-2,2.3562808E-2,-1.9333746E-2],"split_indices":[1,1,5,1,6,3,5,1,3,4,6,6,6,3,5,0,0,0,0,0,0,0,0,0,0,0,0,0,0,0,0],"split_type":[0,0,0,0,0,0,0,0,0,0,0,0,0,0,0,0,0,0,0,0,0,0,0,0,0,0,0,0,0,0,0],"sum_hessian":[1.9785307E2,6.622438E1,1.316287E2,4.9626354E1,1.6598026E1,2.6974384E1,1.04654305E2,2.5787853E1,2.3838503E1,1.0507378E1,6.090649E0,2.173828E1,5.236106E0,1.1806299E1,9.284801E1,3.2262766E0,2.2561577E1,1.8356417E1,5.4820857E0,9.467506E0,1.0398715E0,1.5082607E0,4.5823884E0,1.9386105E1,2.352174E0,2.6115174E0,2.6245887E0,3.5043733E0,8.301926E0,1.5196739E1,7.765126E1],"tree_param":{"num_deleted":"0","num_feature":"7","num_nodes":"31","size_leaf_vector":"1"}},{"base_weights":[-5.354045E-4,-7.3390764E-1,1.7442087E-2,-6.919709E-2,-9.840571E-3,8.8885106E-2,-1.8711008E-1,-1.2461923E-1,2.2723274E-1,3.209007E-1,-4.6730107E-1,-2.9493775E-2,1.7767496E-2,7.203022E-2,1.1924373E-2,6.9607355E-2,-3.8830847E-2,-6.1354324E-2,1.1603761E-2],"categories":[],"categories_nodes":[],"categories_segments":[],"categories_sizes":[],"default_left":[0,0,0,0,0,0,0,0,0,0,0,0,0,0,0,0,0,0,0],"id":22,"left_children":[1,3,5,-1,-1,7,9,11,13,15,17,-1,-1,-1,-1,-1,-1,-1,-1],"loss_changes":[2.6207058E0,2.7438593E-1,2.8524346E0,0E0,0E0,4.2964277E0,7.3456597E0,4.944068E0,4.498645E0,8.642341E0,6.164029E0,0E0,0E0,0E0,0E0,0E0,0E0,0E0,0E0],"parents":[2147483647,0,0,1,1,2,2,5,5,6,6,7,7,8,8,9,9,10,10],"right_children":[2,4,6,-1,-1,8,10,12,14,16,18,-1,-1,-1,-1,-1,-1,-1,-1],"split_conditions":[3.5714287E-2,3.125E-1,2.7589285E-1,-6.919709E-2,-9.840571E-3,1.1E-1,7.5E-2,7.125E-1,1.1956522E-1,7.305E-1,7.525E-1,-2.9493775E-2,1.7767496E-2,7.203022E-2,1.1924373E-2,6.9607355E-2,-3.8830847E-2,-6.1354324E-2,1.1603761E-2],"split_indices":[6,4,6,0,0,3,3,5,3,1,1,0,0,0,0,0,0,0,0],"split_type":[0,0,0,0,0,0,0,0,0,0,0,0,0,0,0,0,0,0,0],"sum_hessian":[1.9680545E2,3.756091E0,1.9304936E2,2.7502084E0,1.0058829E0,1.4349646E2,4.9552902E1,5.6461594E1,8.703486E1,1.7563482E1,3.1989422E1,3.3099415E1,2.3362177E1,7.961979E0,7.907288E1,1.0400311E1,7.16317E0,2.1309856E1,1.0679564E1],"tree_param":{"num_deleted":"0","num_feature":"7","num_nodes":"19","size_leaf_vector":"1"}},{"base_weights":[1.6619049E-2,4.347716E-1,-1.5853822E-2,-6.813417E-2,7.1193194E-1,1.5720831E-1,-1.05117016E-1,4.02126E-1,1.2035834E-1,6.351467E-2,9.645451E-1,-4.9824885E-1,-5.450984E-3,5.2106857E-2,-6.0051836E-2,-3.5441583E-3,7.1687765E-2,1.1154028E-1,-5.313053E-2,-6.359132E-2,2.805322E-4,1.6681386E-2,-2.0195335E-2],"categories":[],"categories_nodes":[],"categories_segments":[],"categories_sizes":[],"default_left":[0,0,0,0,0,0,0,0,0,0,0,0,0,0,0,0,0,0,0,0,0,0,0],"id":23,"left_children":[1,3,5,-1,7,9,11,13,-1,15,17,19,21,-1,-1,-1,-1,-1,-1,-1,-1,-1,-1],"loss_changes":[2.6821122E0,5.681002E0,2.8556433E0,0E0,2.4039173E0,4.699537E0,4.7714496E0,3.4120934E0,0E0,5.1980414E0,5.4569407E0,3.6690307E0,5.2430954E0,0E0,0E0,0E0,0E0,0E0,0E0,0E0,0E0,0E0,0E0],"parents":[2147483647,0,0,1,1,2,2,4,4,5,5,6,6,7,7,9,9,10,10,11,11,12,12],"right_children":[2,4,6,-1,8,10,12,14,-1,16,18,20,22,-1,-1,-1,-1,-1,-1,-1,-1,-1,-1],"split_conditions":[5E-1,1.08333334E-1,5.765E-1,-6.813417E-2,1E0,5.655E-1,6.37E-1,3.846154E-1,1.2035834E-1,8.25E-1,7.25E-1,2.2083333E-1,8.75E-2,5.2106857E-2,-6.0051836E-2,-3.5441583E-3,7.1687765E-2,1.1154028E-1,-5.313053E-2,-6.359132E-2,2.805322E-4,1.6681386E-2,-2.0195335E-2],"split_indices":[5,6,1,0,2,1,1,4,0,5,5,6,0,0,0,0,0,0,0,0,0,0,0],"split_type":[0,0,0,0,0,0,0,0,0,0,0,0,0,0,0,0,0,0,0,0,0,0,0],"sum_hessian":[1.9601714E2,1.3232589E1,1.8278455E2,1.9781364E0,1.1254452E1,6.193831E1,1.2084624E2,9.175243E0,2.0792086E0,5.646416E1,5.4741483E0,2.3631763E1,9.721447E1,7.901961E0,1.2732828E0,5.0828793E1,5.63537E0,4.445252E0,1.0288962E0,1.4484291E1,9.147472E0,5.2172844E1,4.5041626E1],"tree_param":{"num_deleted":"0","num_feature":"7","num_nodes":"23","size_leaf_vector":"1"}},{"base_weights":[7.4114245E-3,2.3324456E-2,-6.325271E-1,2.454359E-3,6.8326E-1,-7.206684E-2,-1.2447408E-3,9.861986E-2,-9.316661E-2,9.4377056E-2,-5.459916E-2,-1.2342091E-2,1.5852543E-2,1.5778393E-2,-1.6004508E-2],"categories":[],"categories_nodes":[],"categories_segments":[],"categories_sizes":[],"default_left":[0,0,0,0,0,0,0,0,0,0,0,0,0,0,0],"id":24,"left_children":[1,3,5,7,9,-1,-1,11,13,-1,-1,-1,-1,-1,-1],"loss_changes":[2.0303583E0,2.6715531E0,7.868551E-1,1.7484766E0,4.83693E0,0E0,0E0,2.416689E0,2.999352E0,0E0,0E0,0E0,0E0,0E0,0E0],"parents":[2147483647,0,0,1,1,2,2,3,3,4,4,7,7,8,8],"right_children":[2,4,6,8,10,-1,-1,12,14,-1,-1,-1,-1,-1,-1],"split_conditions":[9E-1,8.75E-1,2.0833333E-1,8.75E-2,2.75E-1,-7.206684E-2,-1.2447408E-3,5.5E-2,6.875E-2,9.4377056E-2,-5.459916E-2,-1.2342091E-2,1.5852543E-2,1.5778393E-2,-1.6004508E-2],"split_indices":[5,5,4,0,6,0,0,3,3,0,0,0,0,0,0],"split_type":[0,0,0,0,0,0,0,0,0,0,0,0,0,0,0],"sum_hessian":[1.969312E2,1.930932E2,3.8379996E0,1.8814688E2,4.9463215E0,2.354129E0,1.4838706E0,9.37907E1,9.435617E1,3.72756E0,1.2187613E0,2.6333803E1,6.7456894E1,2.5159105E1,6.919707E1],"tree_param":{"num_deleted":"0","num_feature":"7","num_nodes":"15","size_leaf_vector":"1"}},{"base_weights":[-2.3192123E-2,1.8139325E-1,-7.723262E-2,-3.5900208E-1,3.0914092E-1,-6.235561E-1,-7.931462E-3,1.3984342E-1,-6.9282174E-1,1.2998302E0,1.6875555E-1,1.8659166E-1,-9.6692586E-1,5.0253995E-2,-4.0661904E-1,-2.0433897E-2,5.2611213E-2,1.6715288E-2,-8.014316E-2,1.6538862E-2,1.2906569E-1,5.75851E-2,-3.522073E-3,-4.9613394E-2,1.3452636E-1,-2.339027E-2,-9.115766E-2,9.270862E-3,-4.697412E-2,-8.625791E-2,-7.4696E-3],"categories":[],"categories_nodes":[],"categories_segments":[],"categories_sizes":[],"default_left":[0,0,0,0,0,0,0,0,0,0,0,0,0,0,0,0,0,0,0,0,0,0,0,0,0,0,0,0,0,0,0],"id":25,"left_children":[1,3,5,7,9,11,13,15,17,19,21,23,25,27,29,-1,-1,-1,-1,-1,-1,-1,-1,-1,-1,-1,-1,-1,-1,-1,-1],"loss_changes":[2.1847305E0,2.9637854E0,5.901957E0,1.4896711E0,4.503831E0,5.0624623E0,3.2557456E0,1.0245454E0,1.6521776E0,1.0597467E0,3.654251E0,8.354645E0,1.1202679E0,5.196867E0,3.659195E0,0E0,0E0,0E0,0E0,0E0,0E0,0E0,0E0,0E0,0E0,0E0,0E0,0E0,0E0,0E0,0E0],"parents":[2147483647,0,0,1,1,2,2,3,3,4,4,5,5,6,6,7,7,8,8,9,9,10,10,11,11,12,12,13,13,14,14],"right_children":[2,4,6,8,10,12,14,16,18,20,22,24,26,28,30,-1,-1,-1,-1,-1,-1,-1,-1,-1,-1,-1,-1,-1,-1,-1,-1],"split_conditions":[5.75E-1,5.263158E-2,6.125E-1,5E-1,6.875E-2,9.565217E-2,8.46E-1,2.422619E-1,1.08333334E-1,4.78E-1,6.75E-2,2.5E-2,5.495E-1,3.5791665E-1,8.8E-2,-2.0433897E-2,5.2611213E-2,1.6715288E-2,-8.014316E-2,1.6538862E-2,1.2906569E-1,5.75851E-2,-3.522073E-3,-4.9613394E-2,1.3452636E-1,-2.339027E-2,-9.115766E-2,9.270862E-3,-4.697412E-2,-8.625791E-2,-7.4696E-3],"split_indices":[5,4,5,5,3,3,1,6,6,1,0,3,1,6,3,0,0,0,0,0,0,0,0,0,0,0,0,0,0,0,0],"split_type":[0,0,0,0,0,0,0,0,0,0,0,0,0,0,0,0,0,0,0,0,0,0,0,0,0,0,0,0,0,0,0],"sum_hessian":[1.9534058E2,4.032446E1,1.5501611E2,7.363845E0,3.2960617E1,1.6549925E1,1.3846619E2,3.1851606E0,4.178684E0,3.065884E0,2.9894732E1,5.0623612E0,1.1487564E1,1.2159436E2,1.6871832E1,2.0936527E0,1.0915078E0,1.1489803E0,3.0297039E0,1.0531559E0,2.0127282E0,7.663928E0,2.2230804E1,3.6680787E0,1.3942823E0,2.8887568E0,8.598807E0,1.1098518E2,1.0609174E1,4.589625E0,1.22822075E1],"tree_param":{"num_deleted":"0","num_feature":"7","num_nodes":"31","size_leaf_vector":"1"}},{"base_weights":[7.494243E-3,-6.85657E-3,7.467842E-2,1.4478373E-2,-6.263328E-1,-4.2651533E-3,8.107437E-2,-8.135149E-2,2.8199129E-2,2.6833212E-3,-3.890737E-2],"categories":[],"categories_nodes":[],"categories_segments":[],"categories_sizes":[],"default_left":[0,0,0,0,0,0,0,0,0,0,0],"id":26,"left_children":[1,3,-1,5,7,9,-1,-1,-1,-1,-1],"loss_changes":[2.608201E0,2.5703688E0,0E0,3.5304213E0,2.8336782E0,3.4035354E0,0E0,0E0,0E0,0E0,0E0],"parents":[2147483647,0,0,1,1,3,3,4,4,5,5],"right_children":[2,4,-1,6,8,10,-1,-1,-1,-1,-1],"split_conditions":[9.835E-1,9.285E-1,7.467842E-2,9.12E-1,2.982143E-1,8.46E-1,8.107437E-2,-8.135149E-2,2.8199129E-2,2.6833212E-3,-3.890737E-2],"split_indices":[1,1,0,1,6,1,0,0,0,0,0],"split_type":[0,0,0,0,0,0,0,0,0,0,0],"sum_hessian":[1.9479114E2,1.927958E2,1.9953295E0,1.8732104E2,5.474764E0,1.8484843E2,2.4726186E0,3.8855076E0,1.5892563E0,1.7226875E2,1.2579675E1],"tree_param":{"num_deleted":"0","num_feature":"7","num_nodes":"11","size_leaf_vector":"1"}},{"base_weights":[9.212357E-3,-3.4003893E-1,5.937493E-2,-8.383385E-1,1.5548141E-2,3.6660078E-1,-1.7690556E-2,-8.478614E-2,-2.238944E-1,9.418724E-1,-4.6230492E-1,1.0511843E0,1.3754477E-1,-6.0645215E-2,5.338117E-1,1.4440677E-2,-5.4026425E-2,1.2168084E-1,-1.4464181E-2,-8.28021E-2,5.1686824E-3,8.202315E-3,9.5719695E-2,3.0320177E-2,-3.7682325E-2,-2.540074E-5,-5.8342654E-2,-6.1917707E-2,6.6528775E-2],"categories":[],"categories_nodes":[],"categories_segments":[],"categories_sizes":[],"default_left":[0,0,0,0,0,0,0,0,0,0,0,0,0,0,0,0,0,0,0,0,0,0,0,0,0,0,0,0,0],"id":27,"left_children":[1,3,5,7,9,11,13,-1,15,17,19,21,23,25,27,-1,-1,-1,-1,-1,-1,-1,-1,-1,-1,-1,-1,-1,-1],"loss_changes":[3.4661834E0,4.4165077E0,4.0988436E0,1.1736269E0,7.2896004E0,5.297933E0,3.3284593E0,0E0,8.5484684E-1,3.9152126E0,3.3519192E0,1.0560932E0,4.169116E0,5.2428493E0,4.5988855E0,0E0,0E0,0E0,0E0,0E0,0E0,0E0,0E0,0E0,0E0,0E0,0E0,0E0,0E0],"parents":[2147483647,0,0,1,1,2,2,3,3,4,4,5,5,6,6,8,8,9,9,10,10,11,11,12,12,13,13,14,14],"right_children":[2,4,6,8,10,12,14,-1,16,18,20,22,24,26,28,-1,-1,-1,-1,-1,-1,-1,-1,-1,-1,-1,-1,-1,-1],"split_conditions":[1E-1,1.1785714E-1,1.5208334E-1,6.975E-1,1.71875E-1,3.0555556E-2,9.065E-1,-8.478614E-2,8.08E-1,5.765E-1,6.125E-1,1.08333334E-1,6.87E-1,8.35E-1,2.0208333E-1,1.4440677E-2,-5.4026425E-2,1.2168084E-1,-1.4464181E-2,-8.28021E-2,5.1686824E-3,8.202315E-3,9.5719695E-2,3.0320177E-2,-3.7682325E-2,-2.540074E-5,-5.8342654E-2,-6.1917707E-2,6.6528775E-2],"split_indices":[6,3,6,1,3,3,1,0,1,1,5,6,1,1,6,0,0,0,0,0,0,0,0,0,0,0,0,0,0],"split_type":[0,0,0,0,0,0,0,0,0,0,0,0,0,0,0,0,0,0,0,0,0,0,0,0,0,0,0,0,0],"sum_hessian":[1.9569652E2,2.3851864E1,1.7184465E2,9.367359E0,1.4484505E1,3.3708164E1,1.3813649E2,6.3525906E0,3.0147681E0,4.5987396E0,9.885765E0,7.5510416E0,2.6157124E1,1.2898065E2,9.155834E0,1.9067868E0,1.1079813E0,2.7996924E0,1.7990471E0,4.274901E0,5.6108646E0,1.229559E0,6.3214827E0,1.8997082E1,7.1600432E0,1.1922416E2,9.756496E0,1.4016212E0,7.754213E0],"tree_param":{"num_deleted":"0","num_feature":"7","num_nodes":"29","size_leaf_vector":"1"}},{"base_weights":[-3.935052E-3,7.480363E-2,-1.3199076E-1,8.5214626E-5,4.7465342E-1,-5.320106E-1,7.564646E-2,7.4718714E-2,-5.224136E-1,1.0309112E0,-2.6044923E-1,-6.7265135E-1,5.392413E-1,3.7099063E-1,-2.4980962E-1,1.5789109E-3,7.991547E-2,2.0959914E-2,-8.473625E-2,2.221409E-2,1.0710554E-1,-4.521108E-2,5.324981E-2,1.4005174E-2,-5.783401E-2,-1.419041E-2,7.609761E-2,6.444102E-2,-1.2912868E-2,-3.5344135E-2,3.9350428E-2],"categories":[],"categories_nodes":[],"categories_segments":[],"categories_sizes":[],"default_left":[0,0,0,0,0,0,0,0,0,0,0,0,0,0,0,0,0,0,0,0,0,0,0,0,0,0,0,0,0,0,0],"id":28,"left_children":[1,3,5,7,9,11,13,15,17,19,21,23,25,27,29,-1,-1,-1,-1,-1,-1,-1,-1,-1,-1,-1,-1,-1,-1,-1,-1],"loss_changes":[1.9506538E0,3.5800455E0,6.1576004E0,4.015227E0,7.983179E0,4.173111E0,4.837207E0,4.5585566E0,5.696312E0,2.1658592E0,2.8945315E0,1.0982876E0,1.1991135E0,6.2094865E0,3.6463213E0,0E0,0E0,0E0,0E0,0E0,0E0,0E0,0E0,0E0,0E0,0E0,0E0,0E0,0E0,0E0,0E0],"parents":[2147483647,0,0,1,1,2,2,3,3,4,4,5,5,6,6,7,7,8,8,9,9,10,10,11,11,12,12,13,13,14,14],"right_children":[2,4,6,8,10,12,14,16,18,20,22,24,26,28,30,-1,-1,-1,-1,-1,-1,-1,-1,-1,-1,-1,-1,-1,-1,-1,-1],"split_conditions":[7.085E-1,6.65E-1,7.75E-1,3.4093046E-1,8.75E-2,5.217391E-1,8.46E-1,3.1625E-1,1.25E-1,1E-1,6.975E-1,4.5E-1,7.25E-1,2.1652777E-1,3.5277778E-1,1.5789109E-3,7.991547E-2,2.0959914E-2,-8.473625E-2,2.221409E-2,1.0710554E-1,-4.521108E-2,5.324981E-2,1.4005174E-2,-5.783401E-2,-1.419041E-2,7.609761E-2,6.444102E-2,-1.2912868E-2,-3.5344135E-2,3.9350428E-2],"split_indices":[1,1,1,6,0,4,1,6,4,4,1,5,5,6,6,0,0,0,0,0,0,0,0,0,0,0,0,0,0,0,0],"split_type":[0,0,0,0,0,0,0,0,0,0,0,0,0,0,0,0,0,0,0,0,0,0,0,0,0,0,0,0,0,0,0],"sum_hessian":[1.9148164E2,1.1883093E2,7.265072E1,1.00964325E2,1.7866608E1,2.4291035E1,4.835968E1,8.909503E1,1.1869297E1,9.94144E0,7.9251666E0,2.1800955E1,2.4900787E0,2.5279335E1,2.3080345E1,8.5056366E1,4.038667E0,5.0303473E0,6.83895E0,3.4365144E0,6.5049253E0,6.2564597E0,1.6687073E0,1.0815545E0,2.07194E1,1.1168334E0,1.3732452E0,1.3636697E1,1.1642638E1,1.8655546E1,4.4247985E0],"tree_param":{"num_deleted":"0","num_feature":"7","num_nodes":"31","size_leaf_vector":"1"}},{"base_weights":[-1.2036442E-2,-6.810412E-1,8.274139E-4,-1.4233284E-2,-6.454304E-2,4.1749308E-1,-3.101636E-2,1.278915E-1,1.247058E-1,-2.0765635E-1,4.2472746E-2,6.1058715E-2,-3.8775567E-2,-6.38842E-2,-3.1897395E-3,1.1576943E-2,-1.0828938E-2],"categories":[],"categories_nodes":[],"categories_segments":[],"categories_sizes":[],"default_left":[0,0,0,0,0,0,0,0,0,0,0,0,0,0,0,0,0],"id":29,"left_children":[1,3,5,-1,-1,7,9,11,-1,13,15,-1,-1,-1,-1,-1,-1],"loss_changes":[1.6744612E0,8.8688135E-2,2.558234E0,0E0,0E0,4.3253264E0,2.3343115E0,5.043483E0,0E0,5.2032437E0,2.3348546E0,0E0,0E0,0E0,0E0,0E0,0E0],"parents":[2147483647,0,0,1,1,2,2,5,5,6,6,7,7,9,9,10,10],"right_children":[2,4,6,-1,-1,8,10,12,-1,14,16,-1,-1,-1,-1,-1,-1],"split_conditions":[3.185E-1,2.03E-1,4.06E-1,-1.4233284E-2,-6.454304E-2,3.95E-1,6.125E-1,6.375E-1,1.247058E-1,5.385E-1,7.305E-1,6.1058715E-2,-3.8775567E-2,-6.38842E-2,-3.1897395E-3,1.1576943E-2,-1.0828938E-2],"split_indices":[1,1,1,0,0,1,5,5,0,1,1,0,0,0,0,0,0],"split_type":[0,0,0,0,0,0,0,0,0,0,0,0,0,0,0,0,0],"sum_hessian":[1.9350401E2,2.670647E0,1.9083336E2,1.0168813E0,1.6537654E0,1.2689154E1,1.7814421E2,1.1008026E1,1.6811279E0,5.180321E1,1.26340996E2,5.282927E0,5.7250986E0,1.0625041E1,4.117817E1,8.033929E1,4.600171E1],"tree_param":{"num_deleted":"0","num_feature":"7","num_nodes":"17","size_leaf_vector":"1"}},{"base_weights":[-3.3940382E-2,-1.6371982E-2,-7.79379E-1,-3.0541534E-2,6.904834E-2,-1.3327958E-2,-7.369302E-2,-8.811931E-3,-6.287626E-1,-2.5745984E-3,7.4090905E-2,-7.4835055E-2,-1.1571987E-2],"categories":[],"categories_nodes":[],"categories_segments":[],"categories_sizes":[],"default_left":[0,0,0,0,0,0,0,0,0,0,0,0,0],"id":30,"left_children":[1,3,5,7,-1,-1,-1,9,11,-1,-1,-1,-1],"loss_changes":[2.5290365E0,2.4020708E0,2.3293805E-1,2.445866E0,0E0,0E0,0E0,4.028118E0,8.4392524E-1,0E0,0E0,0E0,0E0],"parents":[2147483647,0,0,1,1,2,2,3,3,7,7,8,8],"right_children":[2,4,6,8,-1,-1,-1,10,12,-1,-1,-1,-1],"split_conditions":[9E-1,9.835E-1,5.6E-1,9.285E-1,6.904834E-2,-1.3327958E-2,-7.369302E-2,9.065E-1,2.2727273E-1,-2.5745984E-3,7.4090905E-2,-7.4835055E-2,-1.1571987E-2],"split_indices":[5,1,1,1,0,0,0,1,4,0,0,0,0],"split_type":[0,0,0,0,0,0,0,0,0,0,0,0,0],"sum_hessian":[1.9308708E2,1.8963965E2,3.4474394E0,1.875827E2,2.056938E0,1.0564711E0,2.3909683E0,1.81987E2,5.5957108E0,1.784909E2,3.496092E0,2.8549101E0,2.7408009E0],"tree_param":{"num_deleted":"0","num_feature":"7","num_nodes":"13","size_leaf_vector":"1"}},{"base_weights":[3.18697E-2,4.7617152E-2,-7.206025E-1,-4.8928696E-1,6.361838E-2,-1.0615537E-2,-6.938164E-2,-7.5340554E-2,6.3664265E-2,2.591676E-1,-9.144636E-3,1.44026205E-2,1.274796E-1,-3.1194096E-2,4.518957E-3],"categories":[],"categories_nodes":[],"categories_segments":[],"categories_sizes":[],"default_left":[0,0,0,0,0,0,0,0,0,0,0,0,0,0,0],"id":31,"left_children":[1,3,5,7,9,-1,-1,-1,-1,11,13,-1,-1,-1,-1],"loss_changes":[2.3761575E0,1.7022629E0,2.395854E-1,4.08967E0,2.7026215E0,0E0,0E0,0E0,0E0,5.150945E0,3.502708E0,0E0,0E0,0E0,0E0],"parents":[2147483647,0,0,1,1,2,2,3,3,4,4,9,9,10,10],"right_children":[2,4,6,8,10,-1,-1,-1,-1,12,14,-1,-1,-1,-1],"split_conditions":[9E-1,6.25E-2,5.38E-1,7.875E-1,1.5208334E-1,-1.0615537E-2,-6.938164E-2,-7.5340554E-2,6.3664265E-2,1.4017858E-1,1.9583334E-1,1.44026205E-2,1.274796E-1,-3.1194096E-2,4.518957E-3],"split_indices":[5,6,1,5,6,0,0,0,0,6,6,0,0,0,0],"split_type":[0,0,0,0,0,0,0,0,0,0,0,0,0,0,0],"sum_hessian":[1.9663196E2,1.935188E2,3.1131692E0,4.7444873E0,1.887743E2,1.0018895E0,2.1112797E0,3.7065926E0,1.0378948E0,5.049856E1,1.3827574E2,4.8742706E1,1.7558562E0,1.9602833E1,1.1867291E2],"tree_param":{"num_deleted":"0","num_feature":"7","num_nodes":"15","size_leaf_vector":"1"}},{"base_weights":[-1.2035055E-2,6.852869E-2,-1.5558155E-1,1.2741788E-1,-3.6785075E-1,-5.0978035E-1,5.0284103E-2,7.0974566E-2,1.0222003E0,4.6277174E-1,-8.718307E-1,-6.0733515E-1,3.5628453E-1,1.0576103E-1,-4.018949E-2,-1.1646245E-2,1.6068691E-2,1.3472658E-1,4.1460812E-2,1.8867444E-3,7.2442435E-2,-8.366149E-2,-9.044675E-4,-5.873987E-2,-1.00602005E-2,6.6930704E-2,-1.8399814E-2,-3.9327364E-2,9.04456E-3],"categories":[],"categories_nodes":[],"categories_segments":[],"categories_sizes":[],"default_left":[0,0,0,0,0,0,0,0,0,0,0,0,0,0,0,0,0,0,0,0,0,0,0,0,0,0,0,0,0],"id":32,"left_children":[1,3,5,7,9,11,13,15,17,19,21,23,25,-1,27,-1,-1,-1,-1,-1,-1,-1,-1,-1,-1,-1,-1,-1,-1],"loss_changes":[2.2576723E0,3.2628965E0,5.1410255E0,5.533907E0,6.740343E0,2.402648E0,5.262595E0,2.996519E0,1.2994046E0,1.2172418E0,1.4502368E0,1.351696E0,1.1076705E0,0E0,3.046759E0,0E0,0E0,0E0,0E0,0E0,0E0,0E0,0E0,0E0,0E0,0E0,0E0,0E0,0E0],"parents":[2147483647,0,0,1,1,2,2,3,3,4,4,5,5,6,6,7,7,8,8,9,9,10,10,11,11,12,12,14,14],"right_children":[2,4,6,8,10,12,14,16,18,20,22,24,26,-1,28,-1,-1,-1,-1,-1,-1,-1,-1,-1,-1,-1,-1,-1,-1],"split_conditions":[7.085E-1,3.4093046E-1,7.8E-1,3.1625E-1,6.875E-2,5.217391E-1,7.805E-1,1.04761906E-1,3.2777777E-1,3.9464286E-1,6.7E-1,2.975E-1,3.0476192E-1,1.0576103E-1,5.263158E-2,-1.1646245E-2,1.6068691E-2,1.3472658E-1,4.1460812E-2,1.8867444E-3,7.2442435E-2,-8.366149E-2,-9.044675E-4,-5.873987E-2,-1.00602005E-2,6.6930704E-2,-1.8399814E-2,-3.9327364E-2,9.04456E-3],"split_indices":[1,6,1,6,3,4,1,3,6,6,1,6,3,0,4,0,0,0,0,0,0,0,0,0,0,0,0,0,0],"split_type":[0,0,0,0,0,0,0,0,0,0,0,0,0,0,0,0,0,0,0,0,0,0,0,0,0,0,0,0,0],"sum_hessian":[1.9330005E2,1.2414677E2,6.9153275E1,1.100091E2,1.4137664E1,2.487637E1,4.427691E1,1.0449672E2,5.512383E0,5.3696194E0,8.768044E0,2.2626436E1,2.2499328E0,2.0366662E0,4.2240242E1,3.9132015E1,6.536471E1,1.3705084E0,4.141875E0,3.224447E0,2.1451724E0,7.114685E0,1.6533595E0,1.7492037E1,5.134399E0,1.0019804E0,1.2479522E0,1.0146089E1,3.2094154E1],"tree_param":{"num_deleted":"0","num_feature":"7","num_nodes":"29","size_leaf_vector":"1"}},{"base_weights":[2.248709E-2,-3.0512807E-1,6.662341E-2,-6.4869213E-1,2.2193144E-1,1.7303418E-1,-7.486441E-2,1.3973944E-2,-7.7516127E-1,-3.2691798E-1,7.569013E-1,1.2370906E-1,1.3408382E-1,3.16003E-2,-6.249991E-1,-3.984034E-2,-8.10397E-2,-7.3854595E-2,6.281715E-2,8.584089E-2,1.1765702E-2,1.6476372E-2,-4.7607124E-2,2.3882933E-2,-2.531161E-2,-5.906572E-2,1.9265918E-2],"categories":[],"categories_nodes":[],"categories_segments":[],"categories_sizes":[],"default_left":[0,0,0,0,0,0,0,0,0,0,0,0,0,0,0,0,0,0,0,0,0,0,0,0,0,0,0],"id":33,"left_children":[1,3,5,7,9,11,13,-1,15,17,19,21,-1,23,25,-1,-1,-1,-1,-1,-1,-1,-1,-1,-1,-1,-1],"loss_changes":[2.8110864E0,4.3256974E0,2.5861247E0,1.6177244E0,3.141986E0,7.0467415E0,4.3574824E0,0E0,3.2106018E-1,4.414747E0,8.6270404E-1,5.7871575E0,0E0,5.947062E0,1.3607788E0,0E0,0E0,0E0,0E0,0E0,0E0,0E0,0E0,0E0,0E0,0E0,0E0],"parents":[2147483647,0,0,1,1,2,2,3,3,4,4,5,5,6,6,8,8,9,9,10,10,11,11,13,13,14,14],"right_children":[2,4,6,8,10,12,14,-1,16,18,20,22,-1,24,26,-1,-1,-1,-1,-1,-1,-1,-1,-1,-1,-1,-1],"split_conditions":[1E-1,7.125E-1,2.4619047E-1,4.34E-1,1.1E-1,2.422619E-1,8E-1,1.3973944E-2,1.9642857E-1,7.75E-1,6.48E-1,8.46E-1,1.3408382E-1,1.32E-1,8.135E-1,-3.984034E-2,-8.10397E-2,-7.3854595E-2,6.281715E-2,8.584089E-2,1.1765702E-2,1.6476372E-2,-4.7607124E-2,2.3882933E-2,-2.531161E-2,-5.906572E-2,1.9265918E-2],"split_indices":[6,5,6,1,3,6,5,0,3,1,1,1,0,3,1,0,0,0,0,0,0,0,0,0,0,0,0],"split_type":[0,0,0,0,0,0,0,0,0,0,0,0,0,0,0,0,0,0,0,0,0,0,0,0,0,0,0],"sum_hessian":[1.9200209E2,2.2093452E1,1.6990863E2,1.3235264E1,8.85819E0,9.68479E1,7.306074E1,1.7115039E0,1.152376E1,4.564337E0,4.293853E0,9.48185E1,2.0293965E0,6.2003986E1,1.105675E1,6.7507706E0,4.7729893E0,3.0818932E0,1.4824438E0,2.3277311E0,1.9661216E0,8.572342E1,9.095084E0,3.5169044E1,2.6834944E1,9.907304E0,1.1494467E0],"tree_param":{"num_deleted":"0","num_feature":"7","num_nodes":"27","size_leaf_vector":"1"}},{"base_weights":[2.0366643E-2,3.149296E-2,-6.328422E-1,1.05565665E-2,5.1635104E-1,-6.158391E-2,-1.3035555E-2,5.2979216E-2,-3.765093E-1,1.0967613E0,-6.700284E-2,-1.2413259E-2,1.0862191E-2,7.247065E-3,-6.5708E-2,1.2460403E-1,2.203652E-2],"categories":[],"categories_nodes":[],"categories_segments":[],"categories_sizes":[],"default_left":[0,0,0,0,0,0,0,0,0,0,0,0,0,0,0,0,0],"id":34,"left_children":[1,3,5,7,9,-1,-1,11,13,15,-1,-1,-1,-1,-1,-1,-1],"loss_changes":[1.4255164E0,1.9345658E0,8.6067796E-2,3.044948E0,7.1185074E0,0E0,0E0,2.8974726E0,3.880988E0,1.8247738E0,0E0,0E0,0E0,0E0,0E0,0E0,0E0],"parents":[2147483647,0,0,1,1,2,2,3,3,4,4,7,7,8,8,9,9],"right_children":[2,4,6,8,10,-1,-1,12,14,16,-1,-1,-1,-1,-1,-1,-1],"split_conditions":[4.7875E-1,4.1607141E-1,8.75E-2,3.4093046E-1,6.75E-1,-6.158391E-2,-1.3035555E-2,6.125E-1,6.375E-1,9.565217E-2,-6.700284E-2,-1.2413259E-2,1.0862191E-2,7.247065E-3,-6.5708E-2,1.2460403E-1,2.203652E-2],"split_indices":[6,6,0,6,5,0,0,5,5,3,0,0,0,0,0,0,0],"split_type":[0,0,0,0,0,0,0,0,0,0,0,0,0,0,0,0,0],"sum_hessian":[1.923989E2,1.9011244E2,2.2864594E0,1.8322258E2,6.8898616E0,1.2762549E0,1.0102047E0,1.6590266E2,1.7319904E1,4.9554005E0,1.9344609E0,4.6964752E1,1.1893792E2,8.837056E0,8.482848E0,2.60016E0,2.3552408E0],"tree_param":{"num_deleted":"0","num_feature":"7","num_nodes":"17","size_leaf_vector":"1"}},{"base_weights":[-3.4667507E-2,-6.99401E-1,-1.886114E-2,-6.541687E-2,-1.3134928E-2,1.677237E-2,-3.093323E-1,2.1587572E-1,-5.9094183E-2,-7.46815E-1,5.86182E-2,3.2907708E-3,5.5354085E-2,-3.9342485E-2,-1.813422E-3,-8.798563E-2,2.1124039E-2,2.3058617E-2,-6.296974E-2],"categories":[],"categories_nodes":[],"categories_segments":[],"categories_sizes":[],"default_left":[0,0,0,0,0,0,0,0,0,0,0,0,0,0,0,0,0,0,0],"id":35,"left_children":[1,3,5,-1,-1,7,9,11,13,15,17,-1,-1,-1,-1,-1,-1,-1,-1],"loss_changes":[2.0730255E0,1.5600395E-1,2.0232327E0,0E0,0E0,2.6503613E0,3.4814785E0,3.9971027E0,1.9940289E0,3.7977657E0,2.6595416E0,0E0,0E0,0E0,0E0,0E0,0E0,0E0,0E0],"parents":[2147483647,0,0,1,1,2,2,5,5,6,6,7,7,8,8,9,9,10,10],"right_children":[2,4,6,-1,-1,8,10,12,14,16,18,-1,-1,-1,-1,-1,-1,-1,-1],"split_conditions":[3.5714287E-2,3.6363637E-1,4.2857143E-1,-6.541687E-2,-1.3134928E-2,1.5208334E-1,1.9583334E-1,3.043478E-1,1.7083333E-1,4.7E-1,3.2777777E-1,3.2907708E-3,5.5354085E-2,-3.9342485E-2,-1.813422E-3,-8.798563E-2,2.1124039E-2,2.3058617E-2,-6.296974E-2],"split_indices":[6,4,4,0,0,6,6,4,6,3,6,0,0,0,0,0,0,0,0],"split_type":[0,0,0,0,0,0,0,0,0,0,0,0,0,0,0,0,0,0,0],"sum_hessian":[1.9755453E2,3.583956E0,1.9397057E2,2.502873E0,1.081083E0,1.7361467E2,2.0355898E1,4.73926E1,1.2622208E2,8.828912E0,1.1526986E1,3.5462128E1,1.1930471E1,8.830408E0,1.1739167E2,6.4785366E0,2.3503747E0,9.584133E0,1.9428536E0],"tree_param":{"num_deleted":"0","num_feature":"7","num_nodes":"19","size_leaf_vector":"1"}},{"base_weights":[-1.9823206E-3,3.4556577E-1,-2.9145366E-2,5.326131E-2,1.0686963E-1,-6.694679E-2,-1.4949429E-2,-4.0435323E-1,5.042409E-1,5.557959E-1,-5.775201E-2,-4.9956836E-2,5.970475E-3,6.809265E-2,9.4668735E-3,1.907397E-2,1.2014917E-1,-2.4406757E-2,1.2754548E-3],"categories":[],"categories_nodes":[],"categories_segments":[],"categories_sizes":[],"default_left":[0,0,0,0,0,0,0,0,0,0,0,0,0,0,0,0,0,0,0],"id":36,"left_children":[1,3,5,7,-1,-1,9,11,13,15,17,-1,-1,-1,-1,-1,-1,-1,-1],"loss_changes":[1.8437035E0,4.02709E0,2.0636609E0,2.6747596E0,0E0,0E0,4.404077E0,7.3163366E-1,7.661458E-1,3.4188528E0,3.0558245E0,0E0,0E0,0E0,0E0,0E0,0E0,0E0,0E0],"parents":[2147483647,0,0,1,1,2,2,3,3,6,6,7,7,8,8,9,9,10,10],"right_children":[2,4,6,8,-1,-1,10,12,14,16,18,-1,-1,-1,-1,-1,-1,-1,-1],"split_conditions":[5E-1,1E0,3.02E-1,8.75E-2,1.0686963E-1,-6.694679E-2,4.06E-1,2.3392858E-1,4.5E-1,3.95E-1,6.125E-1,-4.9956836E-2,5.970475E-3,6.809265E-2,9.4668735E-3,1.907397E-2,1.2014917E-1,-2.4406757E-2,1.2754548E-3],"split_indices":[5,2,1,0,0,0,1,6,5,1,5,0,0,0,0,0,0,0,0],"split_type":[0,0,0,0,0,0,0,0,0,0,0,0,0,0,0,0,0,0,0],"sum_hessian":[1.9323111E2,1.3157716E1,1.800734E2,1.0972722E1,2.1849937E0,2.1093836E0,1.77964E2,5.497614E0,5.4751077E0,1.1579088E1,1.6638492E2,3.5586104E0,1.9390037E0,2.248319E0,3.2267888E0,9.60798E0,1.9711078E0,3.747459E1,1.2891032E2],"tree_param":{"num_deleted":"0","num_feature":"7","num_nodes":"19","size_leaf_vector":"1"}},{"base_weights":[-5.9393123E-3,-6.631605E-2,1.7459323E-1,-2.8685527E-3,-5.772954E-1,3.895689E-1,-1.4606158E-1,-3.3454582E-2,5.769057E-1,-7.676433E-1,5.017358E-2,1.6759041E-1,1.0629846E0,-7.6940574E-2,2.785087E-2,3.7796565E-3,-3.3929754E-2,7.2291404E-2,-1.5890772E-2,-7.0938137E-3,-8.2297705E-2,2.78794E-2,-7.4152656E-2,1.18471235E-1,2.5869194E-2,2.9031472E-2,-2.5416208E-2],"categories":[],"categories_nodes":[],"categories_segments":[],"categories_sizes":[],"default_left":[0,0,0,0,0,0,0,0,0,0,0,0,0,0,0,0,0,0,0,0,0,0,0,0,0,0,0],"id":37,"left_children":[1,3,5,7,9,11,13,15,17,19,-1,21,23,-1,25,-1,-1,-1,-1,-1,-1,-1,-1,-1,-1,-1,-1],"loss_changes":[2.1083052E0,4.695278E0,3.3991027E0,2.3224432E0,4.1490517E0,4.2014422E0,2.8904657E0,3.9393363E0,1.8426023E0,2.4372149E0,0E0,4.9208937E0,1.708312E0,0E0,2.1542058E0,0E0,0E0,0E0,0E0,0E0,0E0,0E0,0E0,0E0,0E0,0E0,0E0],"parents":[2147483647,0,0,1,1,2,2,3,3,4,4,5,5,6,6,7,7,8,8,9,9,11,11,12,12,14,14],"right_children":[2,4,6,8,10,12,14,16,18,20,-1,22,24,-1,26,-1,-1,-1,-1,-1,-1,-1,-1,-1,-1,-1,-1],"split_conditions":[7.75E-1,7.305E-1,1.8333334E-1,4.5882353E-1,5.217391E-1,1.2941177E-1,7.965E-1,2.5384617E-1,2.0208333E-1,6.75E-2,5.017358E-2,9.285E-1,8.75E-2,-7.6940574E-2,2.0654762E-1,3.7796565E-3,-3.3929754E-2,7.2291404E-2,-1.5890772E-2,-7.0938137E-3,-8.2297705E-2,2.78794E-2,-7.4152656E-2,1.18471235E-1,2.5869194E-2,2.9031472E-2,-2.5416208E-2],"split_indices":[1,1,3,3,4,3,1,3,6,0,0,1,0,0,6,0,0,0,0,0,0,0,0,0,0,0,0],"split_type":[0,0,0,0,0,0,0,0,0,0,0,0,0,0,0,0,0,0,0,0,0,0,0,0,0,0,0],"sum_hessian":[1.9136086E2,1.4387605E2,4.74848E1,1.2887897E2,1.4997085E1,2.8298082E1,1.9186716E1,1.2331574E2,5.5632324E0,1.3263634E1,1.7334511E0,2.2221922E1,6.076161E0,2.5757313E0,1.6610985E1,1.0293208E2,2.0383654E1,3.797964E0,1.7652686E0,4.0557423E0,9.207891E0,1.9654896E1,2.5670252E0,3.2420683E0,2.8340926E0,8.408283E0,8.202702E0],"tree_param":{"num_deleted":"0","num_feature":"7","num_nodes":"27","size_leaf_vector":"1"}},{"base_weights":[1.6210446E-2,-4.6150646E-1,3.0267486E-2,-7.0699096E-2,2.9613946E-2,8.211478E-2,-1.2407041E-1,5.474785E-1,3.2282937E-2,1.668309E-2,-9.2205524E-1,6.591812E-2,4.145273E-3,-2.0266075E-2,1.0594723E-2,1.960986E-2,-4.0653303E-2,-8.191078E-2,-1.46940965E-2],"categories":[],"categories_nodes":[],"categories_segments":[],"categories_sizes":[],"default_left":[0,0,0,0,0,0,0,0,0,0,0,0,0,0,0,0,0,0,0],"id":38,"left_children":[1,3,5,-1,-1,7,9,11,13,15,17,-1,-1,-1,-1,-1,-1,-1,-1],"loss_changes":[1.3102893E0,2.286441E0,1.5182518E0,0E0,0E0,3.2676954E0,5.382956E0,1.8267264E0,3.7243798E0,5.1129165E0,3.5202885E-1,0E0,0E0,0E0,0E0,0E0,0E0,0E0,0E0],"parents":[2147483647,0,0,1,1,2,2,5,5,6,6,7,7,8,8,9,9,10,10],"right_children":[2,4,6,-1,-1,8,10,12,14,16,18,-1,-1,-1,-1,-1,-1,-1,-1],"split_conditions":[6.25E-2,7.875E-1,2.752976E-1,-7.0699096E-2,2.9613946E-2,4.06E-1,8E-1,6.5E-1,6.125E-1,2.4E-1,8.08E-1,6.591812E-2,4.145273E-3,-2.0266075E-2,1.0594723E-2,1.960986E-2,-4.0653303E-2,-8.191078E-2,-1.46940965E-2],"split_indices":[6,5,6,0,0,1,5,5,5,4,1,0,0,0,0,0,0,0,0],"split_type":[0,0,0,0,0,0,0,0,0,0,0,0,0,0,0,0,0,0,0],"sum_hessian":[1.920403E2,4.5794797E0,1.8746083E2,2.9959073E0,1.583572E0,1.4067224E2,4.678858E1,1.2640461E1,1.2803178E2,4.060544E1,6.183145E0,7.6889315E0,4.95153E0,3.2842567E1,9.518921E1,2.8662903E1,1.1942534E1,5.0939717E0,1.0891733E0],"tree_param":{"num_deleted":"0","num_feature":"7","num_nodes":"19","size_leaf_vector":"1"}},{"base_weights":[-1.5523589E-2,1.2993468E-1,-7.792032E-2,-9.852117E-2,3.3418685E-1,-4.679785E-1,-6.7491853E-3,-3.454269E-1,2.7419612E-1,5.126721E-1,-7.3025954E-1,-6.0384077E-1,2.913931E-1,8.271905E-2,-3.7836492E-2,-6.0456384E-2,1.8991565E-2,-2.9140469E-2,5.8958396E-2,8.376872E-2,2.3205241E-2,-7.622185E-2,3.3027679E-3,-6.5611124E-2,4.451605E-3,5.6288354E-2,-1.033422E-2,3.4698773E-2,-6.07341E-3],"categories":[],"categories_nodes":[],"categories_segments":[],"categories_sizes":[],"default_left":[0,0,0,0,0,0,0,0,0,0,0,0,0,0,0,0,0,0,0,0,0,0,0,0,0,0,0,0,0],"id":39,"left_children":[1,3,5,7,9,11,13,15,17,19,21,23,25,-1,27,-1,-1,-1,-1,-1,-1,-1,-1,-1,-1,-1,-1,-1,-1],"loss_changes":[1.7258437E0,2.698407E0,3.6866558E0,2.6471448E0,6.147453E0,2.2904248E0,3.708654E0,4.2746263E0,3.6986916E0,2.8621006E0,8.5927033E-1,2.5719123E0,7.4704975E-1,0E0,2.0279546E0,0E0,0E0,0E0,0E0,0E0,0E0,0E0,0E0,0E0,0E0,0E0,0E0,0E0,0E0],"parents":[2147483647,0,0,1,1,2,2,3,3,4,4,5,5,6,6,7,7,8,8,9,9,10,10,11,11,12,12,14,14],"right_children":[2,4,6,8,10,12,14,16,18,20,22,24,26,-1,28,-1,-1,-1,-1,-1,-1,-1,-1,-1,-1,-1,-1,-1,-1],"split_conditions":[1.5208334E-1,1.10416666E-1,1.9583334E-1,7.125E-1,4.2857143E-1,8.375E-1,1.9821429E-1,2.631579E-1,8.148148E-2,3.0555556E-2,5.7894737E-1,3.6842105E-1,8.5E-1,8.271905E-2,5E-1,-6.0456384E-2,1.8991565E-2,-2.9140469E-2,5.8958396E-2,8.376872E-2,2.3205241E-2,-7.622185E-2,3.3027679E-3,-6.5611124E-2,4.451605E-3,5.6288354E-2,-1.033422E-2,3.4698773E-2,-6.07341E-3],"split_indices":[6,6,6,5,4,5,6,4,3,3,4,4,5,0,5,0,0,0,0,0,0,0,0,0,0,0,0,0,0],"split_type":[0,0,0,0,0,0,0,0,0,0,0,0,0,0,0,0,0,0,0,0,0,0,0,0,0,0,0,0,0],"sum_hessian":[1.880366E2,5.6122444E1,1.3191415E2,2.6735954E1,2.938649E1,1.9495016E1,1.1241914E2,1.6126326E1,1.0609629E1,2.5610514E1,3.775977E0,1.671015E1,2.7848654E0,2.3249214E0,1.1009422E2,9.289993E0,6.8363338E0,4.548065E0,6.061563E0,6.441594E0,1.9168919E1,2.7484357E0,1.027541E0,1.23996935E1,4.3104568E0,1.0665448E0,1.7183205E0,7.4499016E0,1.02644325E2],"tree_param":{"num_deleted":"0","num_feature":"7","num_nodes":"29","size_leaf_vector":"1"}},{"base_weights":[-2.0747384E-2,-7.15221E-2,1.7838925E-1,-1.04886055E-1,5.394776E-1,4.8536652E-1,-1.0098755E-1,-5.9376888E-2,-3.7427828E-1,-2.1080922E-2,8.178956E-1,-5.828527E-2,7.366882E-1,-5.5540526E-1,2.699321E-1,-7.2878646E-3,9.6683376E-2,1.259752E-2,-5.6803685E-2,1.0548889E-1,1.0295235E-2,1.2530373E-1,2.0822339E-2,-1.3066935E-3,-8.195763E-2,4.9902223E-2,-1.8081486E-2],"categories":[],"categories_nodes":[],"categories_segments":[],"categories_sizes":[],"default_left":[0,0,0,0,0,0,0,0,0,0,0,0,0,0,0,0,0,0,0,0,0,0,0,0,0,0,0],"id":40,"left_children":[1,3,5,7,9,11,13,15,17,-1,19,-1,21,23,25,-1,-1,-1,-1,-1,-1,-1,-1,-1,-1,-1,-1],"loss_changes":[1.9545289E0,3.1906185E0,3.4198022E0,1.775266E0,2.0315833E0,6.3026023E0,3.757739E0,5.2026215E0,3.8612723E0,0E0,1.9959292E0,0E0,5.977206E0,2.4983802E0,2.3272471E0,0E0,0E0,0E0,0E0,0E0,0E0,0E0,0E0,0E0,0E0,0E0,0E0],"parents":[2147483647,0,0,1,1,2,2,3,3,4,4,5,5,6,6,7,7,8,8,10,10,12,12,13,13,14,14],"right_children":[2,4,6,8,10,12,14,16,18,-1,20,-1,22,24,26,-1,-1,-1,-1,-1,-1,-1,-1,-1,-1,-1,-1],"split_conditions":[3.6842105E-1,4.1607141E-1,4.2857143E-1,3.25E-1,5E-2,1.10416666E-1,1.9583334E-1,3.1625E-1,6.875E-2,-2.1080922E-2,9.565217E-2,-5.828527E-2,1.7708333E-1,6.48E-1,8.75E-2,-7.2878646E-3,9.6683376E-2,1.259752E-2,-5.6803685E-2,1.0548889E-1,1.0295235E-2,1.2530373E-1,2.0822339E-2,-1.3066935E-3,-8.195763E-2,4.9902223E-2,-1.8081486E-2],"split_indices":[4,6,4,6,4,6,6,6,3,0,3,0,6,1,0,0,0,0,0,0,0,0,0,0,0,0,0],"split_type":[0,0,0,0,0,0,0,0,0,0,0,0,0,0,0,0,0,0,0,0,0,0,0,0,0,0,0],"sum_hessian":[1.910433E2,1.527395E2,3.8303806E1,1.4561638E2,7.1231194E0,1.789909E1,2.0404715E1,1.2561611E2,2.0000263E1,1.8476955E0,5.2754235E0,2.7443604E0,1.515473E1,8.946673E0,1.145804E1,1.234556E2,2.1605215E0,7.946539E0,1.2053723E1,2.526591E0,2.7488327E0,4.6936297E0,1.0461101E1,4.6441836E0,4.30249E0,6.5366197E0,4.921421E0],"tree_param":{"num_deleted":"0","num_feature":"7","num_nodes":"27","size_leaf_vector":"1"}},{"base_weights":[1.308115E-2,-2.5409734E-1,4.7244392E-2,-5.386548E-1,2.0835474E-1,3.0410928E-1,-2.2443496E-2,-2.4127387E-1,-8.848178E-1,-5.251041E-1,7.6687163E-1,4.1389385E-1,-4.3481284E-1,-6.624993E-1,2.8511945E-2,-5.0506428E-2,6.7854926E-2,-7.872473E-2,-1.876406E-2,-6.655689E-2,1.627496E-2,9.87194E-2,1.8159192E-2,1.7435264E-2,9.11989E-2,-7.638662E-2,6.1144356E-2,-7.919137E-2,2.4200337E-2,1.4562573E-2,-6.7185E-3],"categories":[],"categories_nodes":[],"categories_segments":[],"categories_sizes":[],"default_left":[0,0,0,0,0,0,0,0,0,0,0,0,0,0,0,0,0,0,0,0,0,0,0,0,0,0,0,0,0,0,0],"id":41,"left_children":[1,3,5,7,9,11,13,15,17,19,21,23,25,27,29,-1,-1,-1,-1,-1,-1,-1,-1,-1,-1,-1,-1,-1,-1,-1,-1],"loss_changes":[1.7407124E0,2.958377E0,3.027755E0,1.1935639E0,4.0730977E0,3.107154E0,4.3787684E0,4.244084E0,1.5259361E-1,1.167862E0,1.1051741E0,4.2943196E0,3.9444366E0,3.4268465E0,2.170253E0,0E0,0E0,0E0,0E0,0E0,0E0,0E0,0E0,0E0,0E0,0E0,0E0,0E0,0E0,0E0,0E0],"parents":[2147483647,0,0,1,1,2,2,3,3,4,4,5,5,6,6,7,7,8,8,9,9,10,10,11,11,12,12,13,13,14,14],"right_children":[2,4,6,8,10,12,14,16,18,20,22,24,26,28,30,-1,-1,-1,-1,-1,-1,-1,-1,-1,-1,-1,-1,-1,-1,-1,-1],"split_conditions":[1E-1,7.25E-1,1.5208334E-1,1.9642857E-1,1.1E-1,4.2857143E-1,1.7083333E-1,1.673913E-1,4.2857143E-1,7.745E-1,7.5E-1,3.3333334E-1,7.1428573E-1,3.529412E-1,6.5E-1,-5.0506428E-2,6.7854926E-2,-7.872473E-2,-1.876406E-2,-6.655689E-2,1.627496E-2,9.87194E-2,1.8159192E-2,1.7435264E-2,9.11989E-2,-7.638662E-2,6.1144356E-2,-7.919137E-2,2.4200337E-2,1.4562573E-2,-6.7185E-3],"split_indices":[6,5,6,3,3,4,6,3,4,1,5,4,4,4,5,0,0,0,0,0,0,0,0,0,0,0,0,0,0,0,0],"split_type":[0,0,0,0,0,0,0,0,0,0,0,0,0,0,0,0,0,0,0,0,0,0,0,0,0,0,0,0,0,0,0],"sum_hessian":[1.8839172E2,2.0628202E1,1.6776353E2,1.2668315E1,7.959887E0,3.5083652E1,1.3267987E2,7.727115E0,4.9412E0,3.466895E0,4.492992E0,3.0928371E1,4.1552825E0,8.898867E0,1.23781006E2,5.9996047E0,1.7275108E0,3.841594E0,1.0996056E0,2.3395398E0,1.1273552E0,1.7195323E0,2.7734597E0,2.5379322E1,5.549049E0,3.0404525E0,1.1148298E0,6.625328E0,2.2735388E0,5.208377E1,7.1697235E1],"tree_param":{"num_deleted":"0","num_feature":"7","num_nodes":"31","size_leaf_vector":"1"}},{"base_weights":[1.2575548E-2,3.4053898E-1,-1.3801346E-2,1.0444372E-1,8.640819E-2,-6.758334E-2,8.654357E-4,-3.0664462E-1,4.2310616E-1,8.209054E-1,-2.1643708E-2,-1.4246866E-4,-6.009797E-2,5.881504E-2,9.486891E-3,9.0210006E-2,-6.656897E-3,-6.331445E-2,-9.275223E-4],"categories":[],"categories_nodes":[],"categories_segments":[],"categories_sizes":[],"default_left":[0,0,0,0,0,0,0,0,0,0,0,0,0,0,0,0,0,0,0],"id":42,"left_children":[1,3,5,7,-1,-1,9,11,13,15,17,-1,-1,-1,-1,-1,-1,-1,-1],"loss_changes":[1.6689142E0,2.3944855E0,2.1826246E0,1.700656E0,0E0,0E0,3.2833273E0,7.869836E-1,5.9474516E-1,1.4116256E0,1.3304291E0,0E0,0E0,0E0,0E0,0E0,0E0,0E0,0E0],"parents":[2147483647,0,0,1,1,2,2,3,3,6,6,7,7,8,8,9,9,10,10],"right_children":[2,4,6,8,-1,-1,10,12,14,16,18,-1,-1,-1,-1,-1,-1,-1,-1],"split_conditions":[5E-1,1E0,3.185E-1,8.75E-2,8.640819E-2,-6.758334E-2,3.57E-1,3.5714287E-1,4.5E-1,1.6176471E-1,3.68E-1,-1.4246866E-4,-6.009797E-2,5.881504E-2,9.486891E-3,9.0210006E-2,-6.656897E-3,-6.331445E-2,-9.275223E-4],"split_indices":[5,2,1,0,0,0,1,4,5,3,1,0,0,0,0,0,0,0,0],"split_type":[0,0,0,0,0,0,0,0,0,0,0,0,0,0,0,0,0,0,0],"sum_hessian":[1.913801E2,1.3359615E1,1.780205E2,1.0991846E1,2.3677692E0,2.1058922E0,1.759146E2,4.8163104E0,6.1755357E0,3.752055E0,1.7216254E2,3.452689E0,1.3636215E0,2.3514464E0,3.8240895E0,2.6170232E0,1.1350316E0,1.2166612E0,1.7094588E2],"tree_param":{"num_deleted":"0","num_feature":"7","num_nodes":"19","size_leaf_vector":"1"}},{"base_weights":[5.563128E-3,-3.6720987E-2,2.5568506E-1,2.3761377E-2,-5.836204E-1,1.0906681E0,-6.895819E-2,-4.186915E-2,2.52981E-1,9.682121E-3,-6.894041E-1,1.3602959E0,2.7911186E-1,2.4914086E-1,-7.271822E-1,-6.7970245E-3,4.1058354E-2,2.873069E-2,-6.675701E-2,-8.623318E-2,-2.1539843E-2,1.3896725E-1,5.4287422E-2,-4.9926065E-2,7.849825E-2,-3.363977E-2,4.4253197E-2,-8.300049E-2,-8.691512E-4],"categories":[],"categories_nodes":[],"categories_segments":[],"categories_sizes":[],"default_left":[0,0,0,0,0,0,0,0,0,0,0,0,0,0,0,0,0,0,0,0,0,0,0,0,0,0,0,0,0],"id":43,"left_children":[1,3,5,7,9,11,13,15,17,-1,19,21,23,25,27,-1,-1,-1,-1,-1,-1,-1,-1,-1,-1,-1,-1,-1,-1],"loss_changes":[2.0294483E0,5.4470572E0,7.596288E0,2.2500067E0,1.3055544E0,1.3330202E0,4.5611377E0,2.8324134E0,4.140964E0,0E0,2.061129E0,2.6400375E-1,2.6480055E0,3.2554362E0,1.5604947E0,0E0,0E0,0E0,0E0,0E0,0E0,0E0,0E0,0E0,0E0,0E0,0E0,0E0,0E0],"parents":[2147483647,0,0,1,1,2,2,3,3,4,4,5,5,6,6,7,7,8,8,10,10,11,11,12,12,13,13,14,14],"right_children":[2,4,6,8,10,12,14,16,18,-1,20,22,24,26,28,-1,-1,-1,-1,-1,-1,-1,-1,-1,-1,-1,-1,-1,-1],"split_conditions":[3.3684212E-1,2.5384617E-1,3.6785713E-1,7.75E-1,1.25E-1,2.5208333E-1,7.125E-1,4.1607141E-1,3.440476E-1,9.682121E-3,5E-1,1E0,3.547619E-1,4.0263158E-1,4.5882353E-1,-6.7970245E-3,4.1058354E-2,2.873069E-2,-6.675701E-2,-8.623318E-2,-2.1539843E-2,1.3896725E-1,5.4287422E-2,-4.9926065E-2,7.849825E-2,-3.363977E-2,4.4253197E-2,-8.300049E-2,-8.691512E-4],"split_indices":[3,3,3,5,4,6,5,6,6,0,4,2,3,3,3,0,0,0,0,0,0,0,0,0,0,0,0,0,0],"split_type":[0,0,0,0,0,0,0,0,0,0,0,0,0,0,0,0,0,0,0,0,0,0,0,0,0,0,0,0,0],"sum_hessian":[1.9000075E2,1.6325502E2,2.6745726E1,1.4785957E2,1.5395441E1,6.827023E0,1.9918703E1,1.1558301E2,3.227657E1,1.9907221E0,1.3404718E1,4.61695E0,2.2100728E0,1.3847928E1,6.0707746E0,1.0804236E2,7.540651E0,3.001623E1,2.2603393E0,6.1512537E0,7.2534647E0,1.9763876E0,2.6405625E0,1.0152398E0,1.1948328E0,4.204365E0,9.643563E0,3.9229028E0,2.1478717E0],"tree_param":{"num_deleted":"0","num_feature":"7","num_nodes":"29","size_leaf_vector":"1"}},{"base_weights":[2.8577633E-2,4.406912E-2,-7.066326E-1,2.680045E-2,5.696583E-1,-1.2121418E-2,-6.765398E-2,3.098218E-3,3.652417E-1,1.08898535E-1,-2.1370652E-1,2.148552E-3,-7.7538654E-2,-4.3050785E-2,5.801235E-2,2.3362085E-2,-5.53569E-2],"categories":[],"categories_nodes":[],"categories_segments":[],"categories_sizes":[],"default_left":[0,0,0,0,0,0,0,0,0,0,0,0,0,0,0,0,0],"id":44,"left_children":[1,3,5,7,9,-1,-1,11,13,-1,15,-1,-1,-1,-1,-1,-1],"loss_changes":[2.2072403E0,1.6916118E0,1.8071496E-1,1.4678829E0,3.9698772E0,0E0,0E0,4.002931E0,4.284429E0,0E0,1.1323593E0,0E0,0E0,0E0,0E0,0E0,0E0],"parents":[2147483647,0,0,1,1,2,2,3,3,4,4,7,7,8,8,10,10],"right_children":[2,4,6,8,10,-1,-1,12,14,-1,16,-1,-1,-1,-1,-1,-1],"split_conditions":[9E-1,8.75E-1,5.6E-1,9.065E-1,1.7916666E-1,-1.2121418E-2,-6.765398E-2,8.845E-1,2.0208333E-1,1.08898535E-1,1.14583336E-1,2.148552E-3,-7.7538654E-2,-4.3050785E-2,5.801235E-2,2.3362085E-2,-5.53569E-2],"split_indices":[5,5,1,1,6,0,0,1,6,0,3,0,0,0,0,0,0],"split_type":[0,0,0,0,0,0,0,0,0,0,0,0,0,0,0,0,0],"sum_hessian":[1.9006192E2,1.8706046E2,3.001459E0,1.821275E2,4.932959E0,1.019782E0,1.981677E0,1.7115039E2,1.0977111E1,2.0867102E0,2.8462489E0,1.680173E2,3.1330838E0,2.986315E0,7.9907956E0,1.5726429E0,1.2736058E0],"tree_param":{"num_deleted":"0","num_feature":"7","num_nodes":"17","size_leaf_vector":"1"}},{"base_weights":[1.2858287E-2,5.793757E-1,-6.880298E-4,-9.523142E-3,8.116608E-2,-6.9156215E-2,1.4906974E-2,3.543495E-1,-3.2292325E-2,1.2196213E-2,7.4664555E-2,-1.2624594E-5,-4.789399E-2],"categories":[],"categories_nodes":[],"categories_segments":[],"categories_sizes":[],"default_left":[0,0,0,0,0,0,0,0,0,0,0,0,0],"id":45,"left_children":[1,3,5,-1,-1,-1,7,9,11,-1,-1,-1,-1],"loss_changes":[1.4579369E0,1.4692712E0,2.524982E0,0E0,0E0,0E0,2.962043E0,2.4953933E0,2.959297E0,0E0,0E0,0E0,0E0],"parents":[2147483647,0,0,1,1,2,2,6,6,7,7,8,8],"right_children":[2,4,6,-1,-1,-1,8,10,12,-1,-1,-1,-1],"split_conditions":[4.25E-1,2.0263158E-1,3.185E-1,-9.523142E-3,8.116608E-2,-6.9156215E-2,4.505E-1,3.6842105E-1,5.3333336E-1,1.2196213E-2,7.4664555E-2,-1.2624594E-5,-4.789399E-2],"split_indices":[5,3,1,0,0,0,1,4,4,0,0,0,0],"split_type":[0,0,0,0,0,0,0,0,0,0,0,0,0],"sum_hessian":[1.8892645E2,3.4365678E0,1.8548988E2,1.598211E0,1.8383566E0,2.3242564E0,1.8316562E2,2.1565538E1,1.6160008E2,1.6926256E1,4.6392817E0,1.5387032E2,7.7297716E0],"tree_param":{"num_deleted":"0","num_feature":"7","num_nodes":"13","size_leaf_vector":"1"}},{"base_weights":[2.7659127E-2,7.7352956E-2,-1.2760793E-1,2.7770763E-2,5.7341546E-1,-6.733319E-1,1.1872855E-2,5.592984E-2,-7.713635E-2,-4.523158E-1,9.007651E-1,1.4767737E-2,-7.946401E-1,5.2617896E-1,-1.3182035E-1,7.41209E-3,-2.7376315E-2,-6.6166036E-2,2.2275805E-2,1.17277555E-1,1.0310055E-2,-1.3334323E-3,-7.58023E-2,-3.052497E-2,9.922591E-2,2.2085538E-2,-4.5618143E-2],"categories":[],"categories_nodes":[],"categories_segments":[],"categories_sizes":[],"default_left":[0,0,0,0,0,0,0,0,0,0,0,0,0,0,0,0,0,0,0,0,0,0,0,0,0,0,0],"id":46,"left_children":[1,3,5,7,9,11,13,15,-1,17,19,-1,21,23,25,-1,-1,-1,-1,-1,-1,-1,-1,-1,-1,-1,-1],"loss_changes":[1.4958234E0,3.5877304E0,3.5909235E0,3.8039997E0,4.8606973E0,1.1457E0,2.9125032E0,1.9541065E0,0E0,1.291331E0,4.3432665E0,0E0,1.0069327E0,6.0494084E0,5.677622E0,0E0,0E0,0E0,0E0,0E0,0E0,0E0,0E0,0E0,0E0,0E0,0E0],"parents":[2147483647,0,0,1,1,2,2,3,3,4,4,5,5,6,6,7,7,9,9,10,10,12,12,13,13,14,14],"right_children":[2,4,6,8,10,12,14,16,-1,18,20,-1,22,24,26,-1,-1,-1,-1,-1,-1,-1,-1,-1,-1,-1,-1],"split_conditions":[2.7589285E-1,2.7321428E-1,3.0625E-1,2.669643E-1,6.25E-1,5.375E-1,3.2777777E-1,8.625E-1,-7.713635E-2,3.478261E-1,7.25E-1,1.4767737E-2,4.72E-1,6.875E-1,6.375E-1,7.41209E-3,-2.7376315E-2,-6.6166036E-2,2.2275805E-2,1.17277555E-1,1.0310055E-2,-1.3334323E-3,-7.58023E-2,-3.052497E-2,9.922591E-2,2.2085538E-2,-4.5618143E-2],"split_indices":[6,6,6,6,5,5,6,1,0,4,5,0,1,5,5,0,0,0,0,0,0,0,0,0,0,0,0],"split_type":[0,0,0,0,0,0,0,0,0,0,0,0,0,0,0,0,0,0,0,0,0,0,0,0,0,0,0],"sum_hessian":[1.9158533E2,1.4551462E2,4.6070713E1,1.3325188E2,1.2262741E1,8.599075E0,3.7471638E1,1.3049126E2,2.760621E0,2.8743572E0,9.388384E0,1.0006261E0,7.5984497E0,7.601732E0,2.9869907E1,1.2017442E2,1.0316828E1,1.8128641E0,1.0614932E0,4.9007144E0,4.48767E0,1.4301523E0,6.1682973E0,3.5522358E0,4.049496E0,1.56653185E1,1.4204589E1],"tree_param":{"num_deleted":"0","num_feature":"7","num_nodes":"27","size_leaf_vector":"1"}},{"base_weights":[2.7939396E-2,-1.7981307E-1,6.0381655E-2,-4.6352652E-1,2.5591266E-1,8.6839145E-1,3.725627E-2,4.17346E-1,-6.7494744E-1,1.0290527E0,-2.5706634E-1,9.297595E-2,3.5419918E-3,6.9540775E-1,2.007905E-2,5.651693E-2,-5.55651E-3,-7.3053114E-2,-2.8747035E-2,1.2915615E-2,1.0364102E-1,-6.4877205E-2,3.6877707E-2,8.591546E-2,-5.388198E-3,-5.9443068E-2,2.5667974E-3],"categories":[],"categories_nodes":[],"categories_segments":[],"categories_sizes":[],"default_left":[0,0,0,0,0,0,0,0,0,0,0,0,0,0,0,0,0,0,0,0,0,0,0,0,0,0,0],"id":47,"left_children":[1,3,5,7,9,11,13,15,17,19,21,-1,-1,23,25,-1,-1,-1,-1,-1,-1,-1,-1,-1,-1,-1,-1],"loss_changes":[1.306065E0,3.3583527E0,3.0874128E0,3.3038738E0,4.6188874E0,1.0625176E0,1.8328662E0,5.781077E-1,6.845031E-1,8.4942484E-1,3.3170028E0,0E0,0E0,1.2634693E0,1.4919057E0,0E0,0E0,0E0,0E0,0E0,0E0,0E0,0E0,0E0,0E0,0E0,0E0],"parents":[2147483647,0,0,1,1,2,2,3,3,4,4,5,5,6,6,7,7,8,8,9,9,10,10,13,13,14,14],"right_children":[2,4,6,8,10,12,14,16,18,20,22,-1,-1,24,26,-1,-1,-1,-1,-1,-1,-1,-1,-1,-1,-1,-1],"split_conditions":[1.10416666E-1,7.125E-1,1.24810606E-1,4.34E-1,7.5E-1,6.76E-1,4.25E-1,1.6176471E-1,1.673913E-1,7.25E-1,8.125E-1,9.297595E-2,3.5419918E-3,2.0654762E-1,3.02E-1,5.651693E-2,-5.55651E-3,-7.3053114E-2,-2.8747035E-2,1.2915615E-2,1.0364102E-1,-6.4877205E-2,3.6877707E-2,8.591546E-2,-5.388198E-3,-5.9443068E-2,2.5667974E-3],"split_indices":[6,5,6,1,5,1,5,3,3,5,5,0,0,6,1,0,0,0,0,0,0,0,0,0,0,0,0],"split_type":[0,0,0,0,0,0,0,0,0,0,0,0,0,0,0,0,0,0,0,0,0,0,0,0,0,0,0],"sum_hessian":[1.9116844E2,2.5206903E1,1.6596155E2,1.5227828E1,9.979075E0,3.600688E0,1.6236086E2,2.7589257E0,1.2468903E1,3.5789707E0,6.4001055E0,2.3519511E0,1.2487369E0,3.1254082E0,1.5923544E2,1.4478233E0,1.3111024E0,6.026711E0,6.4421916E0,1.2182323E0,2.3607383E0,3.5399485E0,2.8601568E0,1.8161409E0,1.3092672E0,1.523287E0,1.5771216E2],"tree_param":{"num_deleted":"0","num_feature":"7","num_nodes":"27","size_leaf_vector":"1"}},{"base_weights":[2.1404618E-2,3.563429E-2,-6.846456E-1,1.5269308E-1,-2.4491346E-2,-1.2006591E-2,-6.573205E-2,4.139579E-2,1.3813742E0,1.2057627E-1,-1.9498806E-1,-1.7031074E-2,2.8854663E-2,1.306183E-1,1.8633878E-2,-1.2086925E-2,2.3135675E-2,-7.295569E-3,-7.986561E-2],"categories":[],"categories_nodes":[],"categories_segments":[],"categories_sizes":[],"default_left":[0,0,0,0,0,0,0,0,0,0,0,0,0,0,0,0,0,0,0],"id":48,"left_children":[1,3,5,7,9,-1,-1,11,13,15,17,-1,-1,-1,-1,-1,-1,-1,-1],"loss_changes":[1.9666882E0,1.3442025E0,1.6002119E-1,8.799617E0,3.1569436E0,0E0,0E0,4.982134E0,1.1636667E0,3.207452E0,4.7968483E0,0E0,0E0,0E0,0E0,0E0,0E0,0E0,0E0],"parents":[2147483647,0,0,1,1,2,2,3,3,4,4,7,7,8,8,9,9,10,10],"right_children":[2,4,6,8,10,-1,-1,12,14,16,18,-1,-1,-1,-1,-1,-1,-1,-1],"split_conditions":[9E-1,1.3333334E-1,6.75E-2,1.1764706E-1,6.75E-1,-1.2006591E-2,-6.573205E-2,7.125E-1,1.25E-1,1.875E-1,3.2777777E-1,-1.7031074E-2,2.8854663E-2,1.306183E-1,1.8633878E-2,-1.2086925E-2,2.3135675E-2,-7.295569E-3,-7.986561E-2],"split_indices":[5,4,0,4,5,0,0,5,4,6,6,0,0,0,0,0,0,0,0],"split_type":[0,0,0,0,0,0,0,0,0,0,0,0,0,0,0,0,0,0,0],"sum_hessian":[1.9232314E2,1.8945442E2,2.8687174E0,6.3766895E1,1.2568752E2,1.0127285E0,1.8559891E0,5.9418312E1,4.3485813E0,6.806609E1,5.7621433E1,3.326162E1,2.6156694E1,3.2217717E0,1.1268094E0,2.6107817E1,4.1958275E1,5.2014492E1,5.6069417E0],"tree_param":{"num_deleted":"0","num_feature":"7","num_nodes":"19","size_leaf_vector":"1"}},{"base_weights":[-2.1210572E-2,-3.2873753E-2,6.368327E-1,-1.706439E-2,-5.293707E-1,3.9847107E-3,7.693746E-2,-3.6929972E-2,9.2204434E-1,-7.3235326E-2,1.9252276E-2,-1.3004462E-3,-6.272555E-2,8.4532425E-2,2.3359658E-2],"categories":[],"categories_nodes":[],"categories_segments":[],"categories_sizes":[],"default_left":[0,0,0,0,0,0,0,0,0,0,0,0,0,0,0],"id":49,"left_children":[1,3,5,7,9,-1,-1,11,13,-1,-1,-1,-1,-1,-1],"loss_changes":[1.4762702E0,1.4609191E0,5.912707E-1,3.439246E0,1.9284228E0,0E0,0E0,2.7631178E0,1.5408754E-2,0E0,0E0,0E0,0E0,0E0,0E0],"parents":[2147483647,0,0,1,1,2,2,3,3,4,4,7,7,8,8],"right_children":[2,4,6,8,10,-1,-1,12,14,-1,-1,-1,-1,-1,-1],"split_conditions":[9.835E-1,9.285E-1,1.4347826E-1,9.12E-1,2.8875E-1,3.9847107E-3,7.693746E-2,8.845E-1,6.5E-1,-7.3235326E-2,1.9252276E-2,-1.3004462E-3,-6.272555E-2,8.4532425E-2,2.3359658E-2],"split_indices":[1,1,3,1,6,0,0,1,5,0,0,0,0,0,0],"split_type":[0,0,0,0,0,0,0,0,0,0,0,0,0,0,0],"sum_hessian":[1.8862323E2,1.8627179E2,2.351444E0,1.8152605E2,4.745748E0,1.2486378E0,1.1028061E0,1.7870642E2,2.8196187E0,3.0351508E0,1.710597E0,1.7488876E2,3.8176599E0,1.7653477E0,1.0542707E0],"tree_param":{"num_deleted":"0","num_feature":"7","num_nodes":"15","size_leaf_vector":"1"}},{"base_weights":[-4.563031E-3,9.65278E-3,-6.800539E-1,5.1598215E-1,-2.7047936E-3,-6.422181E-2,-1.3033509E-2,-1.3594479E-2,7.271954E-2,7.4093945E-2,-7.9992376E-2,-1.31489355E-2,1.315395E-2,4.2716883E-2,-9.161601E-3],"categories":[],"categories_nodes":[],"categories_segments":[],"categories_sizes":[],"default_left":[0,0,0,0,0,0,0,0,0,0,0,0,0,0,0],"id":50,"left_children":[1,3,5,7,9,-1,-1,-1,-1,11,13,-1,-1,-1,-1],"loss_changes":[1.8373114E0,1.1758763E0,1.19480014E-1,1.3614144E0,1.0994365E0,0E0,0E0,0E0,0E0,2.0286334E0,2.017827E0,0E0,0E0,0E0,0E0],"parents":[2147483647,0,0,1,1,2,2,3,3,4,4,9,9,10,10],"right_children":[2,4,6,8,10,-1,-1,-1,-1,12,14,-1,-1,-1,-1],"split_conditions":[9E-1,4.25E-1,2.0833333E-1,4E-1,8.75E-2,-6.422181E-2,-1.3033509E-2,-1.3594479E-2,7.271954E-2,5.5E-2,4.875E-1,-1.31489355E-2,1.315395E-2,4.2716883E-2,-9.161601E-3],"split_indices":[5,5,4,5,0,0,0,0,0,3,5,0,0,0,0],"split_type":[0,0,0,0,0,0,0,0,0,0,0,0,0,0,0],"sum_hessian":[1.8965016E2,1.867066E2,2.94356E0,3.4772727E0,1.8322934E2,1.9325982E0,1.0109615E0,1.4734026E0,2.0038702E0,9.192605E1,9.130329E1,2.5030525E1,6.689552E1,4.0911803E0,8.7212105E1],"tree_param":{"num_deleted":"0","num_feature":"7","num_nodes":"15","size_leaf_vector":"1"}},{"base_weights":[-1.9088374E-2,3.229523E-1,-3.9879348E-2,5.1927614E-1,-4.322671E-2,-6.290297E-2,-2.7376955E-2,9.004804E-1,1.9687553E-1,4.9395397E-2,-1.5665738E-1,-5.0762254E-5,1.1425594E-1,-3.3482067E-2,5.598525E-2,-5.287851E-3,3.1435095E-2,-4.317233E-2,1.4853826E-3],"categories":[],"categories_nodes":[],"categories_segments":[],"categories_sizes":[],"default_left":[0,0,0,0,0,0,0,0,0,0,0,0,0,0,0,0,0,0,0],"id":51,"left_children":[1,3,5,7,-1,-1,9,11,13,15,17,-1,-1,-1,-1,-1,-1,-1,-1],"loss_changes":[1.3543645E0,2.131234E0,1.6462725E0,9.787383E-1,0E0,0E0,1.7626287E0,1.917413E0,2.2663097E0,4.4576907E0,4.4471955E0,0E0,0E0,0E0,0E0,0E0,0E0,0E0,0E0],"parents":[2147483647,0,0,1,1,2,2,3,3,6,6,7,7,8,8,9,9,10,10],"right_children":[2,4,6,8,-1,-1,10,12,14,16,18,-1,-1,-1,-1,-1,-1,-1,-1],"split_conditions":[4.875E-1,3.5277778E-1,3.185E-1,1.1E-1,-4.322671E-2,-6.290297E-2,7.085E-1,2.422619E-1,2.0263158E-1,6.43E-1,7.745E-1,-5.0762254E-5,1.1425594E-1,-3.3482067E-2,5.598525E-2,-5.287851E-3,3.1435095E-2,-4.317233E-2,1.4853826E-3],"split_indices":[5,6,1,3,0,0,1,6,3,1,1,0,0,0,0,0,0,0,0],"split_type":[0,0,0,0,0,0,0,0,0,0,0,0,0,0,0,0,0,0,0],"sum_hessian":[1.8763982E2,9.919347E0,1.7772047E2,8.406154E0,1.5131931E0,1.9081922E0,1.7581227E2,3.030209E0,5.375945E0,1.106948E2,6.511748E1,1.4880548E0,1.5421543E0,2.4931498E0,2.8827956E0,8.3448425E1,2.7246372E1,1.9787415E1,4.5330063E1],"tree_param":{"num_deleted":"0","num_feature":"7","num_nodes":"19","size_leaf_vector":"1"}},{"base_weights":[-3.7506577E-3,2.600447E-2,-2.7065924E-1,1.4457072E-2,7.588924E-2,-3.8707295E-1,4.3253966E-2,-6.53378E-2,3.1867057E-2,-8.3121836E-1,-6.262528E-2,1.4969605E-2,-1.1063741E-3,-8.144167E-2,8.540601E-3,-6.4765275E-2,1.385181E-2],"categories":[],"categories_nodes":[],"categories_segments":[],"categories_sizes":[],"default_left":[0,0,0,0,0,0,0,0,0,0,0,0,0,0,0,0,0],"id":52,"left_children":[1,3,5,7,-1,9,-1,-1,11,13,15,-1,-1,-1,-1,-1,-1],"loss_changes":[1.5238578E0,1.8266771E0,2.0268593E0,2.5095944E0,0E0,2.4570227E0,0E0,0E0,1.2020441E0,1.3822594E0,2.1025884E0,0E0,0E0,0E0,0E0,0E0,0E0],"parents":[2147483647,0,0,1,1,2,2,3,3,5,5,8,8,9,9,10,10],"right_children":[2,4,6,8,-1,10,-1,-1,12,14,16,-1,-1,-1,-1,-1,-1],"split_conditions":[4.5454547E-1,4.5E-1,8.888889E-1,3.5714287E-2,7.588924E-2,2E-1,4.3253966E-2,-6.53378E-2,5.75E-1,4.9615383E-1,5.875E-1,1.4969605E-2,-1.1063741E-3,-8.144167E-2,8.540601E-3,-6.4765275E-2,1.385181E-2],"split_indices":[4,4,4,6,0,6,0,0,5,3,5,0,0,0,0,0,0],"split_type":[0,0,0,0,0,0,0,0,0,0,0,0,0,0,0,0,0],"sum_hessian":[1.899895E2,1.7174576E2,1.8243746E1,1.7062587E2,1.1198835E0,1.6411825E1,1.8319223E0,2.5586941E0,1.6806717E2,6.2686067E0,1.0143218E1,3.751534E1,1.3055183E2,5.156355E0,1.1122516E0,1.8496772E0,8.293541E0],"tree_param":{"num_deleted":"0","num_feature":"7","num_nodes":"17","size_leaf_vector":"1"}},{"base_weights":[-1.6390553E-2,-2.8052257E-2,6.0092438E-2,-3.898574E-2,5.7139356E-2,-1.1737005E-2,-3.0329242E-1,-3.9957454E-3,6.063623E-2,-6.32846E-2,-4.200518E-3],"categories":[],"categories_nodes":[],"categories_segments":[],"categories_sizes":[],"default_left":[0,0,0,0,0,0,0,0,0,0,0],"id":53,"left_children":[1,3,-1,5,-1,7,9,-1,-1,-1,-1],"loss_changes":[1.6969103E0,1.5324271E0,0E0,1.3190559E0,0E0,4.9646254E0,2.053052E0,0E0,0E0,0E0,0E0],"parents":[2147483647,0,0,1,1,3,3,5,5,6,6],"right_children":[2,4,-1,6,-1,8,10,-1,-1,-1,-1],"split_conditions":[8.888889E-1,9.835E-1,6.0092438E-2,3.6785713E-1,5.7139356E-2,3.3684212E-1,4.0263158E-1,-3.9957454E-3,6.063623E-2,-6.32846E-2,-4.200518E-3],"split_indices":[4,1,0,3,0,3,3,0,0,0,0],"split_type":[0,0,0,0,0,0,0,0,0,0,0],"sum_hessian":[1.8622583E2,1.8438779E2,1.8380421E0,1.8264503E2,1.7427565E0,1.6652184E2,1.6123188E1,1.5953703E2,6.98481E0,4.7433376E0,1.1379849E1],"tree_param":{"num_deleted":"0","num_feature":"7","num_nodes":"11","size_leaf_vector":"1"}},{"base_weights":[2.7624495E-2,-2.0292446E-2,1.7389235E-1,4.315773E-2,-5.879519E-1,2.4657065E-1,-6.914417E-2,2.0231016E-2,9.593341E-1,-7.9850756E-2,8.8350974E-2,-1.525305E-1,3.5941017E-1,3.42009E-3,-6.868908E-2,1.7880999E-2,9.997152E-2,-6.84719E-2,6.440237E-2,3.0562624E-2,-3.270785E-2,3.6093768E-2,-6.4429557E-3],"categories":[],"categories_nodes":[],"categories_segments":[],"categories_sizes":[],"default_left":[0,0,0,0,0,0,0,0,0,0,0,0,0,0,0,0,0,0,0,0,0,0,0],"id":54,"left_children":[1,3,5,7,9,11,-1,13,15,-1,17,19,21,-1,-1,-1,-1,-1,-1,-1,-1,-1,-1],"loss_changes":[1.3386583E0,5.225835E0,3.7678456E0,2.728039E0,4.1340246E0,2.0726755E0,0E0,2.5824795E0,3.9822388E-1,0E0,5.036821E0,1.6055965E0,1.4585347E0,0E0,0E0,0E0,0E0,0E0,0E0,0E0,0E0,0E0,0E0],"parents":[2147483647,0,0,1,1,2,2,3,3,4,4,5,5,7,7,8,8,10,10,11,11,12,12],"right_children":[2,4,6,8,10,12,-1,14,16,-1,18,20,22,-1,-1,-1,-1,-1,-1,-1,-1,-1,-1],"split_conditions":[7.75E-1,7.305E-1,8.5E-1,7.25E-1,1.9642857E-1,6.75E-2,-6.914417E-2,7.145E-1,6.75E-1,-7.9850756E-2,7.525E-1,6.5E-1,9.285E-1,3.42009E-3,-6.868908E-2,1.7880999E-2,9.997152E-2,-6.84719E-2,6.440237E-2,3.0562624E-2,-3.270785E-2,3.6093768E-2,-6.4429557E-3],"split_indices":[1,1,5,1,3,0,0,1,5,0,1,5,1,0,0,0,0,0,0,0,0,0,0],"split_type":[0,0,0,0,0,0,0,0,0,0,0,0,0,0,0,0,0,0,0,0,0,0,0],"sum_hessian":[1.8949582E2,1.4338467E2,4.6111153E1,1.2980022E2,1.3584456E1,4.380697E1,2.3041847E0,1.2762847E2,2.1717372E0,8.159681E0,5.4247746E0,9.578193E0,3.4228775E1,1.2536733E2,2.2611423E0,1.1151587E0,1.0565786E0,2.2569306E0,3.167844E0,2.9452534E0,6.6329393E0,2.830049E1,5.9282846E0],"tree_param":{"num_deleted":"0","num_feature":"7","num_nodes":"23","size_leaf_vector":"1"}},{"base_weights":[-1.2937697E-4,1.3090606E-1,-6.900857E-2,5.1680848E-2,8.53837E-1,-7.8001106E-1,-2.7919935E-2,-4.2346504E-2,8.7738043E-1,-1.4013372E-2,1.2428061E0,-9.235293E-1,1.3067985E-3,2.4947642E-1,-1.088969E-1,4.8773633E-3,-8.8462986E-2,4.2075245E-3,8.6679906E-2,1.3167585E-1,8.445841E-3,-8.261551E-2,-2.0606494E-2,-2.0907253E-2,3.813306E-2,-1.9884288E-2,1.5504899E-2],"categories":[],"categories_nodes":[],"categories_segments":[],"categories_sizes":[],"default_left":[0,0,0,0,0,0,0,0,0,0,0,0,0,0,0,0,0,0,0,0,0,0,0,0,0,0,0],"id":55,"left_children":[1,3,5,7,9,11,13,15,17,-1,19,21,-1,23,25,-1,-1,-1,-1,-1,-1,-1,-1,-1,-1,-1,-1],"loss_changes":[1.7522348E0,3.7869544E0,3.6956995E0,4.8001127E0,2.836134E0,8.053832E-1,2.7526698E0,6.2233257E0,1.0170794E0,0E0,2.0594068E0,1.611929E-1,0E0,3.3415313E0,4.048012E0,0E0,0E0,0E0,0E0,0E0,0E0,0E0,0E0,0E0,0E0,0E0,0E0],"parents":[2147483647,0,0,1,1,2,2,3,3,4,4,5,5,6,6,7,7,8,8,10,10,11,11,13,13,14,14],"right_children":[2,4,6,8,10,12,14,16,18,-1,20,22,-1,24,26,-1,-1,-1,-1,-1,-1,-1,-1,-1,-1,-1,-1],"split_conditions":[5.765E-1,5.655E-1,5.935E-1,8.25E-1,6.25E-1,2.9565218E-1,5.875E-1,7.75E-1,7.857143E-2,-1.4013372E-2,6.875E-1,2.1652777E-1,1.3067985E-3,1.875E-1,7.75E-1,4.8773633E-3,-8.8462986E-2,4.2075245E-3,8.6679906E-2,1.3167585E-1,8.445841E-3,-8.261551E-2,-2.0606494E-2,-2.0907253E-2,3.813306E-2,-1.9884288E-2,1.5504899E-2],"split_indices":[1,1,1,5,5,3,5,5,3,0,5,6,0,6,5,0,0,0,0,0,0,0,0,0,0,0,0],"split_type":[0,0,0,0,0,0,0,0,0,0,0,0,0,0,0,0,0,0,0,0,0,0,0,0,0,0,0],"sum_hessian":[1.9213934E2,6.589001E1,1.26249344E2,6.034802E1,5.541985E0,5.914829E0,1.2033451E2,5.5030125E1,5.3178954E0,1.6710209E0,3.8709643E0,4.876307E0,1.0385218E0,2.6720251E1,9.3614265E1,5.1016525E1,4.0135984E0,1.3142128E0,4.0036826E0,2.5276136E0,1.3433506E0,3.716391E0,1.159916E0,8.179272E0,1.854098E1,6.418221E1,2.943205E1],"tree_param":{"num_deleted":"0","num_feature":"7","num_nodes":"27","size_leaf_vector":"1"}},{"base_weights":[-1.2493286E-2,-2.0636471E-3,-6.144028E-1,8.850901E-2,-5.9573025E-2,-5.847128E-2,-1.4622922E-2,-4.5595717E-2,5.266219E-1,-3.9450452E-1,1.6713046E-2,-2.1179331E-2,1.6809119E-2,9.070081E-2,1.0780553E-2,8.8891216E-2,-4.412856E-2,7.4998117E-3,-2.2434568E-2],"categories":[],"categories_nodes":[],"categories_segments":[],"categories_sizes":[],"default_left":[0,0,0,0,0,0,0,0,0,0,0,0,0,0,0,0,0,0,0],"id":56,"left_children":[1,3,5,7,9,-1,-1,11,13,15,17,-1,-1,-1,-1,-1,-1,-1,-1],"loss_changes":[1.1803207E0,9.7419655E-1,2.7418017E-2,4.2920876E0,2.9288971E0,0E0,0E0,3.2239878E0,3.9166784E0,5.641368E0,2.1806219E0,0E0,0E0,0E0,0E0,0E0,0E0,0E0,0E0],"parents":[2147483647,0,0,1,1,2,2,3,3,4,4,7,7,8,8,9,9,10,10],"right_children":[2,4,6,8,10,-1,-1,12,14,16,18,-1,-1,-1,-1,-1,-1,-1,-1],"split_conditions":[4.7875E-1,1.6666667E-1,5.875E-1,1E-1,2E-1,-5.847128E-2,-1.4622922E-2,7.125E-1,1.25E-1,4.875E-1,2.7589285E-1,-2.1179331E-2,1.6809119E-2,9.070081E-2,1.0780553E-2,8.8891216E-2,-4.412856E-2,7.4998117E-3,-2.2434568E-2],"split_indices":[6,4,5,4,4,0,0,5,4,5,6,0,0,0,0,0,0,0,0],"split_type":[0,0,0,0,0,0,0,0,0,0,0,0,0,0,0,0,0,0,0],"sum_hessian":[1.8722002E2,1.8501755E2,2.202479E0,7.164437E1,1.1337317E2,1.1883699E0,1.0141091E0,5.553978E1,1.6104591E1,2.0258316E1,9.311485E1,2.9889145E1,2.5650633E1,5.5744863E0,1.0530106E1,1.3403089E0,1.8918007E1,7.448833E1,1.8626524E1],"tree_param":{"num_deleted":"0","num_feature":"7","num_nodes":"19","size_leaf_vector":"1"}},{"base_weights":[-7.297274E-3,-5.391396E-1,6.617119E-3,-6.660219E-2,1.5176094E-2,1.69436E-2,-5.963234E-1,2.4394995E-1,-1.4556051E-2,-5.6875188E-2,-1.408931E-2,-1.5199377E-2,5.0778642E-2,-1.626549E-2,2.5184166E-3],"categories":[],"categories_nodes":[],"categories_segments":[],"categories_sizes":[],"default_left":[0,0,0,0,0,0,0,0,0,0,0,0,0,0,0],"id":57,"left_children":[1,3,5,-1,-1,7,9,11,13,-1,-1,-1,-1,-1,-1],"loss_changes":[1.4087056E0,1.1956942E0,1.168334E0,0E0,0E0,1.3182902E0,2.698493E-2,3.9293985E0,1.4176704E0,0E0,0E0,0E0,0E0,0E0,0E0],"parents":[2147483647,0,0,1,1,2,2,5,5,6,6,7,7,8,8],"right_children":[2,4,6,-1,-1,8,10,12,14,-1,-1,-1,-1,-1,-1],"split_conditions":[6.25E-2,7.875E-1,4.7875E-1,-6.660219E-2,1.5176094E-2,5.25E-1,5.875E-1,1.5714286E-1,6.125E-1,-5.6875188E-2,-1.408931E-2,-1.5199377E-2,5.0778642E-2,-1.626549E-2,2.5184166E-3],"split_indices":[6,5,6,0,0,5,5,3,5,0,0,0,0,0,0],"split_type":[0,0,0,0,0,0,0,0,0,0,0,0,0,0,0],"sum_hessian":[1.8887677E2,3.8531458E0,1.8502362E2,2.6458304E0,1.2073156E0,1.8286363E2,2.1599827E0,2.1460587E1,1.6140305E2,1.1534775E0,1.0065051E0,1.0412225E1,1.1048362E1,3.0975922E1,1.3042712E2],"tree_param":{"num_deleted":"0","num_feature":"7","num_nodes":"15","size_leaf_vector":"1"}},{"base_weights":[3.4425464E-2,3.8587436E-1,2.657944E-3,1.4304616E-1,1.0731786E-1,-6.8098605E-1,2.0443777E-2,3.8512287E-1,-6.663887E-2,-7.8404866E-2,1.1190695E-2,4.8163254E-2,-4.507048E-1,4.869392E-2,-5.9719328E-2,3.619888E-2,1.4059598E-3,-5.4276645E-2,3.1271845E-2],"categories":[],"categories_nodes":[],"categories_segments":[],"categories_sizes":[],"default_left":[0,0,0,0,0,0,0,0,0,0,0,0,0,0,0,0,0,0,0],"id":58,"left_children":[1,3,5,7,-1,9,11,13,-1,-1,-1,15,17,-1,-1,-1,-1,-1,-1],"loss_changes":[2.0706227E0,3.3758094E0,2.0953197E0,3.4819214E0,0E0,1.2098515E0,2.213298E0,3.3392854E0,0E0,0E0,0E0,1.9633235E0,2.070973E0,0E0,0E0,0E0,0E0,0E0,0E0],"parents":[2147483647,0,0,1,1,2,2,3,3,5,5,6,6,7,7,11,11,12,12],"right_children":[2,4,6,8,-1,10,12,14,-1,-1,-1,16,18,-1,-1,-1,-1,-1,-1],"split_conditions":[4.06E-1,3.95E-1,4.28E-1,2.752976E-1,1.0731786E-1,3.043478E-1,5.217391E-1,7.75E-1,-6.663887E-2,-7.8404866E-2,1.1190695E-2,4.72E-1,8.888889E-1,4.869392E-2,-5.9719328E-2,3.619888E-2,1.4059598E-3,-5.4276645E-2,3.1271845E-2],"split_indices":[1,1,1,6,0,4,4,5,0,0,0,1,4,0,0,0,0,0,0],"split_type":[0,0,0,0,0,0,0,0,0,0,0,0,0,0,0,0,0,0,0],"sum_hessian":[1.845541E2,1.4374954E1,1.7017914E2,1.2379005E1,1.9959491E0,3.3696566E0,1.668095E2,1.040401E1,1.9749956E0,2.3276672E0,1.0419894E0,1.5838866E2,8.4208355E0,9.073627E0,1.3303821E0,1.0169918E1,1.4821873E2,6.779916E0,1.64092E0],"tree_param":{"num_deleted":"0","num_feature":"7","num_nodes":"19","size_leaf_vector":"1"}},{"base_weights":[1.6744323E-2,1.3935229E-1,-3.4147788E-2,8.313622E-2,8.6846197E-1,-6.591797E-1,1.4753209E-2,-4.5394646E-3,5.7652897E-1,8.145145E-2,1.8544598E-2,-9.651712E-1,1.9785121E-1,6.929391E-2,-2.7972236E-1,6.758247E-2,-5.8798515E-3,7.099654E-2,-5.568414E-2,-8.3733775E-2,-2.558495E-2,7.072591E-2,-5.019549E-2,8.503288E-3,-3.980477E-2,1.7398784E-3,-4.9354333E-2],"categories":[],"categories_nodes":[],"categories_segments":[],"categories_sizes":[],"default_left":[0,0,0,0,0,0,0,0,0,0,0,0,0,0,0,0,0,0,0,0,0,0,0,0,0,0,0],"id":59,"left_children":[1,3,5,7,9,11,13,15,17,-1,-1,19,21,23,25,-1,-1,-1,-1,-1,-1,-1,-1,-1,-1,-1,-1],"loss_changes":[1.186572E0,2.2129755E0,4.125172E0,2.2895956E0,1.3421798E-1,2.7588477E0,2.0407307E0,2.7493544E0,3.7771697E0,0E0,0E0,5.373764E-2,2.4837337E0,2.296664E0,2.0329456E0,0E0,0E0,0E0,0E0,0E0,0E0,0E0,0E0,0E0,0E0,0E0,0E0],"parents":[2147483647,0,0,1,1,2,2,3,3,4,4,5,5,6,6,7,7,8,8,11,11,12,12,13,13,14,14],"right_children":[2,4,6,8,10,12,14,16,18,-1,-1,20,22,24,26,-1,-1,-1,-1,-1,-1,-1,-1,-1,-1,-1,-1],"split_conditions":[1.5208334E-1,1.4017858E-1,1.7083333E-1,8.125E-1,1.75E-1,3.529412E-1,8E-1,3.57E-1,2.5384617E-1,8.145145E-2,1.8544598E-2,8E-1,6.265E-1,4.15E-1,2.6625E-1,6.758247E-2,-5.8798515E-3,7.099654E-2,-5.568414E-2,-8.3733775E-2,-2.558495E-2,7.072591E-2,-5.019549E-2,8.503288E-3,-3.980477E-2,1.7398784E-3,-4.9354333E-2],"split_indices":[6,6,6,5,3,4,5,1,3,0,0,5,1,3,6,0,0,0,0,0,0,0,0,0,0,0,0],"split_type":[0,0,0,0,0,0,0,0,0,0,0,0,0,0,0,0,0,0,0,0,0,0,0,0,0,0,0],"sum_hessian":[1.8839989E2,5.4752758E1,1.3364713E2,5.186766E1,2.8850946E0,8.791972E0,1.24855156E2,4.4882805E1,6.984857E0,1.850761E0,1.0343336E0,6.38582E0,2.4061527E0,1.0598926E2,1.88659E1,2.525634E0,4.235717E1,5.8565636E0,1.1282933E0,5.1176753E0,1.2681447E0,1.2748818E0,1.1312708E0,1.0025813E2,5.7311225E0,1.0454676E1,8.411223E0],"tree_param":{"num_deleted":"0","num_feature":"7","num_nodes":"27","size_leaf_vector":"1"}},{"base_weights":[-1.7919794E-2,-2.9265895E-2,6.437805E-1,1.1865798E-3,-2.7932552E-1,6.2661455E-3,7.093737E-2,-3.2472484E-2,3.2697523E-1,-4.7677704E-3,-8.903153E-1,2.0517476E-3,-2.9944645E-2,-4.622026E-2,4.8591834E-2,-1.5196508E-2,5.4604955E-2,-7.9766E-2,-2.1838352E-2],"categories":[],"categories_nodes":[],"categories_segments":[],"categories_sizes":[],"default_left":[0,0,0,0,0,0,0,0,0,0,0,0,0,0,0,0,0,0,0],"id":60,"left_children":[1,3,5,7,9,-1,-1,11,13,15,17,-1,-1,-1,-1,-1,-1,-1,-1],"loss_changes":[1.451357E0,1.4360948E0,3.783779E-1,1.8646276E0,3.430109E0,0E0,0E0,3.0721455E0,4.390568E0,2.0555828E0,1.4580297E-1,0E0,0E0,0E0,0E0,0E0,0E0,0E0,0E0],"parents":[2147483647,0,0,1,1,2,2,3,3,4,4,7,7,8,8,9,9,10,10],"right_children":[2,4,6,8,10,-1,-1,12,14,16,18,-1,-1,-1,-1,-1,-1,-1,-1],"split_conditions":[9.835E-1,8.3E-1,1.9821429E-1,7.965E-1,7.5E-1,6.2661455E-3,7.093737E-2,7.305E-1,1.7083333E-1,3.625E-1,9.12E-1,2.0517476E-3,-2.9944645E-2,-4.622026E-2,4.8591834E-2,-1.5196508E-2,5.4604955E-2,-7.9766E-2,-2.1838352E-2],"split_indices":[1,1,6,1,5,0,0,1,6,6,1,0,0,0,0,0,0,0,0],"split_type":[0,0,0,0,0,0,0,0,0,0,0,0,0,0,0,0,0,0,0],"sum_hessian":[1.8980579E2,1.8754573E2,2.2600539E0,1.6807292E2,1.9472809E1,1.0766002E0,1.1834536E0,1.5315042E2,1.4922506E1,1.4130744E1,5.342066E0,1.3168597E2,2.1464445E1,3.2799852E0,1.1642521E1,1.1701592E1,2.4291515E0,4.0300064E0,1.3120596E0],"tree_param":{"num_deleted":"0","num_feature":"7","num_nodes":"19","size_leaf_vector":"1"}},{"base_weights":[-9.524814E-3,-2.0073883E-2,5.5337086E-2,1.2454549E-2,-3.452957E-1,-2.2272179E-2,4.0813673E-1,-7.2922714E-2,3.907409E-2,-6.1344326E-2,-5.663425E-4,6.2850334E-2,-3.5916217E-2,-5.8259275E-2,3.564454E-2],"categories":[],"categories_nodes":[],"categories_segments":[],"categories_sizes":[],"default_left":[0,0,0,0,0,0,0,0,0,0,0,0,0,0,0],"id":61,"left_children":[1,3,-1,5,7,9,11,-1,13,-1,-1,-1,-1,-1,-1],"loss_changes":[1.408424E0,1.9793383E0,0E0,2.3544283E0,3.7377675E0,1.7802404E0,4.825115E0,0E0,3.7837846E0,0E0,0E0,0E0,0E0,0E0,0E0],"parents":[2147483647,0,0,1,1,3,3,4,4,5,5,6,6,8,8],"right_children":[2,4,-1,6,8,10,12,-1,14,-1,-1,-1,-1,-1,-1],"split_conditions":[8.888889E-1,4.5454547E-1,5.5337086E-2,3.9130434E-1,2E-1,3.5714287E-2,6.7E-1,-7.2922714E-2,6.375E-1,-6.1344326E-2,-5.663425E-4,