{"learner":{"attributes":{"scikit_learn":"{\"_estimator_type\": \"classifier\"}"},"feature_names":[],"feature_types":[],"gradient_booster":{"model":{"cats":{"enc":[],"feature_segments":[],"sorted_idx":[]},"gbtree_model_param":{"num_parallel_tree":"1","num_trees":"120"},"iteration_indptr":[0,1,2,3,4,5,6,7,8,9,10,11,12,13,14,15,16,17,18,19,20,21,22,23,24,25,26,27,28,29,30,31,32,33,34,35,36,37,38,39,40,41,42,43,44,45,46,47,48,49,50,51,52,53,54,55,56,57,58,59,60,61,62,63,64,65,66,67,68,69,70,71,72,73,74,75,76,77,78,79,80,81,82,83,84,85,86,87,88,89,90,91,92,93,94,95,96,97,98,99,100,101,102,103,104,105,106,107,108,109,110,111,112,113,114,115,116,117,118,119,120],"tree_info":[0,0,0,0,0,0,0,0,0,0,0,0,0,0,0,0,0,0,0,0,0,0,0,0,0,0,0,0,0,0,0,0,0,0,0,0,0,0,0,0,0,0,0,0,0,0,0,0,0,0,0,0,0,0,0,0,0,0,0,0,0,0,0,0,0,0,0,0,0,0,0,0,0,0,0,0,0,0,0,0,0,0,0,0,0,0,0,0,0,0,0,0,0,0,0,0,0,0,0,0,0,0,0,0,0,0,0,0,0,0,0,0,0,0,0,0,0,0,0,0],"trees":[{"base_weights":[-5.8658347E-2,6.3875705E-2,-3.7168142E-1,1.0820559E-2,1.0782609E0,1.150685E0,-4.9586776E-1,6.995516E-1,-6.563899E-2,1.6585366E0,-1.9591836E-2,1.5304348E-1,-7.44186E-3,6.644518E-2,-7.8291816E-1,-5.0526313E-2,1.001227E-1,-3E-2,6.2292716E-3,1.7311475E-1,8.648649E-3,9.688073E-2,-4.3076925E-2,-9.132584E-2,4.0902257E-2],"categories":[],"categories_nodes":[],"categories_segments":[],"categories_sizes":[],"default_left":[0,0,0,0,0,0,0,0,0,0,0,0,0,0,0,0,0,0,0,0,0,0,0,0,0],"id":0,"left_children":[1,3,5,7,9,11,13,15,17,19,-1,-1,-1,21,23,-1,-1,-1,-1,-1,-1,-1,-1,-1,-1],"loss_changes":[7.7069244E0,7.781902E0,1.12523155E1,7.345918E0,5.924713E0,4.5038986E0,8.596777E0,1.1031164E1,5.609073E0,3.7819252E0,0E0,0E0,0E0,1.3677E1,1.6887629E1,0E0,0E0,0E0,0E0,0E0,0E0,0E0,0E0,0E0,0E0],"parents":[2147483647,0,0,1,1,2,2,3,3,4,4,5,5,6,6,7,7,8,8,9,9,13,13,14,14],"right_children":[2,4,6,8,10,12,14,16,18,20,-1,-1,-1,22,24,-1,-1,-1,-1,-1,-1,-1,-1,-1,-1],"split_conditions":[2.7767858E-1,8.625E-1,5E-1,4.12E-1,6.975E-1,3.5277778E-1,1.3636364E-1,3.185E-1,6.125E-1,9E-1,-1.9591836E-2,1.5304348E-1,-7.44186E-3,5.825E-1,7.91E-1,-5.0526313E-2,1.001227E-1,-3E-2,6.2292716E-3,1.7311475E-1,8.648649E-3,9.688073E-2,-4.3076925E-2,-9.132584E-2,4.0902257E-2],"split_indices":[8,5,5,1,1,8,2,1,5,5,0,0,0,1,1,0,0,0,0,0,0,0,0,0,0],"split_type":[0,0,0,0,0,0,0,0,0,0,0,0,0,0,0,0,0,0,0,0,0,0,0,0,0],"sum_hessian":[1.993125E2,1.438125E2,5.55E1,1.37625E2,6.1875E0,3.5625E0,5.19375E1,1.29375E1,1.246875E2,4.125E0,2.0625E0,1.875E0,1.6875E0,1.78125E1,3.4125E1,3.75E0,9.1875E0,3.9E1,8.56875E1,2.8125E0,1.3125E0,5.8125E0,1.2E1,2.68125E1,7.3125E0],"tree_param":{"num_deleted":"0","num_feature":"11","num_nodes":"25","size_leaf_vector":"1"}},{"base_weights":[-3.3313524E-2,6.3227177E-1,-8.836905E-2,1.2539839E0,-7.133804E-2,-3.705765E-2,-6.874109E-1,-4.249469E-2,1.871875E0,7.417866E-1,-5.633297E-1,-1.0540687E-1,3.1590596E-1,-9.9112046E-1,8.198791E-2,1.7003E-2,1.7583264E-1,4.872067E-3,9.1703214E-2,-8.20868E-2,4.4986017E-2,-1.8021928E-2,2.0154888E-2,5.7158384E-2,-2.3305446E-2,-3.2453846E-2,-8.800839E-2],"categories":[],"categories_nodes":[],"categories_segments":[],"categories_sizes":[],"default_left":[0,0,0,0,0,0,0,0,0,0,0,0,0,0,0,0,0,0,0,0,0,0,0,0,0,0,0],"id":1,"left_children":[1,3,5,7,9,11,13,-1,15,17,19,21,23,25,-1,-1,-1,-1,-1,-1,-1,-1,-1,-1,-1,-1,-1],"loss_changes":[7.3720393E0,6.8155003E0,5.6695595E0,1.0057775E1,3.6818883E0,4.1759477E0,8.587943E0,0E0,2.954731E0,8.9618635E-1,3.5209627E0,6.2509274E0,7.0108867E0,3.7525272E-1,0E0,0E0,0E0,0E0,0E0,0E0,0E0,0E0,0E0,0E0,0E0,0E0,0E0],"parents":[2147483647,0,0,1,1,2,2,3,3,4,4,5,5,6,6,8,8,9,9,10,10,11,11,12,12,13,13],"right_children":[2,4,6,8,10,12,14,-1,16,18,20,22,24,26,-1,-1,-1,-1,-1,-1,-1,-1,-1,-1,-1,-1,-1],"split_conditions":[6.666667E-2,1.7083333E-1,5.3333336E-1,8.6842105E-2,4.06E-1,3.809524E-1,8.888889E-1,-4.249469E-2,7.5E-2,2.4583334E-1,5.88E-1,7.8E-1,7.3333335E-1,6.75E-2,8.198791E-2,1.7003E-2,1.7583264E-1,4.872067E-3,9.1703214E-2,-8.20868E-2,4.4986017E-2,-1.8021928E-2,2.0154888E-2,5.7158384E-2,-2.3305446E-2,-3.2453846E-2,-8.800839E-2],"split_indices":[10,8,2,0,1,2,2,0,8,8,1,1,10,7,0,0,0,0,0,0,0,0,0,0,0,0,0],"split_type":[0,0,0,0,0,0,0,0,0,0,0,0,0,0,0,0,0,0,0,0,0,0,0,0,0,0,0],"sum_hessian":[1.9865442E2,1.4375826E1,1.842786E2,7.216811E0,7.159015E0,1.7071751E2,1.3561081E1,1.8917189E0,5.3250923E0,2.507348E0,4.651667E0,1.4360974E2,2.7107773E1,1.18757925E1,1.6852885E0,1.1457441E0,4.179348E0,1.3632305E0,1.1441176E0,3.3591712E0,1.292496E0,1.07814125E2,3.5795616E1,1.6258968E1,1.0848805E1,2.604913E0,9.27088E0],"tree_param":{"num_deleted":"0","num_feature":"11","num_nodes":"27","size_leaf_vector":"1"}},{"base_weights":[-2.2876227E-2,4.971655E-1,-6.8939224E-2,1.0224108E0,-3.9856812E-1,-3.1696314E-1,2.754119E-2,3.2995504E-1,1.7622118E-1,6.0272958E-2,-8.286082E-2,8.794865E-1,-4.773448E-1,5.5801E-1,-8.767379E-2,7.9941906E-2,-4.2782106E-2,-6.6304E-2,1.3167682E-1,-5.0079625E-2,6.1953958E-2,1.8376054E-3,8.1042714E-2,-4.9985174E-2,1.9074271E-3],"categories":[],"categories_nodes":[],"categories_segments":[],"categories_sizes":[],"default_left":[0,0,0,0,0,0,0,0,0,0,0,0,0,0,0,0,0,0,0,0,0,0,0,0,0],"id":2,"left_children":[1,3,5,7,9,11,13,15,-1,-1,-1,17,19,21,23,-1,-1,-1,-1,-1,-1,-1,-1,-1,-1],"loss_changes":[4.818234E0,8.110078E0,4.4198136E0,7.9375496E0,5.7505646E0,1.0341337E1,8.216265E0,5.08206E0,0E0,0E0,0E0,9.827136E0,9.089159E0,5.8150454E0,6.6429358E0,0E0,0E0,0E0,0E0,0E0,0E0,0E0,0E0,0E0,0E0],"parents":[2147483647,0,0,1,1,2,2,3,3,4,4,5,5,6,6,7,7,11,11,12,12,13,13,14,14],"right_children":[2,4,6,8,10,12,14,16,-1,-1,-1,18,20,22,24,-1,-1,-1,-1,-1,-1,-1,-1,-1,-1],"split_conditions":[6.666667E-2,2.125E-1,5E-1,8E-1,4.06E-1,4.875E-1,5.765E-1,3.73E-1,1.7622118E-1,6.0272958E-2,-8.286082E-2,1E0,8.125E-1,2.0654762E-1,6.43E-1,7.9941906E-2,-4.2782106E-2,-6.6304E-2,1.3167682E-1,-5.0079625E-2,6.1953958E-2,1.8376054E-3,8.1042714E-2,-4.9985174E-2,1.9074271E-3],"split_indices":[10,8,6,6,1,5,1,1,0,0,0,3,5,8,1,0,0,0,0,0,0,0,0,0,0],"split_type":[0,0,0,0,0,0,0,0,0,0,0,0,0,0,0,0,0,0,0,0,0,0,0,0,0],"sum_hessian":[1.9870877E2,1.5371748E1,1.8333702E2,9.600645E0,5.7711024E0,5.0704586E1,1.3263245E2,6.8573275E0,2.7433178E0,1.9903511E0,3.7807512E0,5.4634504E0,4.5241135E1,2.2980986E1,1.0965146E2,3.7777147E0,3.079613E0,1.6669354E0,3.7965152E0,4.0885765E1,4.3553677E0,1.1044634E1,1.1936352E1,1.8059858E1,9.15916E1],"tree_param":{"num_deleted":"0","num_feature":"11","num_nodes":"25","size_leaf_vector":"1"}},{"base_weights":[4.460658E-2,1.0579761E-1,-4.068638E-1,-3.354679E-1,1.7431366E-1,-5.6165063E-1,9.176235E-2,-6.930302E-1,5.5041176E-1,6.87633E-1,4.6157345E-2,-1.7237945E-1,-8.3611965E-1,-9.1200575E-2,-2.9102217E-2,1.5993606E-1,-1.0761722E-2,1.6017412E-1,2.267694E-2,-1.3228357E-3,5.275471E-2,-6.519176E-2,2.175352E-2,-2.2740383E-2,-7.364794E-2],"categories":[],"categories_nodes":[],"categories_segments":[],"categories_sizes":[],"default_left":[0,0,0,0,0,0,0,0,0,0,0,0,0,0,0,0,0,0,0,0,0,0,0,0,0],"id":3,"left_children":[1,3,5,7,9,11,-1,13,15,17,19,21,23,-1,-1,-1,-1,-1,-1,-1,-1,-1,-1,-1,-1],"loss_changes":[5.6469426E0,5.4833455E0,6.517384E0,8.128674E0,1.0228952E1,2.3001814E0,0E0,2.214819E0,7.801102E0,1.5949992E1,4.8508935E0,3.2818296E0,3.5173988E-1,0E0,0E0,0E0,0E0,0E0,0E0,0E0,0E0,0E0,0E0,0E0,0E0],"parents":[2147483647,0,0,1,1,2,2,3,3,4,4,5,5,7,7,8,8,9,9,10,10,11,11,12,12],"right_children":[2,4,6,8,10,12,-1,14,16,18,20,22,24,-1,-1,-1,-1,-1,-1,-1,-1,-1,-1,-1,-1],"split_conditions":[4.5454547E-1,1.0208333E-1,8.5714287E-1,2.857143E-1,1.5125E-1,8.75E-2,9.176235E-2,5.3333336E-1,1.71875E-1,2E-1,1E0,1.8125E-1,3.3333334E-1,-9.1200575E-2,-2.9102217E-2,1.5993606E-1,-1.0761722E-2,1.6017412E-1,2.267694E-2,-1.3228357E-3,5.275471E-2,-6.519176E-2,2.175352E-2,-2.2740383E-2,-7.364794E-2],"split_indices":[2,8,2,2,8,7,0,10,0,10,10,8,10,0,0,0,0,0,0,0,0,0,0,0,0],"split_type":[0,0,0,0,0,0,0,0,0,0,0,0,0,0,0,0,0,0,0,0,0,0,0,0,0],"sum_hessian":[2.0184912E2,1.7843077E2,2.3418346E1,2.3457928E1,1.5497284E2,2.187762E1,1.5407268E0,1.6867496E1,6.5904326E0,3.0088861E1,1.2488398E2,9.720034E0,1.2157587E1,6.110189E0,1.0757307E1,1.4996042E0,5.0908284E0,6.1458993E0,2.3942963E1,1.1418441E2,1.0699574E1,3.632627E0,6.0874066E0,2.193471E0,9.964116E0],"tree_param":{"num_deleted":"0","num_feature":"11","num_nodes":"25","size_leaf_vector":"1"}},{"base_weights":[-1.7819768E-2,9.5047295E-2,-3.089734E-1,3.0213508E-1,-2.7774858E-1,2.0251411E-1,-6.189121E-1,1.0452184E-1,7.566014E-1,-3.528196E-1,8.036042E-2,-7.5219476E-1,6.589352E-1,5.679584E-1,-8.59E-1,7.4735984E-2,-4.505931E-3,-2.9947208E-2,9.08302E-2,-6.894571E-2,-1.5506446E-2,4.863744E-2,-8.865901E-2,-7.358434E-2,8.0165744E-2,-2.0098009E-3,1.1665275E-1,-8.312784E-2,7.011636E-2],"categories":[],"categories_nodes":[],"categories_segments":[],"categories_sizes":[],"default_left":[0,0,0,0,0,0,0,0,0,0,0,0,0,0,0,0,0,0,0,0,0,0,0,0,0,0,0,0,0],"id":4,"left_children":[1,3,5,7,9,11,13,15,17,19,-1,21,23,25,27,-1,-1,-1,-1,-1,-1,-1,-1,-1,-1,-1,-1,-1,-1],"loss_changes":[6.5289106E0,1.1146627E1,8.921904E0,8.237334E0,5.3305783E0,9.947145E0,1.0403735E1,8.82016E0,1.23778E1,3.844923E0,0E0,4.297381E0,9.160077E0,3.4455874E0,1.0081419E1,0E0,0E0,0E0,0E0,0E0,0E0,0E0,0E0,0E0,0E0,0E0,0E0,0E0,0E0],"parents":[2147483647,0,0,1,1,2,2,3,3,4,4,5,5,6,6,7,7,8,8,9,9,11,11,12,12,13,13,14,14],"right_children":[2,4,6,8,10,12,14,16,18,20,-1,22,24,26,28,-1,-1,-1,-1,-1,-1,-1,-1,-1,-1,-1,-1,-1,-1],"split_conditions":[2.752976E-1,8E-1,6.375E-1,2.125E-1,9.835E-1,3.3333334E-1,4.94E-1,6.666667E-2,5E-1,1.3541667E-1,8.036042E-2,4.875E-1,5.545E-1,5E-1,1E0,7.4735984E-2,-4.505931E-3,-2.9947208E-2,9.08302E-2,-6.894571E-2,-1.5506446E-2,4.863744E-2,-8.865901E-2,-7.358434E-2,8.0165744E-2,-2.0098009E-3,1.1665275E-1,-8.312784E-2,7.011636E-2],"split_indices":[8,10,5,8,1,8,1,10,6,8,0,5,1,6,10,0,0,0,0,0,0,0,0,0,0,0,0,0,0],"split_type":[0,0,0,0,0,0,0,0,0,0,0,0,0,0,0,0,0,0,0,0,0,0,0,0,0,0,0,0,0],"sum_hessian":[1.9678505E2,1.4229663E2,5.448841E1,9.1601585E1,5.0695053E1,2.0690224E1,3.3798187E1,6.469889E1,2.6902695E1,4.8575962E1,2.1190903E0,6.482522E0,1.4207702E1,5.456828E0,2.8341358E1,9.725359E0,5.497353E1,6.752611E0,2.0150084E1,1.0509441E1,3.806652E1,1.1980679E0,5.284454E0,2.2366245E0,1.1971077E1,3.858169E0,1.598659E0,2.6040264E1,2.3010933E0],"tree_param":{"num_deleted":"0","num_feature":"11","num_nodes":"29","size_leaf_vector":"1"}},{"base_weights":[1.5379874E-3,5.133274E-1,-7.1982026E-2,-7.477492E-1,8.349331E-1,-1.8307835E-2,-7.427839E-1,2.0108571E-2,-8.1754684E-2,1.532322E0,3.951721E-1,9.063798E-2,-3.0092987E-1,-1.0062383E0,6.883144E-2,1.5705915E-1,2.5693582E-2,6.44633E-2,-3.0796055E-2,-2.4918765E-2,2.0527331E-2,2.6432501E-2,-5.429009E-2,-9.1994844E-2,-2.1425592E-2],"categories":[],"categories_nodes":[],"categories_segments":[],"categories_sizes":[],"default_left":[0,0,0,0,0,0,0,0,0,0,0,0,0,0,0,0,0,0,0,0,0,0,0,0,0],"id":5,"left_children":[1,3,5,7,9,11,13,-1,-1,15,17,19,21,23,-1,-1,-1,-1,-1,-1,-1,-1,-1,-1,-1],"loss_changes":[7.671415E0,1.1010542E1,6.4057183E0,1.8269167E0,5.797312E0,5.1417947E0,6.434101E0,0E0,0E0,3.401884E0,4.843322E0,8.131994E0,1.1299761E1,9.4240284E-1,0E0,0E0,0E0,0E0,0E0,0E0,0E0,0E0,0E0,0E0,0E0],"parents":[2147483647,0,0,1,1,2,2,3,3,4,4,5,5,6,6,9,9,10,10,11,11,12,12,13,13],"right_children":[2,4,6,8,10,12,14,-1,-1,16,18,20,22,24,-1,-1,-1,-1,-1,-1,-1,-1,-1,-1,-1],"split_conditions":[4.505E-1,3.185E-1,5.3333336E-1,1.92E-1,2.5E-1,2.752976E-1,8.888889E-1,2.0108571E-2,-8.1754684E-2,3.1666666E-1,2.6666668E-1,6.125E-1,6.375E-1,9E-1,6.883144E-2,1.5705915E-1,2.5693582E-2,6.44633E-2,-3.0796055E-2,-2.4918765E-2,2.0527331E-2,2.6432501E-2,-5.429009E-2,-9.1994844E-2,-2.1425592E-2],"split_indices":[1,1,2,1,6,8,2,0,0,8,10,5,5,6,0,0,0,0,0,0,0,0,0,0,0],"split_type":[0,0,0,0,0,0,0,0,0,0,0,0,0,0,0,0,0,0,0,0,0,0,0,0,0],"sum_hessian":[2.0189984E2,2.4608986E1,1.7729085E2,4.7313643E0,1.987762E1,1.651071E2,1.2183747E1,1.0367573E0,3.694607E0,6.7263265E0,1.3151295E1,1.1965969E2,4.5447407E1,1.078394E1,1.3998071E0,4.50317E0,2.2231567E0,8.5946045E0,4.55669E0,3.4700333E1,8.495936E1,1.7058527E1,2.8388882E1,8.560718E0,2.2232223E0],"tree_param":{"num_deleted":"0","num_feature":"11","num_nodes":"25","size_leaf_vector":"1"}},{"base_weights":[2.565723E-2,1.8548505E-1,-1.2479646E-1,-1.7028332E-1,3.0057353E-1,1.983725E-1,-2.81335E-1,-3.8064528E-1,5.434264E-1,-7.9112634E-2,3.6751541E-1,1.1883187E0,-1.8913388E-1,-4.752987E-1,-8.430183E-2,-3.6249654E-3,-5.9292316E-2,6.546979E-2,-2.2824287E-2,9.185961E-2,2.3761375E-2,-3.0634217E-2,1.1875757E-1,-3.807091E-2,3.5750147E-2,-4.087083E-3,-6.4286344E-2,1.4942939E-2,-5.017932E-2],"categories":[],"categories_nodes":[],"categories_segments":[],"categories_sizes":[],"default_left":[0,0,0,0,0,0,0,0,0,0,0,0,0,0,0,0,0,0,0,0,0,0,0,0,0,0,0,0,0],"id":6,"left_children":[1,3,5,7,9,11,13,15,17,-1,19,21,23,25,27,-1,-1,-1,-1,-1,-1,-1,-1,-1,-1,-1,-1,-1,-1],"loss_changes":[4.859937E0,4.0611E0,5.3274755E0,3.8966093E0,6.7821074E0,1.3494374E1,2.6586685E0,2.3321643E0,1.6021111E0,0E0,3.5898037E0,5.1605577E0,4.903927E0,4.8844867E0,5.4520555E0,0E0,0E0,0E0,0E0,0E0,0E0,0E0,0E0,0E0,0E0,0E0,0E0,0E0,0E0],"parents":[2147483647,0,0,1,1,2,2,3,3,4,4,5,5,6,6,7,7,8,8,10,10,11,11,12,12,13,13,14,14],"right_children":[2,4,6,8,10,12,14,16,18,-1,20,22,24,26,28,-1,-1,-1,-1,-1,-1,-1,-1,-1,-1,-1,-1,-1,-1],"split_conditions":[8.75E-2,5E-1,9.7058825E-2,3.361111E-1,4.875E-1,5.49E-1,2.777778E-1,1.32E-1,1E0,-7.9112634E-2,4.72E-1,3.68E-1,7.8E-1,6.21E-1,4.5454547E-1,-3.6249654E-3,-5.9292316E-2,6.546979E-2,-2.2824287E-2,9.185961E-2,2.3761375E-2,-3.0634217E-2,1.1875757E-1,-3.807091E-2,3.5750147E-2,-4.087083E-3,-6.4286344E-2,1.4942939E-2,-5.017932E-2],"split_indices":[7,6,0,0,5,1,2,0,9,0,1,1,1,1,2,0,0,0,0,0,0,0,0,0,0,0,0,0,0],"split_type":[0,0,0,0,0,0,0,0,0,0,0,0,0,0,0,0,0,0,0,0,0,0,0,0,0,0,0,0,0],"sum_hessian":[2.0014163E2,9.69346E1,1.0320702E2,2.3575874E1,7.335873E1,3.3591396E1,6.961563E1,1.8569332E1,5.0065413E0,2.940678E0,7.0418045E1,8.868593E0,2.4722801E1,3.436939E1,3.5246243E1,1.0203793E1,8.36554E0,3.7687042E0,1.2378368E0,4.565875E0,6.585217E1,1.3600022E0,7.508591E0,1.7213615E1,7.509186E0,1.54980955E1,1.8871294E1,2.394602E1,1.1300221E1],"tree_param":{"num_deleted":"0","num_feature":"11","num_nodes":"29","size_leaf_vector":"1"}},{"base_weights":[6.2910663E-3,4.567749E-2,-5.419103E-1,-1.2842701E-2,3.3114192E-1,-9.506539E-1,5.222939E-1,1.1837986E-1,-2.5648066E-1,4.421862E-1,-7.11317E-2,-1.9891435E-2,-8.0826245E-2,8.081927E-1,-1.5752334E-2,1.759876E-3,5.4328673E-2,6.7345195E-2,-3.500906E-2,5.4781064E-2,-8.332789E-3,7.996649E-2,1.8123457E-2],"categories":[],"categories_nodes":[],"categories_segments":[],"categories_sizes":[],"default_left":[0,0,0,0,0,0,0,0,0,0,0,0,0,0,0,0,0,0,0,0,0,0,0],"id":7,"left_children":[1,3,5,7,9,11,13,15,17,19,-1,-1,-1,21,-1,-1,-1,-1,-1,-1,-1,-1,-1],"loss_changes":[4.3916535E0,3.171845E0,6.4274077E0,5.0919495E0,4.769388E0,1.7632198E-1,1.0698233E0,5.5830584E0,1.14564495E1,4.0829797E0,0E0,0E0,0E0,1.4815784E-1,0E0,0E0,0E0,0E0,0E0,0E0,0E0,0E0,0E0],"parents":[2147483647,0,0,1,1,2,2,3,3,4,4,5,5,6,6,7,7,8,8,9,9,13,13],"right_children":[2,4,6,8,10,12,14,16,18,20,-1,-1,-1,22,-1,-1,-1,-1,-1,-1,-1,-1,-1],"split_conditions":[5.3333336E-1,3.6842105E-1,7.5E-1,1.4347826E-1,9.5E-1,4.615E-1,6.75E-1,1.1785714E-1,5.25E-1,4.5454547E-1,-7.11317E-2,-1.9891435E-2,-8.0826245E-2,4.12E-1,-1.5752334E-2,1.759876E-3,5.4328673E-2,6.7345195E-2,-3.500906E-2,5.4781064E-2,-8.332789E-3,7.996649E-2,1.8123457E-2],"split_indices":[2,2,2,0,6,1,5,0,5,2,0,0,0,1,0,0,0,0,0,0,0,0,0],"split_type":[0,0,0,0,0,0,0,0,0,0,0,0,0,0,0,0,0,0,0,0,0,0,0],"sum_hessian":[2.0124913E2,1.8861449E2,1.2634638E1,1.5731909E2,3.1295393E1,9.205611E0,3.4290266E0,1.0258258E2,5.473651E1,2.9269548E1,2.0258446E0,1.1259959E0,8.079616E0,2.3651004E0,1.0639262E0,8.842312E1,1.4159467E1,7.2328267E0,4.750368E1,2.0094334E1,9.175214E0,1.2389143E0,1.1261861E0],"tree_param":{"num_deleted":"0","num_feature":"11","num_nodes":"23","size_leaf_vector":"1"}},{"base_weights":[4.4969372E-2,1.9837056E-1,-9.9267974E-2,-1.7596024E-1,3.205613E-1,1.0233826E-1,-3.0998617E-1,-3.9494684E-1,6.134204E-1,-7.592453E-2,3.8156542E-1,-1.2807211E-1,4.4493616E-1,-5.674929E-1,-6.616429E-2,-4.1386094E-2,3.77887E-2,9.072695E-2,-5.8909715E-3,9.609455E-2,2.4803145E-2,-2.5198488E-2,5.467917E-2,9.9990286E-2,-2.544217E-3,1.7310985E-3,-6.877791E-2,2.6191007E-2,-3.612882E-2],"categories":[],"categories_nodes":[],"categories_segments":[],"categories_sizes":[],"default_left":[0,0,0,0,0,0,0,0,0,0,0,0,0,0,0,0,0,0,0,0,0,0,0,0,0,0,0,0,0],"id":8,"left_children":[1,3,5,7,9,11,13,15,17,-1,19,21,23,25,27,-1,-1,-1,-1,-1,-1,-1,-1,-1,-1,-1,-1,-1,-1],"loss_changes":[4.4410467E0,4.500923E0,4.4352026E0,4.4875326E0,6.0634594E0,4.297902E0,3.1601524E0,2.3494895E0,2.1315074E0,0E0,3.7869358E0,5.205536E0,8.415621E0,4.2603545E0,4.287897E0,0E0,0E0,0E0,0E0,0E0,0E0,0E0,0E0,0E0,0E0,0E0,0E0,0E0,0E0],"parents":[2147483647,0,0,1,1,2,2,3,3,4,4,5,5,6,6,7,7,8,8,10,10,11,11,12,12,13,13,14,14],"right_children":[2,4,6,8,10,12,14,16,18,-1,20,22,24,26,28,-1,-1,-1,-1,-1,-1,-1,-1,-1,-1,-1,-1,-1,-1],"split_conditions":[8.75E-2,5E-1,6.666667E-1,3.3461538E-1,4.875E-1,7.125E-1,6.5E-1,7.31E-1,4.138889E-1,-7.592453E-2,4.72E-1,3.4666666E-1,1.4814815E-1,4.5E-1,6.75E-1,-4.1386094E-2,3.77887E-2,9.072695E-2,-5.8909715E-3,9.609455E-2,2.4803145E-2,-2.5198488E-2,5.467917E-2,9.9990286E-2,-2.544217E-3,1.7310985E-3,-6.877791E-2,2.6191007E-2,-3.612882E-2],"split_indices":[7,6,10,0,5,5,6,1,0,0,1,0,2,6,5,0,0,0,0,0,0,0,0,0,0,0,0,0,0],"split_type":[0,0,0,0,0,0,0,0,0,0,0,0,0,0,0,0,0,0,0,0,0,0,0,0,0,0,0,0,0],"sum_hessian":[1.9882458E2,9.616967E1,1.0265492E2,2.355844E1,7.261123E1,5.2724598E1,4.9930325E1,1.8833427E1,4.725013E0,2.6615608E0,6.994967E1,3.1898079E1,2.082652E1,2.3638058E1,2.6292267E1,1.685821E1,1.9752173E0,2.317853E0,2.40716E0,4.346746E0,6.560292E1,2.642425E1,5.473828E0,7.143486E0,1.3683035E1,8.144622E0,1.5493436E1,1.308387E1,1.3208398E1],"tree_param":{"num_deleted":"0","num_feature":"11","num_nodes":"29","size_leaf_vector":"1"}},{"base_weights":[-1.2758568E-2,7.951258E-2,-2.693958E-1,-2.1911274E-1,2.0640182E-1,2.4903272E-1,-5.8698064E-1,-5.044359E-1,2.825061E-1,1.0093738E-1,1.1908726E0,-7.184165E-1,5.475142E-1,-3.0948514E-2,-8.2802063E-1,3.4164146E-2,-5.0791625E-2,7.8534625E-2,-1.9161334E-2,-1.9366173E-2,2.1326873E-2,1.23317E-1,-5.7170756E-2,1.3781905E-2,-8.0950305E-2,-4.1391123E-2,6.712353E-2,9.628104E-2,-4.376223E-2,-2.6888546E-2,-9.381704E-2],"categories":[],"categories_nodes":[],"categories_segments":[],"categories_sizes":[],"default_left":[0,0,0,0,0,0,0,0,0,0,0,0,0,0,0,0,0,0,0,0,0,0,0,0,0,0,0,0,0,0,0],"id":9,"left_children":[1,3,5,7,9,11,13,15,17,19,21,23,25,27,29,-1,-1,-1,-1,-1,-1,-1,-1,-1,-1,-1,-1,-1,-1,-1,-1],"loss_changes":[4.7079463E0,5.5904922E0,8.800946E0,6.4577904E0,1.0596571E1,6.3624134E0,4.383192E0,3.7327104E0,6.308281E0,5.4239535E0,7.7119417E0,1.5613048E0,5.514545E0,7.6576815E0,3.4902124E0,0E0,0E0,0E0,0E0,0E0,0E0,0E0,0E0,0E0,0E0,0E0,0E0,0E0,0E0,0E0,0E0],"parents":[2147483647,0,0,1,1,2,2,3,3,4,4,5,5,6,6,7,7,8,8,9,9,10,10,11,11,12,12,13,13,14,14],"right_children":[2,4,6,8,10,12,14,16,18,20,22,24,26,28,30,-1,-1,-1,-1,-1,-1,-1,-1,-1,-1,-1,-1,-1,-1,-1,-1],"split_conditions":[2.7767858E-1,6.125E-1,6.375E-1,2.7272728E-1,2.7321428E-1,5.6E-1,1.3636364E-1,4.01E-1,3.5714287E-1,5.5E-1,9.3333334E-1,5E-2,3.3125E-1,4.94E-1,3.2875E-1,3.4164146E-2,-5.0791625E-2,7.8534625E-2,-1.9161334E-2,-1.9366173E-2,2.1326873E-2,1.23317E-1,-5.7170756E-2,1.3781905E-2,-8.0950305E-2,-4.1391123E-2,6.712353E-2,9.628104E-2,-4.376223E-2,-2.6888546E-2,-9.381704E-2],"split_indices":[8,5,5,2,8,1,2,1,2,6,10,6,8,1,8,0,0,0,0,0,0,0,0,0,0,0,0,0,0,0,0],"split_type":[0,0,0,0,0,0,0,0,0,0,0,0,0,0,0,0,0,0,0,0,0,0,0,0,0,0,0,0,0,0,0],"sum_hessian":[1.9690892E2,1.453427E2,5.1566227E1,4.3124733E1,1.02217964E2,1.9670982E1,3.1895243E1,2.748533E1,1.56394E1,9.332299E1,8.89498E0,4.3063087E0,1.5364675E1,9.986571E0,2.1908672E1,3.0972626E0,2.438807E1,6.308931E0,9.330469E0,3.0240818E1,6.308217E1,7.674091E0,1.2208899E0,1.1695517E0,3.1367571E0,3.1357267E0,1.2228948E1,2.551457E0,7.435114E0,9.840415E0,1.2068257E1],"tree_param":{"num_deleted":"0","num_feature":"11","num_nodes":"31","size_leaf_vector":"1"}},{"base_weights":[-2.8658407E-2,1.0584952E-1,-1.5908371E-1,-7.979534E-2,1.5364489E-1,-2.9987762E-2,-5.123913E-1,1.17701635E-1,9.353286E-1,1.4588358E-1,-3.695133E-1,3.3838026E-2,-8.4328544E-1,1.7524084E-2,-1.4087805E-2,1.1787604E-1,-1.9123418E-2,5.967463E-2,-5.6294114E-3,-4.2752888E-2,4.472883E-2,8.112168E-2,-2.927536E-2,-1.40977185E-2,-7.660081E-2],"categories":[],"categories_nodes":[],"categories_segments":[],"categories_sizes":[],"default_left":[0,0,0,0,0,0,0,0,0,0,0,0,0,0,0,0,0,0,0,0,0,0,0,0,0],"id":10,"left_children":[1,3,5,-1,7,9,11,13,15,17,19,21,23,-1,-1,-1,-1,-1,-1,-1,-1,-1,-1,-1,-1],"loss_changes":[3.4851692E0,5.317217E0,4.580984E0,0E0,2.5514245E0,4.5244765E0,4.891614E0,2.7693095E0,2.892899E0,6.5453987E0,4.254178E0,4.7252555E0,1.1109076E0,0E0,0E0,0E0,0E0,0E0,0E0,0E0,0E0,0E0,0E0,0E0,0E0],"parents":[2147483647,0,0,1,1,2,2,4,4,5,5,6,6,7,7,8,8,9,9,10,10,11,11,12,12],"right_children":[2,4,6,-1,8,10,12,14,16,18,20,22,24,-1,-1,-1,-1,-1,-1,-1,-1,-1,-1,-1,-1],"split_conditions":[8.75E-2,6.25E-2,2.752976E-1,-7.979534E-2,8.5E-1,8E-1,9.565217E-2,7.375E-1,6.666667E-1,9.166667E-2,9.5E-1,4.5E-1,5.5E-1,1.7524084E-2,-1.4087805E-2,1.1787604E-1,-1.9123418E-2,5.967463E-2,-5.6294114E-3,-4.2752888E-2,4.472883E-2,8.112168E-2,-2.927536E-2,-1.40977185E-2,-7.660081E-2],"split_indices":[7,8,8,0,5,10,0,5,10,0,6,6,5,0,0,0,0,0,0,0,0,0,0,0,0],"split_type":[0,0,0,0,0,0,0,0,0,0,0,0,0,0,0,0,0,0,0,0,0,0,0,0,0],"sum_hessian":[1.9670183E2,9.6928085E1,9.977375E1,3.1996436E0,9.372845E1,7.386787E1,2.5905884E1,9.070809E1,3.0203505E0,4.9037292E1,2.4830568E1,1.0111645E1,1.5794239E1,6.763206E1,2.3076038E1,1.896611E0,1.1237395E0,1.2341891E1,3.6695404E1,2.1446735E1,3.3838322E0,2.4842641E0,7.627381E0,2.6808765E0,1.3113362E1],"tree_param":{"num_deleted":"0","num_feature":"11","num_nodes":"25","size_leaf_vector":"1"}},{"base_weights":[-1.9136848E-2,1.7895012E-1,-1.1406046E-1,5.255044E-1,-1.1697612E-1,-6.079513E-1,-4.055525E-2,7.810138E-1,-7.3855555E-1,-2.2861524E-1,1.0551576E-1,-7.33533E-1,4.8852175E-2,1.263797E0,-9.599726E-2,-1.2520855E-2,1.21482275E-1,-8.004029E-2,-4.8230384E-3,3.2944724E-2,-3.6790133E-2,-7.172696E-2,-5.156522E-3,5.4877233E-3,1.3513619E-1,-1.7912924E-2,8.327638E-3],"categories":[],"categories_nodes":[],"categories_segments":[],"categories_sizes":[],"default_left":[0,0,0,0,0,0,0,0,0,0,0,0,0,0,0,0,0,0,0,0,0,0,0,0,0,0,0],"id":11,"left_children":[1,3,5,7,9,11,13,15,17,19,-1,21,-1,23,25,-1,-1,-1,-1,-1,-1,-1,-1,-1,-1,-1,-1],"loss_changes":[3.7813559E0,6.7466617E0,4.9064646E0,1.0333065E1,6.0692577E0,3.1298766E0,8.748981E0,1.7948074E1,9.334233E-1,5.259981E0,0E0,1.7250614E0,0E0,2.3932734E0,2.9761763E0,0E0,0E0,0E0,0E0,0E0,0E0,0E0,0E0,0E0,0E0,0E0,0E0],"parents":[2147483647,0,0,1,1,2,2,3,3,4,4,5,5,6,6,7,7,8,8,9,9,11,11,13,13,14,14],"right_children":[2,4,6,8,10,12,14,16,18,20,-1,22,-1,24,26,-1,-1,-1,-1,-1,-1,-1,-1,-1,-1,-1,-1],"split_conditions":[5.765E-1,1.1956522E-1,6.1E-1,6.666667E-1,5.655E-1,4.75E-1,2E-1,3.3333334E-1,7.5E-2,6.666667E-2,1.0551576E-1,7.75E-1,4.8852175E-2,5.7894737E-2,7.8E-1,-1.2520855E-2,1.21482275E-1,-8.004029E-2,-4.8230384E-3,3.2944724E-2,-3.6790133E-2,-7.172696E-2,-5.156522E-3,5.4877233E-3,1.3513619E-1,-1.7912924E-2,8.327638E-3],"split_indices":[1,0,1,10,1,0,10,10,0,10,0,5,0,0,1,0,0,0,0,0,0,0,0,0,0,0,0],"split_type":[0,0,0,0,0,0,0,0,0,0,0,0,0,0,0,0,0,0,0,0,0,0,0,0,0,0,0],"sum_hessian":[1.9901694E2,6.41867E1,1.3483025E2,2.9207033E1,3.4979664E1,1.6525106E1,1.1830514E2,2.4613874E1,4.5931597E0,3.3236412E1,1.7432517E0,1.5342099E1,1.1830074E0,3.9349475E0,1.1437019E2,1.1184275E1,1.34296E1,2.97076E0,1.6223997E0,8.610619E0,2.4625795E1,1.2062443E1,3.2796564E0,1.3377401E0,2.5972075E0,6.9696144E1,4.467405E1],"tree_param":{"num_deleted":"0","num_feature":"11","num_nodes":"27","size_leaf_vector":"1"}},{"base_weights":[3.8684E-2,1.3083574E-1,-2.2115804E-1,1.9856052E-1,-4.9711183E-1,9.625691E-2,-7.889978E-1,-8.6399233E-1,2.4206036E-1,-7.48696E-1,6.881096E-1,-1.395662E-1,7.732918E-1,3.2548112E-1,-9.9880195E-1,-7.8944154E-2,-1.7663714E-2,1.2272424E-2,6.718257E-2,-7.480079E-2,2.6384056E-2,-5.6258634E-2,1.3779764E-1,2.8148929E-2,-4.982547E-2,-4.077328E-2,1.2027326E-1,-3.711837E-2,9.476907E-2,-8.845123E-2,1.7065797E-2],"categories":[],"categories_nodes":[],"categories_segments":[],"categories_sizes":[],"default_left":[0,0,0,0,0,0,0,0,0,0,0,0,0,0,0,0,0,0,0,0,0,0,0,0,0,0,0,0,0,0,0],"id":12,"left_children":[1,3,5,7,9,11,13,15,17,19,21,23,25,27,29,-1,-1,-1,-1,-1,-1,-1,-1,-1,-1,-1,-1,-1,-1,-1,-1],"loss_changes":[4.7359486E0,6.2967453E0,9.418802E0,6.3226767E0,4.830962E0,5.5588436E0,4.696333E0,2.1031094E-1,6.645927E0,2.8036633E0,5.608484E0,6.4336324E0,9.171057E0,3.0700157E0,2.3051271E0,0E0,0E0,0E0,0E0,0E0,0E0,0E0,0E0,0E0,0E0,0E0,0E0,0E0,0E0,0E0,0E0],"parents":[2147483647,0,0,1,1,2,2,3,3,4,4,5,5,6,6,7,7,8,8,9,9,10,10,11,11,12,12,13,13,14,14],"right_children":[2,4,6,8,10,12,14,16,18,20,22,24,26,28,30,-1,-1,-1,-1,-1,-1,-1,-1,-1,-1,-1,-1,-1,-1,-1,-1],"split_conditions":[2.7767858E-1,8.625E-1,2.4E-1,3.5714287E-2,9.835E-1,7.8E-1,5.375E-1,2.173913E-1,8.125E-1,2.7321428E-1,1.14583336E-1,8E-2,4.1666668E-2,3.9130434E-1,1E0,-7.8944154E-2,-1.7663714E-2,1.2272424E-2,6.718257E-2,-7.480079E-2,2.6384056E-2,-5.6258634E-2,1.3779764E-1,2.8148929E-2,-4.982547E-2,-4.077328E-2,1.2027326E-1,-3.711837E-2,9.476907E-2,-8.845123E-2,1.7065797E-2],"split_indices":[8,1,2,8,1,1,5,2,5,8,0,2,2,0,10,0,0,0,0,0,0,0,0,0,0,0,0,0,0,0,0],"split_type":[0,0,0,0,0,0,0,0,0,0,0,0,0,0,0,0,0,0,0,0,0,0,0,0,0,0,0,0,0,0,0],"sum_hessian":[1.955769E2,1.447415E2,5.0835403E1,1.3126791E2,1.3473585E1,3.3140682E1,1.769472E1,4.4208026E0,1.26847115E2,1.1418181E1,2.055404E0,2.5168064E1,7.97262E0,2.7159963E0,1.4978723E1,3.26347E0,1.1573325E0,1.11557396E2,1.5289721E1,9.849663E0,1.5685184E0,1.012967E0,1.0424368E0,1.2613281E1,1.2554783E1,3.0010993E0,4.9715204E0,1.6550795E0,1.0609168E0,1.3846151E1,1.1325715E0],"tree_param":{"num_deleted":"0","num_feature":"11","num_nodes":"31","size_leaf_vector":"1"}},{"base_weights":[-1.0654565E-2,-8.388548E-1,9.731984E-3,-1.8933415E-2,-7.593456E-2,6.862421E-1,-4.164349E-2,4.4871837E-1,1.0542713E-1,5.803145E-4,-6.994339E-1,7.581906E-2,-1.0273296E-3,-5.311486E-3,2.7490964E-2,-7.319735E-2,4.4914663E-2],"categories":[],"categories_nodes":[],"categories_segments":[],"categories_sizes":[],"default_left":[0,0,0,0,0,0,0,0,0,0,0,0,0,0,0,0,0],"id":13,"left_children":[1,3,5,-1,-1,7,9,11,-1,13,15,-1,-1,-1,-1,-1,-1],"loss_changes":[3.389299E0,9.574962E-2,6.8557963E0,0E0,0E0,1.4971967E0,5.0973125E0,2.691655E0,0E0,4.0077677E0,3.5220408E0,0E0,0E0,0E0,0E0,0E0,0E0],"parents":[2147483647,0,0,1,1,2,2,5,5,6,6,7,7,9,9,10,10],"right_children":[2,4,6,-1,-1,8,10,12,-1,14,16,-1,-1,-1,-1,-1,-1],"split_conditions":[3.185E-1,2.36E-1,4.12E-1,-1.8933415E-2,-7.593456E-2,3.875E-1,5.3333336E-1,8.695652E-2,1.0542713E-1,3.809524E-1,8.888889E-1,7.581906E-2,-1.0273296E-3,-5.311486E-3,2.7490964E-2,-7.319735E-2,4.4914663E-2],"split_indices":[1,1,1,0,0,0,2,2,0,2,2,0,0,0,0,0,0],"split_type":[0,0,0,0,0,0,0,0,0,0,0,0,0,0,0,0,0],"sum_hessian":[1.9925507E2,3.82242E0,1.9543265E2,1.0788724E0,2.7435474E0,1.2921782E1,1.8251086E2,1.0633361E1,2.2884207E0,1.7244095E2,1.0069928E1,4.6032147E0,6.030146E0,1.4494939E2,2.749155E1,8.834151E0,1.2357773E0],"tree_param":{"num_deleted":"0","num_feature":"11","num_nodes":"17","size_leaf_vector":"1"}},{"base_weights":[-1.6723791E-2,1.1194809E-1,-2.2817816E-1,4.4488687E-2,1.0338193E0,4.1702354E-1,-3.1164423E-1,1.439559E-2,1.0272715E-1,1.7593206E-1,1.3661327E0,-4.4861052E-2,7.6490915E-1,-6.022963E-2,-5.2159274E-1,9.499201E-3,-4.893966E-2,-5.338579E-2,6.5708905E-2,1.4124148E-1,4.1457504E-2,-8.593768E-3,8.62337E-2,3.1670209E-3,-7.336298E-2,4.151907E-2,-5.0217222E-2],"categories":[],"categories_nodes":[],"categories_segments":[],"categories_sizes":[],"default_left":[0,0,0,0,0,0,0,0,0,0,0,0,0,0,0,0,0,0,0,0,0,0,0,0,0,0,0],"id":14,"left_children":[1,3,5,7,9,11,13,15,-1,17,19,-1,21,23,25,-1,-1,-1,-1,-1,-1,-1,-1,-1,-1,-1,-1],"loss_changes":[5.3487043E0,7.559848E0,4.1335125E0,4.271701E0,2.1242962E0,3.4710963E0,3.4734268E0,7.474588E0,0E0,2.433266E0,1.0596294E0,0E0,2.032455E0,2.7171836E0,4.3070936E0,0E0,0E0,0E0,0E0,0E0,0E0,0E0,0E0,0E0,0E0,0E0,0E0],"parents":[2147483647,0,0,1,1,2,2,3,3,4,4,5,5,6,6,7,7,9,9,10,10,12,12,13,13,14,14],"right_children":[2,4,6,8,10,12,14,16,-1,18,20,-1,22,24,26,-1,-1,-1,-1,-1,-1,-1,-1,-1,-1,-1,-1],"split_conditions":[2.5402778E-1,2.3958333E-1,5.125E-1,8.5714287E-1,6.125E-1,4.5E-1,8.75E-2,4.090909E-1,1.0272715E-1,2.9411766E-1,6E-1,-4.4861052E-2,2.977273E-1,9.5E-1,2.5E-1,9.499201E-3,-4.893966E-2,-5.338579E-2,6.5708905E-2,1.4124148E-1,4.1457504E-2,-8.593768E-3,8.62337E-2,3.1670209E-3,-7.336298E-2,4.151907E-2,-5.0217222E-2],"split_indices":[8,8,5,2,5,5,7,2,0,2,6,0,8,6,6,0,0,0,0,0,0,0,0,0,0,0,0],"split_type":[0,0,0,0,0,0,0,0,0,0,0,0,0,0,0,0,0,0,0,0,0,0,0,0,0,0,0],"sum_hessian":[1.9464522E2,1.2130228E2,7.334294E1,1.14007835E2,7.2944465E0,7.9433856E0,6.539956E1,1.12293365E2,1.7144703E0,2.4636924E0,4.8307543E0,1.9239383E0,6.0194473E0,3.0346418E1,3.505314E1,9.694771E1,1.5345657E1,1.0534449E0,1.4102476E0,2.5482724E0,2.282482E0,1.7629913E0,4.256456E0,2.8034248E1,2.312171E0,2.8839746E0,3.2169167E1],"tree_param":{"num_deleted":"0","num_feature":"11","num_nodes":"27","size_leaf_vector":"1"}},{"base_weights":[-2.2357192E-2,-3.9603837E-2,9.767966E-2,5.241064E-4,-7.013821E-1,-6.271567E-2,2.4196202E-1,4.7216E-2,-9.8156595E-1,1.0467482E-2,-1.9791516E-2,5.36935E-2,-1.9466787E-3,-8.476316E-2,-3.0033631E-2],"categories":[],"categories_nodes":[],"categories_segments":[],"categories_sizes":[],"default_left":[0,0,0,0,0,0,0,0,0,0,0,0,0,0,0],"id":15,"left_children":[1,3,-1,5,7,9,11,-1,13,-1,-1,-1,-1,-1,-1],"loss_changes":[4.312927E0,5.2350726E0,0E0,2.8681026E0,4.6577644E0,5.353606E0,4.4726267E0,0E0,5.7685852E-2,0E0,0E0,0E0,0E0,0E0,0E0],"parents":[2147483647,0,0,1,1,3,3,4,4,5,5,6,6,8,8],"right_children":[2,4,-1,6,8,10,12,-1,14,-1,-1,-1,-1,-1,-1],"split_conditions":[8.888889E-1,5.3333336E-1,9.767966E-2,3.529412E-1,4.12E-1,1.6666667E-1,1.7430556E-1,4.7216E-2,9E-1,1.0467482E-2,-1.9791516E-2,5.36935E-2,-1.9466787E-3,-8.476316E-2,-3.0033631E-2],"split_indices":[2,2,0,2,1,2,8,0,6,0,0,0,0,0,0],"split_type":[0,0,0,0,0,0,0,0,0,0,0,0,0,0,0],"sum_hessian":[1.9787321E2,1.9612096E2,1.7522614E0,1.8585081E2,1.0270143E1,1.4786168E2,3.7989136E1,1.6335206E0,8.636621E0,7.233729E1,7.552438E1,1.3963238E1,2.4025898E1,6.989507E0,1.6471143E0],"tree_param":{"num_deleted":"0","num_feature":"11","num_nodes":"15","size_leaf_vector":"1"}},{"base_weights":[1.1709955E-2,1.8662573E-1,-7.329806E-2,4.754239E-1,-6.507283E-2,-6.019907E-1,-6.532127E-3,6.333533E-1,-5.751557E-1,-2.8313497E-1,4.5350832E-1,3.704209E-1,-7.974108E-1,1.01365976E-1,-3.956684E-2,-1.0592564E-2,8.024783E-2,-7.4534334E-2,2.2896864E-2,1.8863596E-2,-6.578009E-2,8.1323996E-2,-4.4058565E-2,9.572192E-2,-5.3153917E-2,-8.519076E-2,1.7588843E-2,3.800876E-2,-7.292279E-3],"categories":[],"categories_nodes":[],"categories_segments":[],"categories_sizes":[],"default_left":[0,0,0,0,0,0,0,0,0,0,0,0,0,0,0,0,0,0,0,0,0,0,0,0,0,0,0,0,0],"id":16,"left_children":[1,3,5,7,9,11,13,15,17,19,21,23,25,-1,27,-1,-1,-1,-1,-1,-1,-1,-1,-1,-1,-1,-1,-1,-1],"loss_changes":[2.9001396E0,4.6663723E0,4.6326537E0,5.3113914E0,4.0810027E0,3.0920343E0,4.999463E0,7.606518E0,1.6242007E0,7.250044E0,6.627592E0,3.4840496E0,3.6547546E0,0E0,3.113377E0,0E0,0E0,0E0,0E0,0E0,0E0,0E0,0E0,0E0,0E0,0E0,0E0,0E0,0E0],"parents":[2147483647,0,0,1,1,2,2,3,3,4,4,5,5,6,6,7,7,8,8,9,9,10,10,11,11,12,12,14,14],"right_children":[2,4,6,8,10,12,14,16,18,20,22,24,26,-1,28,-1,-1,-1,-1,-1,-1,-1,-1,-1,-1,-1,-1,-1,-1],"split_conditions":[5.765E-1,1.1956522E-1,6.045E-1,6.666667E-1,5.3333336E-1,5E-2,6.666667E-2,2.6666668E-1,7.5E-2,2E-1,7.3333335E-1,5.825E-1,7.75E-1,1.01365976E-1,4.5E-1,-1.0592564E-2,8.024783E-2,-7.4534334E-2,2.2896864E-2,1.8863596E-2,-6.578009E-2,8.1323996E-2,-4.4058565E-2,9.572192E-2,-5.3153917E-2,-8.519076E-2,1.7588843E-2,3.800876E-2,-7.292279E-3],"split_indices":[1,0,1,10,10,6,10,10,0,10,10,1,5,0,6,0,0,0,0,0,0,0,0,0,0,0,0,0,0],"split_type":[0,0,0,0,0,0,0,0,0,0,0,0,0,0,0,0,0,0,0,0,0,0,0,0,0,0,0,0,0],"sum_hessian":[1.9312288E2,6.276984E1,1.3035304E2,2.8816738E1,3.3953102E1,1.371702E1,1.16636024E2,2.5396173E1,3.4205654E0,2.4221878E1,9.731222E0,2.1454983E0,1.1571523E1,2.0043736E0,1.14631645E2,8.47855E0,1.6917624E1,2.3615003E0,1.059065E0,1.2628682E1,1.1593197E1,6.2274537E0,3.503768E0,1.106199E0,1.0392992E0,9.125362E0,2.4461596E0,9.695034E0,1.04936615E2],"tree_param":{"num_deleted":"0","num_feature":"11","num_nodes":"29","size_leaf_vector":"1"}},{"base_weights":[3.3982296E-2,-3.8630616E-2,2.7418935E-1,5.9318244E-2,-5.524488E-1,6.593859E-1,-7.2320424E-2,1.4285528E-2,8.868189E-1,-2.9892278E-1,-8.690419E-2,3.248579E-1,1.6836681E0,-5.2739805E-1,4.9577415E-1,-1.5691606E-2,1.0305431E-2,1.0813683E-1,-1.6885916E-2,-7.0441954E-2,9.536202E-3,-3.4036767E-2,5.22697E-2,3.4974687E-2,1.8694478E-1,-3.8936816E-3,-7.9084635E-2,1.031528E-1,1.7750504E-3],"categories":[],"categories_nodes":[],"categories_segments":[],"categories_sizes":[],"default_left":[0,0,0,0,0,0,0,0,0,0,0,0,0,0,0,0,0,0,0,0,0,0,0,0,0,0,0,0,0],"id":17,"left_children":[1,3,5,7,9,11,13,15,17,19,-1,21,23,25,27,-1,-1,-1,-1,-1,-1,-1,-1,-1,-1,-1,-1,-1,-1],"loss_changes":[3.390267E0,7.5650496E0,6.067506E0,4.7052045E0,2.9316173E0,6.805317E0,6.6325912E0,2.9435937E0,3.6120439E0,4.4073963E0,0E0,4.570237E0,3.0844297E0,3.0796533E0,4.284836E0,0E0,0E0,0E0,0E0,0E0,0E0,0E0,0E0,0E0,0E0,0E0,0E0,0E0,0E0],"parents":[2147483647,0,0,1,1,2,2,3,3,4,4,5,5,6,6,7,7,8,8,9,9,11,11,12,12,13,13,14,14],"right_children":[2,4,6,8,10,12,14,16,18,20,-1,22,24,26,28,-1,-1,-1,-1,-1,-1,-1,-1,-1,-1,-1,-1,-1,-1],"split_conditions":[7.8E-1,7.145E-1,8.35E-1,8.75E-1,3E-1,7.75E-1,9.065E-1,5E-1,9E-1,1.4017858E-1,-8.690419E-2,1.7113096E-1,7.97E-1,6.75E-1,9.285E-1,-1.5691606E-2,1.0305431E-2,1.0813683E-1,-1.6885916E-2,-7.0441954E-2,9.536202E-3,-3.4036767E-2,5.22697E-2,3.4974687E-2,1.8694478E-1,-3.8936816E-3,-7.9084635E-2,1.031528E-1,1.7750504E-3],"split_indices":[1,1,1,5,8,5,1,6,5,8,0,8,1,5,1,0,0,0,0,0,0,0,0,0,0,0,0,0,0],"split_type":[0,0,0,0,0,0,0,0,0,0,0,0,0,0,0,0,0,0,0,0,0,0,0,0,0,0,0,0,0],"sum_hessian":[1.92765E2,1.4866406E2,4.410093E1,1.25604675E2,2.3059391E1,2.0457014E1,2.3643915E1,1.2008679E2,5.517879E0,1.669222E1,6.3671694E0,1.6413546E1,4.0434675E0,1.3167556E1,1.047636E1,4.2073135E1,7.801366E1,3.7140265E0,1.8038528E0,6.5188212E0,1.01734E1,4.9082055E0,1.150534E1,1.9642196E0,2.079248E0,7.0031614E0,6.164395E0,3.271435E0,7.204925E0],"tree_param":{"num_deleted":"0","num_feature":"11","num_nodes":"29","size_leaf_vector":"1"}},{"base_weights":[1.1008544E-2,-2.6955139E-2,4.8160264E-1,7.590331E-2,-2.685019E-1,-4.7788456E-1,7.4130887E-1,1.90682E-1,-2.925522E-1,7.762808E-3,-5.81148E-1,-6.215355E-2,6.094788E-3,9.430437E-1,-5.4394774E-2,-5.435384E-3,3.9380573E-2,3.1341873E-2,-4.7476243E-2,-7.679559E-2,1.2277677E-2,-7.5187474E-2,-1.7282971E-3,1.2447543E-1,2.5348606E-2],"categories":[],"categories_nodes":[],"categories_segments":[],"categories_sizes":[],"default_left":[0,0,0,0,0,0,0,0,0,0,0,0,0,0,0,0,0,0,0,0,0,0,0,0,0],"id":18,"left_children":[1,3,5,7,9,11,13,15,17,19,21,-1,-1,23,-1,-1,-1,-1,-1,-1,-1,-1,-1,-1,-1],"loss_changes":[3.5481725E0,4.5932174E0,4.048313E0,5.547871E0,4.7713566E0,6.831437E-1,4.098602E0,7.803616E0,6.6653194E0,4.417743E0,5.1785746E0,0E0,0E0,3.7205048E0,0E0,0E0,0E0,0E0,0E0,0E0,0E0,0E0,0E0,0E0,0E0],"parents":[2147483647,0,0,1,1,2,2,3,3,4,4,5,5,6,6,7,7,8,8,9,9,10,10,13,13],"right_children":[2,4,6,8,10,12,14,16,18,20,22,-1,-1,24,-1,-1,-1,-1,-1,-1,-1,-1,-1,-1,-1],"split_conditions":[1E0,8E-1,5.5E-1,2.7767858E-1,6.75E-1,2.3402777E-1,3.8125E-1,5.3333336E-1,8E-2,1.2875E-1,7.75E-1,-6.215355E-2,6.094788E-3,1E0,-5.4394774E-2,-5.435384E-3,3.9380573E-2,3.1341873E-2,-4.7476243E-2,-7.679559E-2,1.2277677E-2,-7.5187474E-2,-1.7282971E-3,1.2447543E-1,2.5348606E-2],"split_indices":[10,10,5,8,5,8,8,10,2,8,5,0,0,3,0,0,0,0,0,0,0,0,0,0,0],"split_type":[0,0,0,0,0,0,0,0,0,0,0,0,0,0,0,0,0,0,0,0,0,0,0,0,0],"sum_hessian":[1.9687823E2,1.8305368E2,1.3824553E1,1.2886469E2,5.4189E1,2.7658808E0,1.1058672E1,9.862438E1,3.0240297E1,2.9286036E1,2.4902962E1,1.5351464E0,1.2307346E0,9.978731E0,1.0799403E0,5.3510044E1,4.511434E1,9.143541E0,2.1096756E1,3.1012468E0,2.618479E1,1.4760866E1,1.01420965E1,4.29251E0,5.686221E0],"tree_param":{"num_deleted":"0","num_feature":"11","num_nodes":"25","size_leaf_vector":"1"}},{"base_weights":[-3.1619694E-2,-6.680401E-2,4.2324328E-1,1.6152602E-2,-3.1501135E-1,-6.144643E-2,6.2767684E-1,-4.778026E-2,6.386855E-1,-1.0290195E-1,-7.5570124E-1,8.320412E-1,-5.6691777E-2,-6.456652E-4,-6.369284E-2,-4.297902E-2,8.8664874E-2,-4.871367E-2,1.1624153E-2,3.236462E-2,-8.243528E-2,-2.282865E-2,8.8663064E-2],"categories":[],"categories_nodes":[],"categories_segments":[],"categories_sizes":[],"default_left":[0,0,0,0,0,0,0,0,0,0,0,0,0,0,0,0,0,0,0,0,0,0,0],"id":19,"left_children":[1,3,5,7,9,-1,11,13,15,17,19,21,-1,-1,-1,-1,-1,-1,-1,-1,-1,-1,-1],"loss_changes":[3.133469E0,3.7311082E0,3.9080591E0,5.466434E0,4.16401E0,0E0,4.01887E0,3.702055E0,7.6584754E0,4.0814114E0,5.0667706E0,3.820137E0,0E0,0E0,0E0,0E0,0E0,0E0,0E0,0E0,0E0,0E0,0E0],"parents":[2147483647,0,0,1,1,2,2,3,3,4,4,6,6,7,7,8,8,9,9,10,10,11,11],"right_children":[2,4,6,8,10,-1,12,14,16,18,20,22,-1,-1,-1,-1,-1,-1,-1,-1,-1,-1,-1],"split_conditions":[1E0,2.7767858E-1,1.24810606E-1,2.7321428E-1,2.6086956E-1,-6.144643E-2,3.6842105E-1,2.6458332E-1,6.25E-1,3.1625E-1,5.375E-1,5.5E-1,-5.6691777E-2,-6.456652E-4,-6.369284E-2,-4.297902E-2,8.8664874E-2,-4.871367E-2,1.1624153E-2,3.236462E-2,-8.243528E-2,-2.282865E-2,8.8663064E-2],"split_indices":[10,8,8,8,2,0,2,8,5,8,5,5,0,0,0,0,0,0,0,0,0,0,0],"split_type":[0,0,0,0,0,0,0,0,0,0,0,0,0,0,0,0,0,0,0,0,0,0,0],"sum_hessian":[1.9302567E2,1.7995872E2,1.3066935E1,1.3557977E2,4.4378956E1,1.5100571E0,1.1556878E1,1.2379004E2,1.1789736E1,3.079193E1,1.3587028E1,1.0351228E1,1.20565E0,1.1851249E2,5.2775507E0,3.3236005E0,8.466135E0,9.654918E0,2.113701E1,2.510859E0,1.1076169E1,2.045272E0,8.305956E0],"tree_param":{"num_deleted":"0","num_feature":"11","num_nodes":"23","size_leaf_vector":"1"}},{"base_weights":[5.4318722E-2,-2.336491E-2,3.267197E-1,6.301797E-2,-5.037841E-1,7.058365E-1,-1.7811134E-2,1.1888048E-1,-4.128045E-1,-6.947754E-1,1.6144268E-1,3.9731005E-1,1.5938607E0,-9.1375506E-1,3.8223204E-1,-7.740375E-2,1.2716831E-2,4.536743E-2,-4.6321664E-2,4.0489458E-2,-6.8913795E-2,-6.093799E-2,4.50469E-2,-2.8281486E-2,5.6124367E-2,1.768995E-2,1.5422699E-1,1.7962258E-2,-9.137951E-2,1.0445098E-1,8.089434E-4],"categories":[],"categories_nodes":[],"categories_segments":[],"categories_sizes":[],"default_left":[0,0,0,0,0,0,0,0,0,0,0,0,0,0,0,0,0,0,0,0,0,0,0,0,0,0,0,0,0,0,0],"id":20,"left_children":[1,3,5,7,9,11,13,15,17,19,21,23,25,27,29,-1,-1,-1,-1,-1,-1,-1,-1,-1,-1,-1,-1,-1,-1,-1,-1],"loss_changes":[4.2255034E0,6.506812E0,5.7984247E0,3.5879025E0,3.1474671E0,5.151578E0,9.016496E0,5.375754E0,2.6430933E0,4.188261E0,2.705706E0,4.131872E0,1.9174423E0,2.27457E0,5.973519E0,0E0,0E0,0E0,0E0,0E0,0E0,0E0,0E0,0E0,0E0,0E0,0E0,0E0,0E0,0E0,0E0],"parents":[2147483647,0,0,1,1,2,2,3,3,4,4,5,5,6,6,7,7,8,8,9,9,10,10,11,11,12,12,13,13,14,14],"right_children":[2,4,6,8,10,12,14,16,18,20,22,24,26,28,30,-1,-1,-1,-1,-1,-1,-1,-1,-1,-1,-1,-1,-1,-1,-1,-1],"split_conditions":[7.8E-1,7.145E-1,8.35E-1,1E0,3.846154E-1,7.75E-1,8.695652E-2,3.185E-1,3.73E-1,4.5E-1,1.4017858E-1,1.7113096E-1,6E-1,5.375E-1,1.8181819E-1,-7.740375E-2,1.2716831E-2,4.536743E-2,-4.6321664E-2,4.0489458E-2,-6.8913795E-2,-6.093799E-2,4.50469E-2,-2.8281486E-2,5.6124367E-2,1.768995E-2,1.5422699E-1,1.7962258E-2,-9.137951E-2,1.0445098E-1,8.089434E-4],"split_indices":[1,1,1,9,2,5,2,1,1,6,8,8,6,5,2,0,0,0,0,0,0,0,0,0,0,0,0,0,0,0,0],"split_type":[0,0,0,0,0,0,0,0,0,0,0,0,0,0,0,0,0,0,0,0,0,0,0,0,0,0,0,0,0,0,0],"sum_hessian":[1.9832187E2,1.5502568E2,4.329618E1,1.3213557E2,2.2890116E1,2.011416E1,2.318202E1,1.18923836E2,1.3211737E1,1.7749647E1,5.1404676E0,1.6001993E1,4.1121664E0,6.7594013E0,1.6422619E1,3.4078689E0,1.1551597E2,1.5662749E0,1.1645462E1,1.9147182E0,1.5834929E1,1.2866396E0,3.853828E0,4.567688E0,1.1434305E1,1.1299314E0,2.982235E0,1.132894E0,5.6265073E0,3.9965808E0,1.2426038E1],"tree_param":{"num_deleted":"0","num_feature":"11","num_nodes":"31","size_leaf_vector":"1"}},{"base_weights":[-4.9257755E-2,-7.263614E-2,5.44888E-1,-4.455698E-2,-4.7193846E-1,1.0546687E0,-3.88468E-1,-3.0065997E-2,-7.021033E-2,4.6074558E-2,-7.371218E-1,1.2666269E-1,1.7673215E-2,-6.092332E-2,2.0120597E-2,-5.127839E-3,7.4193515E-2,-7.650722E-2,3.4398068E-2],"categories":[],"categories_nodes":[],"categories_segments":[],"categories_sizes":[],"default_left":[0,0,0,0,0,0,0,0,0,0,0,0,0,0,0,0,0,0,0],"id":21,"left_children":[1,3,5,7,9,11,13,15,-1,-1,17,-1,-1,-1,-1,-1,-1,-1,-1],"loss_changes":[2.7768168E0,2.1147027E0,4.0154104E0,2.1354027E0,3.8731883E0,1.9289794E0,1.0051575E0,5.8285756E0,0E0,0E0,3.0574164E0,0E0,0E0,0E0,0E0,0E0,0E0,0E0,0E0],"parents":[2147483647,0,0,1,1,2,2,3,3,4,4,5,5,6,6,7,7,10,10],"right_children":[2,4,6,8,10,12,14,16,-1,-1,18,-1,-1,-1,-1,-1,-1,-1,-1],"split_conditions":[8.75E-1,5.3333336E-1,9E-1,4.7902778E-1,4.12E-1,1.14583336E-1,1.14583336E-1,4.1607141E-1,-7.021033E-2,4.6074558E-2,8.888889E-1,1.2666269E-1,1.7673215E-2,-6.092332E-2,2.0120597E-2,-5.127839E-3,7.4193515E-2,-7.650722E-2,3.4398068E-2],"split_indices":[5,2,5,8,1,0,0,8,0,0,2,0,0,0,0,0,0,0,0],"split_type":[0,0,0,0,0,0,0,0,0,0,0,0,0,0,0,0,0,0,0],"sum_hessian":[1.9606297E2,1.894849E2,6.5780854E0,1.780742E2,1.1410692E1,4.170348E0,2.407737E0,1.76048E2,2.0261993E0,2.067834E0,9.342858E0,2.0020373E0,2.1683109E0,1.4010444E0,1.0066926E0,1.7090651E2,5.1414924E0,8.017497E0,1.325361E0],"tree_param":{"num_deleted":"0","num_feature":"11","num_nodes":"19","size_leaf_vector":"1"}},{"base_weights":[3.0012736E-3,-7.812286E-1,2.2378748E-2,-7.342879E-2,-1.2342382E-2,1.0229437E-1,-2.0249645E-1,1.5073104E-1,-2.620752E-1,2.5349453E-1,-4.5695278E-1,5.9877234E-3,5.135115E-2,-4.501689E-2,5.1197093E-2,7.159459E-2,-1.663035E-2,5.854256E-2,-5.6134302E-2],"categories":[],"categories_nodes":[],"categories_segments":[],"categories_sizes":[],"default_left":[0,0,0,0,0,0,0,0,0,0,0,0,0,0,0,0,0,0,0],"id":22,"left_children":[1,3,5,-1,-1,7,9,11,13,15,17,-1,-1,-1,-1,-1,-1,-1,-1],"loss_changes":[2.994031E0,2.6536155E-1,3.47333E0,0E0,0E0,2.5529046E0,5.9996395E0,4.6606865E0,4.990611E0,5.7513757E0,1.0085714E1,0E0,0E0,0E0,0E0,0E0,0E0,0E0,0E0],"parents":[2147483647,0,0,1,1,2,2,5,5,6,6,7,7,8,8,9,9,10,10],"right_children":[2,4,6,-1,-1,8,10,12,14,16,18,-1,-1,-1,-1,-1,-1,-1,-1],"split_conditions":[3.5714287E-2,2.173913E-1,2.7767858E-1,-7.342879E-2,-1.2342382E-2,8.35E-1,7.5E-2,7.75E-1,2.5384617E-1,5.825E-1,5.375E-1,5.9877234E-3,5.135115E-2,-4.501689E-2,5.1197093E-2,7.159459E-2,-1.663035E-2,5.854256E-2,-5.6134302E-2],"split_indices":[8,2,8,0,0,1,0,1,0,1,5,0,0,0,0,0,0,0,0],"split_type":[0,0,0,0,0,0,0,0,0,0,0,0,0,0,0,0,0,0,0],"sum_hessian":[1.9487201E2,3.7509317E0,1.9112108E2,2.6987755E0,1.0521562E0,1.4141165E2,4.970943E1,1.2533662E2,1.6075027E1,1.780546E1,3.190397E1,1.09561615E2,1.5775002E1,1.2338852E1,3.7361746E0,7.055979E0,1.0749481E1,5.1069946E0,2.6796976E1],"tree_param":{"num_deleted":"0","num_feature":"11","num_nodes":"19","size_leaf_vector":"1"}},{"base_weights":[1.682935E-2,3.233059E-2,-7.13263E-2,6.256779E-3,7.794187E-1,3.3149686E-2,-7.709852E-1,1.5156685E0,-6.1580505E-2,9.86012E-3,-1.2406617E-2,-5.6234854E-3,-7.945316E-2,1.93814E-2,1.4349642E-1],"categories":[],"categories_nodes":[],"categories_segments":[],"categories_sizes":[],"default_left":[0,0,0,0,0,0,0,0,0,0,0,0,0,0,0],"id":23,"left_children":[1,3,-1,5,7,9,11,13,-1,-1,-1,-1,-1,-1,-1],"loss_changes":[2.7776246E0,3.752646E0,0E0,3.9426444E0,8.577145E0,3.1073983E0,9.122884E-1,1.2439556E0,0E0,0E0,0E0,0E0,0E0,0E0,0E0],"parents":[2147483647,0,0,1,1,3,3,4,4,5,5,6,6,7,7],"right_children":[2,4,-1,6,8,10,12,14,-1,-1,-1,-1,-1,-1,-1],"split_conditions":[4.7902778E-1,4.1607141E-1,-7.13263E-2,3.8125E-1,6.625E-1,8E-1,2.2916667E-2,6.155E-1,-6.1580505E-2,9.86012E-3,-1.2406617E-2,-5.6234854E-3,-7.945316E-2,1.93814E-2,1.4349642E-1],"split_indices":[8,8,0,8,5,10,0,1,0,0,0,0,0,0,0],"split_type":[0,0,0,0,0,0,0,0,0,0,0,0,0,0,0],"sum_hessian":[1.9420708E2,1.9189691E2,2.3101544E0,1.8639983E2,5.497088E0,1.8109134E2,5.3084893E0,3.7408614E0,1.7562264E0,1.2270227E2,5.8389072E1,1.594925E0,3.7135642E0,1.0057777E0,2.7350838E0],"tree_param":{"num_deleted":"0","num_feature":"11","num_nodes":"15","size_leaf_vector":"1"}},{"base_weights":[5.530252E-3,-7.7421284E-1,2.3747113E-2,-6.9750085E-2,-2.074853E-2,5.6686074E-1,-1.238767E-2,8.0103177E-1,-4.0269528E-2,2.7891159E-2,-3.728947E-1,-3.9616294E-2,8.610074E-2,2.463438E-4,4.8791364E-2,2.9256312E-2,-5.110061E-2],"categories":[],"categories_nodes":[],"categories_segments":[],"categories_sizes":[],"default_left":[0,0,0,0,0,0,0,0,0,0,0,0,0,0,0,0,0],"id":24,"left_children":[1,3,5,-1,-1,7,9,11,-1,13,15,-1,-1,-1,-1,-1,-1],"loss_changes":[2.8073192E0,7.531643E-4,3.7913642E0,0E0,0E0,3.4232807E0,2.6499817E0,4.197986E0,0E0,2.372736E0,3.8346236E0,0E0,0E0,0E0,0E0,0E0,0E0],"parents":[2147483647,0,0,1,1,2,2,5,5,6,6,7,7,9,9,10,10],"right_children":[2,4,6,-1,-1,8,10,12,-1,14,16,-1,-1,-1,-1,-1,-1],"split_conditions":[3.185E-1,3.478261E-1,4.06E-1,-6.9750085E-2,-2.074853E-2,2.752976E-1,1E0,1.0208333E-1,-4.0269528E-2,8.75E-1,2.75E-1,-3.9616294E-2,8.610074E-2,2.463438E-4,4.8791364E-2,2.9256312E-2,-5.110061E-2],"split_indices":[1,2,1,0,0,8,9,8,0,5,0,0,0,0,0,0,0],"split_type":[0,0,0,0,0,0,0,0,0,0,0,0,0,0,0,0,0],"sum_hessian":[1.9534195E2,3.5121074E0,1.9182985E2,2.369248E0,1.1428596E0,1.1050532E1,1.8077931E2,9.273076E0,1.7774571E0,1.6344096E2,1.7338345E1,1.4841131E0,7.788963E0,1.5772224E2,5.7187233E0,4.489752E0,1.2848593E1],"tree_param":{"num_deleted":"0","num_feature":"11","num_nodes":"17","size_leaf_vector":"1"}},{"base_weights":[-2.5103439E-2,1.1835384E-2,-3.468411E-1,-2.5883928E-2,4.533397E-1,-5.2846813E-1,4.3090445E-1,-7.424775E-2,-3.0507217E-3,7.4935675E-1,-5.216751E-2,-8.92799E-1,-8.067672E-2,5.185576E-2,-1.5148227E-3,7.652371E-3,-1.2810938E-2,1.6868176E-2,1.0071981E-1,-1.2723702E-2,-7.759562E-2,-7.156108E-2,3.6642667E-2],"categories":[],"categories_nodes":[],"categories_segments":[],"categories_sizes":[],"default_left":[0,0,0,0,0,0,0,0,0,0,0,0,0,0,0,0,0,0,0,0,0,0,0],"id":25,"left_children":[1,3,5,7,9,11,13,-1,15,17,-1,19,21,-1,-1,-1,-1,-1,-1,-1,-1,-1,-1],"loss_changes":[2.317491E0,2.9356132E0,3.0641725E0,3.348874E0,5.028378E0,2.6569514E0,4.3769836E-1,0E0,2.4913204E0,2.8654685E0,0E0,3.6220312E-1,4.1816897E0,0E0,0E0,0E0,0E0,0E0,0E0,0E0,0E0,0E0,0E0],"parents":[2147483647,0,0,1,1,2,2,3,3,4,4,5,5,6,6,8,8,9,9,11,11,12,12],"right_children":[2,4,6,8,10,12,14,-1,16,18,-1,20,22,-1,-1,-1,-1,-1,-1,-1,-1,-1,-1],"split_conditions":[4.5454547E-1,3.9130434E-1,7.5E-1,3.5714287E-2,2.752976E-1,6.54E-1,1.9652778E-1,-7.424775E-2,2.5E-1,7E-1,-5.216751E-2,1.04464285E-1,1.9916667E-1,5.185576E-2,-1.5148227E-3,7.652371E-3,-1.2810938E-2,1.6868176E-2,1.0071981E-1,-1.2723702E-2,-7.759562E-2,-7.156108E-2,3.6642667E-2],"split_indices":[2,2,2,8,8,1,8,0,8,6,0,8,8,0,0,0,0,0,0,0,0,0,0],"split_type":[0,0,0,0,0,0,0,0,0,0,0,0,0,0,0,0,0,0,0,0,0,0,0],"sum_hessian":[1.9365392E2,1.745742E2,1.9079718E1,1.6170088E2,1.287332E1,1.57274065E1,3.3523107E0,3.0126996E0,1.5868819E2,1.040827E1,2.4650495E0,8.123887E0,7.603519E0,1.9630965E0,1.3892142E0,9.769338E1,6.09948E1,5.748223E0,4.660047E0,1.0641518E0,7.0597353E0,2.7653673E0,4.838152E0],"tree_param":{"num_deleted":"0","num_feature":"11","num_nodes":"23","size_leaf_vector":"1"}},{"base_weights":[-2.029781E-3,-8.04679E-1,1.8503034E-2,-1.9565688E-2,-7.2503865E-2,4.2626208E-1,-3.7967224E-2,1.0017263E0,5.398162E-2,1.0074542E-2,-4.590253E-1,-1.5343173E-2,1.0416106E-1,3.326917E-2,-4.448223E-2,-1.34678455E-2,8.120892E-3,-4.7838435E-2,4.4374015E-2],"categories":[],"categories_nodes":[],"categories_segments":[],"categories_sizes":[],"default_left":[0,0,0,0,0,0,0,0,0,0,0,0,0,0,0,0,0,0,0],"id":26,"left_children":[1,3,5,-1,-1,7,9,11,13,15,17,-1,-1,-1,-1,-1,-1,-1,-1],"loss_changes":[3.2258933E0,5.62346E-2,4.413107E0,0E0,0E0,4.9396863E0,3.4159925E0,3.5108776E0,3.588989E0,2.5025835E0,2.7675054E0,0E0,0E0,0E0,0E0,0E0,0E0,0E0,0E0],"parents":[2147483647,0,0,1,1,2,2,5,5,6,6,7,7,8,8,9,9,10,10],"right_children":[2,4,6,-1,-1,8,10,12,14,16,18,-1,-1,-1,-1,-1,-1,-1,-1],"split_conditions":[3.185E-1,2.36E-1,4.505E-1,-1.9565688E-2,-7.2503865E-2,2.5E-1,4.5454547E-1,5.625E-1,2.6666668E-1,1E-1,8.888889E-1,-1.5343173E-2,1.0416106E-1,3.326917E-2,-4.448223E-2,-1.34678455E-2,8.120892E-3,-4.7838435E-2,4.4374015E-2],"split_indices":[1,1,1,0,0,6,2,5,10,2,2,0,0,0,0,0,0,0,0],"split_type":[0,0,0,0,0,0,0,0,0,0,0,0,0,0,0,0,0,0,0],"sum_hessian":[1.9383484E2,3.882287E0,1.8995256E2,1.1193525E0,2.7629347E0,2.2309834E1,1.6764272E2,8.0993E0,1.4210532E1,1.513501E2,1.6292627E1,1.7007673E0,6.398533E0,9.119017E0,5.0915155E0,5.0997063E1,1.00353035E2,1.4689178E1,1.6034489E0],"tree_param":{"num_deleted":"0","num_feature":"11","num_nodes":"19","size_leaf_vector":"1"}},{"base_weights":[5.4674246E-3,-5.970057E-1,2.5406348E-2,-7.67253E-2,1.2262417E-2,1.7789352E-1,-4.96424E-2,4.4291946E-1,-8.210861E-2,-5.1086307E-1,2.6495464E-2,5.009257E-2,-5.2837424E-2,4.6112034E-2,-3.6969252E-2,-5.3220775E-2,5.921092E-2,9.158322E-2,-2.029564E-3],"categories":[],"categories_nodes":[],"categories_segments":[],"categories_sizes":[],"default_left":[0,0,0,0,0,0,0,0,0,0,0,0,0,0,0,0,0,0,0],"id":27,"left_children":[1,3,5,-1,-1,7,9,11,13,15,17,-1,-1,-1,-1,-1,-1,-1,-1],"loss_changes":[2.3588405E0,1.8559046E0,2.1810033E0,0E0,0E0,4.3653626E0,4.507932E0,6.735298E0,8.41309E0,4.00453E0,6.4556203E0,0E0,0E0,0E0,0E0,0E0,0E0,0E0,0E0],"parents":[2147483647,0,0,1,1,2,2,5,5,6,6,7,7,8,8,9,9,10,10],"right_children":[2,4,6,-1,-1,8,10,12,14,16,18,-1,-1,-1,-1,-1,-1,-1,-1],"split_conditions":[6.25E-2,7.5E-1,5.765E-1,-7.67253E-2,1.2262417E-2,1.1956522E-1,6.15E-1,6.666667E-1,1.4017858E-1,4.75E-1,2E-1,5.009257E-2,-5.2837424E-2,4.6112034E-2,-3.6969252E-2,-5.3220775E-2,5.921092E-2,9.158322E-2,-2.029564E-3],"split_indices":[8,6,1,0,0,0,1,10,8,0,10,0,0,0,0,0,0,0,0],"split_type":[0,0,0,0,0,0,0,0,0,0,0,0,0,0,0,0,0,0,0],"sum_hessian":[1.9410014E2,5.290837E0,1.888093E2,3.3810153E0,1.9098216E0,6.1823456E1,1.2698585E2,3.026755E1,3.1555906E1,1.718351E1,1.0980234E2,2.632784E1,3.9397082E0,1.1357621E1,2.0198284E1,1.571251E1,1.4709988E0,3.932774E0,1.0586956E2],"tree_param":{"num_deleted":"0","num_feature":"11","num_nodes":"19","size_leaf_vector":"1"}},{"base_weights":[-4.5718886E-3,-1.8816447E-2,8.113556E-1,-1.4198043E-3,-7.676907E-1,1.0146562E-2,9.2058904E-2,-5.7699237E-2,2.1050693E-1,-7.14563E-2,-1.5733952E-2,1.5649671E-3,-4.025554E-2,-1.5825283E-2,3.8031727E-2],"categories":[],"categories_nodes":[],"categories_segments":[],"categories_sizes":[],"default_left":[0,0,0,0,0,0,0,0,0,0,0,0,0,0,0],"id":28,"left_children":[1,3,5,7,9,-1,-1,11,13,-1,-1,-1,-1,-1,-1],"loss_changes":[2.2265308E0,2.4477584E0,6.17712E-1,2.2151315E0,1.3004613E-1,0E0,0E0,5.060263E0,4.309355E0,0E0,0E0,0E0,0E0,0E0,0E0],"parents":[2147483647,0,0,1,1,2,2,3,3,4,4,7,7,8,8],"right_children":[2,4,6,8,10,-1,-1,12,14,-1,-1,-1,-1,-1,-1],"split_conditions":[9.835E-1,9.395E-1,1.4347826E-1,7.8E-1,2.752976E-1,1.0146562E-2,9.2058904E-2,7.145E-1,1.9321428E-1,-7.14563E-2,-1.5733952E-2,1.5649671E-3,-4.025554E-2,-1.5825283E-2,3.8031727E-2],"split_indices":[1,1,0,1,8,0,0,1,8,0,0,0,0,0,0],"split_type":[0,0,0,0,0,0,0,0,0,0,0,0,0,0,0],"sum_hessian":[1.8925674E2,1.8696954E2,2.2871976E0,1.8370393E2,3.265618E0,1.2134372E0,1.0737604E0,1.4573119E2,3.7972748E1,2.2146E0,1.051018E0,1.2500747E2,2.0723711E1,1.504081E1,2.293194E1],"tree_param":{"num_deleted":"0","num_feature":"11","num_nodes":"15","size_leaf_vector":"1"}},{"base_weights":[-1.7998831E-2,-7.7047324E-1,3.534018E-4,-1.9767275E-2,-6.8777256E-2,3.7984404E-1,-2.9528046E-2,9.283783E-1,-6.60147E-1,-3.2644686E-1,4.480817E-2,3.3996165E-2,1.15246E-1,8.244757E-3,-7.552734E-2,1.5188703E-2,-6.033556E-2,-8.404657E-2,6.797559E-3],"categories":[],"categories_nodes":[],"categories_segments":[],"categories_sizes":[],"default_left":[0,0,0,0,0,0,0,0,0,0,0,0,0,0,0,0,0,0,0],"id":29,"left_children":[1,3,5,-1,-1,7,9,11,13,15,17,-1,-1,-1,-1,-1,-1,-1,-1],"loss_changes":[2.6661737E0,2.2706985E-3,2.159534E0,0E0,0E0,8.542844E0,3.911403E0,1.8416243E0,1.2641652E0,7.976947E0,6.339634E0,0E0,0E0,0E0,0E0,0E0,0E0,0E0,0E0],"parents":[2147483647,0,0,1,1,2,2,5,5,6,6,7,7,8,8,9,9,10,10],"right_children":[2,4,6,-1,-1,8,10,12,14,16,18,-1,-1,-1,-1,-1,-1,-1,-1],"split_conditions":[3.185E-1,6.666667E-2,2E-1,-1.9767275E-2,-6.8777256E-2,8E-1,5E-1,4.175E-1,4.1666668E-2,1.9916667E-1,4.75E-1,3.3996165E-2,1.15246E-1,8.244757E-3,-7.552734E-2,1.5188703E-2,-6.033556E-2,-8.404657E-2,6.797559E-3],"split_indices":[1,10,6,0,0,10,6,1,2,8,5,0,0,0,0,0,0,0,0],"split_type":[0,0,0,0,0,0,0,0,0,0,0,0,0,0,0,0,0,0,0],"sum_hessian":[1.9204716E2,3.596624E0,1.8845055E2,1.0729332E0,2.523691E0,1.29007635E1,1.7554977E2,8.516258E0,4.3845053E0,3.447117E1,1.410786E2,5.2176337E0,3.2986243E0,1.3616394E0,3.022866E0,1.5870769E1,1.86004E1,4.099754E0,1.3697885E2],"tree_param":{"num_deleted":"0","num_feature":"11","num_nodes":"19","size_leaf_vector":"1"}},{"base_weights":[-3.171184E-2,-4.6943735E-2,7.964955E-2,-1.0927531E-2,-6.188838E-1,-4.769795E-2,2.6915127E-1,1.5007175E-2,-7.635453E-1,-9.5486204E-4,-6.565328E-2,5.8473285E-2,-5.8315866E-2,-8.018024E-2,-9.393871E-3],"categories":[],"categories_nodes":[],"categories_segments":[],"categories_sizes":[],"default_left":[0,0,0,0,0,0,0,0,0,0,0,0,0,0,0],"id":30,"left_children":[1,3,-1,5,7,9,11,-1,13,-1,-1,-1,-1,-1,-1],"loss_changes":[3.0487666E0,3.9070072E0,0E0,1.8641098E0,1.4542894E0,4.406112E0,1.02168E1,0E0,1.3823586E0,0E0,0E0,0E0,0E0,0E0,0E0],"parents":[2147483647,0,0,1,1,3,3,4,4,5,5,6,6,8,8],"right_children":[2,4,-1,6,8,10,12,-1,14,-1,-1,-1,-1,-1,-1],"split_conditions":[8.888889E-1,5.217391E-1,7.964955E-2,3.361111E-1,4.12E-1,2.8055555E-1,7.125E-1,1.5007175E-2,7.25E-1,-9.5486204E-4,-6.565328E-2,5.8473285E-2,-5.8315866E-2,-8.018024E-2,-9.393871E-3],"split_indices":[2,2,0,0,1,0,5,0,5,0,0,0,0,0,0],"split_type":[0,0,0,0,0,0,0,0,0,0,0,0,0,0,0],"sum_hessian":[1.9084491E2,1.8899702E2,1.8478905E0,1.7875931E2,1.0237723E1,1.5874767E2,2.0011644E1,1.5119579E0,8.725765E0,1.5269835E2,6.0493073E0,1.3864847E1,6.146796E0,5.969259E0,2.7565064E0],"tree_param":{"num_deleted":"0","num_feature":"11","num_nodes":"15","size_leaf_vector":"1"}},{"base_weights":[3.1048374E-2,4.4400983E-2,-6.700989E-2,1.9470835E-2,7.0171905E-1,4.2179294E-2,-7.048082E-1,1.3410196E0,-6.114769E-2,-8.851746E-3,1.02614E-2,-4.4366266E-3,-7.48694E-2,3.0364788E-3,1.3769425E-1],"categories":[],"categories_nodes":[],"categories_segments":[],"categories_sizes":[],"default_left":[0,0,0,0,0,0,0,0,0,0,0,0,0,0,0],"id":31,"left_children":[1,3,-1,5,7,9,11,13,-1,-1,-1,-1,-1,-1,-1],"loss_changes":[2.3025646E0,3.153951E0,0E0,3.109727E0,7.618479E0,2.4154663E0,8.107207E-1,2.541192E0,0E0,0E0,0E0,0E0,0E0,0E0,0E0],"parents":[2147483647,0,0,1,1,3,3,4,4,5,5,6,6,7,7],"right_children":[2,4,-1,6,8,10,12,14,-1,-1,-1,-1,-1,-1,-1],"split_conditions":[4.7902778E-1,4.1607141E-1,-6.700989E-2,3.8125E-1,6.625E-1,5.3333336E-1,4.1666668E-2,6.155E-1,-6.114769E-2,-8.851746E-3,1.02614E-2,-4.4366266E-3,-7.48694E-2,3.0364788E-3,1.3769425E-1],"split_indices":[8,8,0,8,5,10,2,1,0,0,0,0,0,0,0],"split_type":[0,0,0,0,0,0,0,0,0,0,0,0,0,0,0],"sum_hessian":[1.9430702E2,1.923E2,2.0070126E0,1.8626514E2,6.034869E0,1.8151581E2,4.749336E0,4.261757E0,1.7731123E0,6.5302956E1,1.1621285E2,1.571877E0,3.1774588E0,1.2109267E0,3.0508304E0],"tree_param":{"num_deleted":"0","num_feature":"11","num_nodes":"15","size_leaf_vector":"1"}},{"base_weights":[-1.0718318E-2,1.3530162E-1,-8.655845E-2,1.8022249E-2,1.412721E0,1.5073018E-1,-3.5234937E-1,-3.516864E-1,1.8066186E-1,3.2293268E-2,1.2954502E-1,2.9684582E-1,-1.2225437E-1,-5.0441605E-1,2.7543232E-1,2.9149551E-2,-4.7020555E-2,-1.1411104E-2,4.293166E-2,-2.163636E-2,3.670854E-2,3.3764794E-2,-3.0918082E-2,1.0558976E-2,-4.8303325E-2,4.196602E-2,-6.364005E-2],"categories":[],"categories_nodes":[],"categories_segments":[],"categories_sizes":[],"default_left":[0,0,0,0,0,0,0,0,0,0,0,0,0,0,0,0,0,0,0,0,0,0,0,0,0,0,0],"id":32,"left_children":[1,3,5,7,9,11,13,15,17,-1,-1,19,21,23,25,-1,-1,-1,-1,-1,-1,-1,-1,-1,-1,-1,-1],"loss_changes":[2.1368568E0,9.860704E0,8.057339E0,3.7586663E0,5.0040054E-1,2.7387156E0,5.8821282E0,3.4452064E0,5.064422E0,0E0,0E0,4.2068963E0,3.6621418E0,3.1648483E0,3.7198899E0,0E0,0E0,0E0,0E0,0E0,0E0,0E0,0E0,0E0,0E0,0E0,0E0],"parents":[2147483647,0,0,1,1,2,2,3,3,4,4,5,5,6,6,7,7,8,8,11,11,12,12,13,13,14,14],"right_children":[2,4,6,8,10,12,14,16,18,-1,-1,20,22,24,26,-1,-1,-1,-1,-1,-1,-1,-1,-1,-1,-1,-1],"split_conditions":[1.3636364E-1,1.1764706E-1,6.75E-1,6.125E-1,6.625E-1,2.4583334E-1,8.25E-1,1.4017858E-1,2.0654762E-1,3.2293268E-2,1.2954502E-1,1.10416666E-1,2.0833333E-1,1.04464285E-1,2.9166666E-1,2.9149551E-2,-4.7020555E-2,-1.1411104E-2,4.293166E-2,-2.163636E-2,3.670854E-2,3.3764794E-2,-3.0918082E-2,1.0558976E-2,-4.8303325E-2,4.196602E-2,-6.364005E-2],"split_indices":[2,2,5,5,5,8,5,8,8,0,0,8,2,8,0,0,0,0,0,0,0,0,0,0,0,0,0],"split_type":[0,0,0,0,0,0,0,0,0,0,0,0,0,0,0,0,0,0,0,0,0,0,0,0,0,0,0],"sum_hessian":[1.909011E2,6.4989174E1,1.2591192E2,6.0453106E1,4.536067E0,6.675149E1,5.9160435E1,1.8114124E1,4.2338978E1,1.272879E0,3.2631881E0,4.3422226E1,2.3329262E1,4.7782627E1,1.1377806E1,4.356473E0,1.3757651E1,2.2502115E1,1.9836863E1,9.497224E0,3.3925003E1,7.4285603E0,1.5900702E1,6.4092817E0,4.1373344E1,9.644313E0,1.7334931E0],"tree_param":{"num_deleted":"0","num_feature":"11","num_nodes":"27","size_leaf_vector":"1"}},{"base_weights":[1.7437812E-2,-3.0100667E-1,6.3370936E-2,-5.936193E-1,2.2689451E-1,1.6959514E-1,-8.7950654E-2,-8.096521E-2,-9.0982005E-2,1.1155446E-1,-1.8381657E-1,2.6810464E-1,-5.262107E-1,-1.916727E-4,-9.4379544E-1,5.9398267E-2,-4.6825413E-2,-6.4857595E-2,3.975543E-2,1.487139E-2,9.292856E-2,-6.714919E-2,3.2681607E-2,-5.3446446E-2,8.642237E-3,-8.521153E-2,-1.3280155E-2],"categories":[],"categories_nodes":[],"categories_segments":[],"categories_sizes":[],"default_left":[0,0,0,0,0,0,0,0,0,0,0,0,0,0,0,0,0,0,0,0,0,0,0,0,0,0,0],"id":33,"left_children":[1,3,5,7,9,11,13,-1,15,-1,17,19,21,23,25,-1,-1,-1,-1,-1,-1,-1,-1,-1,-1,-1,-1],"loss_changes":[2.8139846E0,3.8822827E0,2.7123916E0,3.2490559E0,4.752022E0,6.9229183E0,5.2479067E0,0E0,3.8606517E0,0E0,3.7398698E0,6.199346E0,4.0334888E0,4.7251472E0,4.365263E-1,0E0,0E0,0E0,0E0,0E0,0E0,0E0,0E0,0E0,0E0,0E0,0E0],"parents":[2147483647,0,0,1,1,2,2,3,3,4,4,5,5,6,6,8,8,10,10,11,11,12,12,13,13,14,14],"right_children":[2,4,6,8,10,12,14,-1,16,-1,18,20,22,24,26,-1,-1,-1,-1,-1,-1,-1,-1,-1,-1,-1,-1],"split_conditions":[1.0208333E-1,2.7272728E-1,2.5E-1,7.125E-1,1.71875E-1,4.2857143E-1,9.5E-1,-8.096521E-2,7.5E-1,1.1155446E-1,6.5E-1,2.3958333E-1,6.666667E-1,3.3333334E-1,7.625E-1,5.9398267E-2,-4.6825413E-2,-6.4857595E-2,3.975543E-2,1.487139E-2,9.292856E-2,-6.714919E-2,3.2681607E-2,-5.3446446E-2,8.642237E-3,-8.521153E-2,-1.3280155E-2],"split_indices":[8,2,8,5,0,2,6,0,5,0,6,8,2,10,5,0,0,0,0,0,0,0,0,0,0,0,0],"split_type":[0,0,0,0,0,0,0,0,0,0,0,0,0,0,0,0,0,0,0,0,0,0,0,0,0,0,0],"sum_hessian":[1.9007683E2,2.3260893E1,1.6681593E2,1.4885472E1,8.375422E0,9.7942116E1,6.8873825E1,7.5699635E0,7.3155084E0,1.5562572E0,6.8191648E0,8.633397E1,1.1608146E1,6.3375477E1,5.4983463E0,2.5366652E0,4.7788434E0,3.450622E0,3.3685427E0,8.0165855E1,6.1681123E0,8.771528E0,2.8366182E0,8.11563E0,5.5259846E1,4.436703E0,1.061643E0],"tree_param":{"num_deleted":"0","num_feature":"11","num_nodes":"27","size_leaf_vector":"1"}},{"base_weights":[1.7134786E-2,1.411845E-1,-1.0842931E-1,-1.8204193E-1,2.3901503E-1,4.4485527E-1,-1.5175101E-1,-4.08387E-1,2.6741952E-1,-7.204033E-2,2.89473E-1,1.1525584E0,-4.321638E-1,-2.2647113E-1,1.7355776E-1,-4.9586345E-2,3.4426928E-2,-6.296776E-2,5.0711907E-2,4.6007824E-3,3.6224164E-2,1.2453718E-1,2.0196347E-2,-6.532451E-2,2.3938656E-2,-1.7820832E-3,-3.4708716E-2,-7.8180484E-2,3.3176556E-2],"categories":[],"categories_nodes":[],"categories_segments":[],"categories_sizes":[],"default_left":[0,0,0,0,0,0,0,0,0,0,0,0,0,0,0,0,0,0,0,0,0,0,0,0,0,0,0,0,0],"id":34,"left_children":[1,3,5,7,9,11,13,15,17,-1,19,21,23,25,27,-1,-1,-1,-1,-1,-1,-1,-1,-1,-1,-1,-1,-1,-1],"loss_changes":[2.9967835E0,3.1019723E0,2.3611498E0,2.453184E0,4.554659E0,4.9686675E0,2.2145083E0,3.0544138E0,3.7147026E0,0E0,2.712041E0,1.1563177E0,1.3531495E0,3.0904717E0,5.2011647E0,0E0,0E0,0E0,0E0,0E0,0E0,0E0,0E0,0E0,0E0,0E0,0E0,0E0,0E0],"parents":[2147483647,0,0,1,1,2,2,3,3,4,4,5,5,6,6,7,7,8,8,10,10,11,11,12,12,13,13,14,14],"right_children":[2,4,6,8,10,12,14,16,18,-1,20,22,24,26,28,-1,-1,-1,-1,-1,-1,-1,-1,-1,-1,-1,-1,-1,-1],"split_conditions":[8.75E-2,5E-1,4.875E-1,6.1E-1,4.875E-1,5E-1,7.875E-1,3.9130434E-1,8E-1,-7.204033E-2,1.1E-1,5.3333336E-1,7.525E-1,6.32E-1,4E-1,-4.9586345E-2,3.4426928E-2,-6.296776E-2,5.0711907E-2,4.6007824E-3,3.6224164E-2,1.2453718E-1,2.0196347E-2,-6.532451E-2,2.3938656E-2,-1.7820832E-3,-3.4708716E-2,-7.8180484E-2,3.3176556E-2],"split_indices":[7,6,5,1,5,6,5,0,10,0,0,10,1,1,10,0,0,0,0,0,0,0,0,0,0,0,0,0,0],"split_type":[0,0,0,0,0,0,0,0,0,0,0,0,0,0,0,0,0,0,0,0,0,0,0,0,0,0,0,0,0],"sum_hessian":[1.9041235E2,9.5721214E1,9.469115E1,2.2040358E1,7.3680855E1,6.2028294E0,8.848832E1,1.4719251E1,7.321107E0,2.4099123E0,7.127094E1,3.2589056E0,2.9439237E0,7.220694E1,1.6281376E1,1.19640875E1,2.7551627E0,1.5921347E0,5.7289724E0,3.0006798E1,4.1264145E1,1.7456204E0,1.5132853E0,1.853412E0,1.0905116E0,3.6941536E1,3.5265408E1,2.2918231E0,1.3989552E1],"tree_param":{"num_deleted":"0","num_feature":"11","num_nodes":"29","size_leaf_vector":"1"}},{"base_weights":[-3.912788E-2,-5.0912686E-2,5.6592423E-2,-3.260103E-2,-7.847809E-1,-4.231424E-2,6.608972E-2,-1.7796671E-2,-7.131689E-2,-1.0977381E-2,5.008827E-3],"categories":[],"categories_nodes":[],"categories_segments":[],"categories_sizes":[],"default_left":[0,0,0,0,0,0,0,0,0,0,0],"id":35,"left_children":[1,3,-1,5,7,9,-1,-1,-1,-1,-1],"loss_changes":[1.7638987E0,2.5852327E0,0E0,1.6246992E0,8.281779E-2,1.8947148E0,0E0,0E0,0E0,0E0,0E0],"parents":[2147483647,0,0,1,1,3,3,4,4,5,5],"right_children":[2,4,-1,6,8,10,-1,-1,-1,-1,-1],"split_conditions":[8.888889E-1,4.8947367E-1,5.6592423E-2,4.764706E-1,5E-1,6.65E-1,6.608972E-2,-1.7796671E-2,-7.131689E-2,-1.0977381E-2,5.008827E-3],"split_indices":[2,0,0,0,1,1,0,0,0,0,0],"split_type":[0,0,0,0,0,0,0,0,0,0,0],"sum_hessian":[1.9540056E2,1.932812E2,2.1193445E0,1.8959482E2,3.6863918E0,1.8841434E2,1.1804746E0,1.079822E0,2.60657E0,9.877015E1,8.9644196E1],"tree_param":{"num_deleted":"0","num_feature":"11","num_nodes":"11","size_leaf_vector":"1"}},{"base_weights":[-1.9010345E-3,9.8182345E-3,-6.311222E-2,-2.4214065E-1,4.6044245E-2,-7.06393E-1,2.3645917E-1,6.464106E-2,-6.4252007E-1,-8.31463E-2,2.281041E-2,4.4620324E-2,-4.1988302E-2,1.1535096E-3,3.182561E-2,-7.4250594E-2,1.1704123E-2],"categories":[],"categories_nodes":[],"categories_segments":[],"categories_sizes":[],"default_left":[0,0,0,0,0,0,0,0,0,0,0,0,0,0,0,0,0],"id":36,"left_children":[1,3,-1,5,7,9,11,13,15,-1,-1,-1,-1,-1,-1,-1,-1],"loss_changes":[1.7763361E0,1.7447386E0,0E0,5.5073695E0,2.178656E0,4.406622E0,3.3708067E0,2.7286973E0,1.1452132E0,0E0,0E0,0E0,0E0,0E0,0E0,0E0,0E0],"parents":[2147483647,0,0,1,1,3,3,4,4,5,5,6,6,7,7,8,8],"right_children":[2,4,-1,6,8,10,12,14,16,-1,-1,-1,-1,-1,-1,-1,-1],"split_conditions":[4.7902778E-1,1.0208333E-1,-6.311222E-2,2.1428572E-1,5E-1,7.8E-1,1E0,3.4166667E-1,7.635E-1,-8.31463E-2,2.281041E-2,4.4620324E-2,-4.1988302E-2,1.1535096E-3,3.182561E-2,-7.4250594E-2,1.1704123E-2],"split_indices":[8,8,0,2,0,1,3,0,1,0,0,0,0,0,0,0,0],"split_type":[0,0,0,0,0,0,0,0,0,0,0,0,0,0,0,0,0],"sum_hessian":[1.9075694E2,1.8893108E2,1.8258545E0,2.3034882E1,1.658962E2,1.1451103E1,1.1583779E1,1.6241579E2,3.4804196E0,8.536489E0,2.9146144E0,8.333987E0,3.249792E0,1.4204736E2,2.0368422E1,2.4255743E0,1.0548453E0],"tree_param":{"num_deleted":"0","num_feature":"11","num_nodes":"17","size_leaf_vector":"1"}},{"base_weights":[-8.094291E-3,-6.543088E-2,1.71839E-1,-2.686294E-4,-4.4250774E-1,-2.3340963E-1,3.9999238E-1,2.0360537E-1,-9.314024E-2,-8.150545E-1,3.1181991E-2,1.13782644E-1,-4.908413E-1,1.2532362E0,8.103503E-2,-3.976655E-3,9.8140106E-2,1.1878185E-4,-7.589491E-2,1.8092869E-2,-7.591477E-2,-4.897218E-2,6.15059E-2,-1.37157105E-2,-7.6508656E-2,-1.862101E-2,1.3831452E-1,-2.0609468E-2,6.925838E-2],"categories":[],"categories_nodes":[],"categories_segments":[],"categories_sizes":[],"default_left":[0,0,0,0,0,0,0,0,0,0,0,0,0,0,0,0,0,0,0,0,0,0,0,0,0,0,0,0,0],"id":37,"left_children":[1,3,5,7,9,11,13,15,17,19,21,-1,23,25,27,-1,-1,-1,-1,-1,-1,-1,-1,-1,-1,-1,-1,-1,-1],"loss_changes":[1.9777063E0,3.5693846E0,4.3775883E0,2.3832145E0,3.8027287E0,8.0812645E0,8.066841E0,1.0270787E1,7.002009E0,1.8899446E0,5.3994718E0,0E0,2.1755207E0,6.1266623E0,6.312887E0,0E0,0E0,0E0,0E0,0E0,0E0,0E0,0E0,0E0,0E0,0E0,0E0,0E0,0E0],"parents":[2147483647,0,0,1,1,2,2,3,3,4,4,5,5,6,6,7,7,8,8,9,9,10,10,12,12,13,13,14,14],"right_children":[2,4,6,8,10,12,14,16,18,20,22,-1,24,26,28,-1,-1,-1,-1,-1,-1,-1,-1,-1,-1,-1,-1,-1,-1],"split_conditions":[7.8E-1,7.145E-1,1.9321428E-1,9.166667E-2,1.5714286E-1,7.805E-1,2.2E-1,3.3333334E-1,3.3958334E-1,4.5E-1,7.525E-1,1.13782644E-1,8.5E-1,9.565217E-2,3.4583333E-1,-3.976655E-3,9.8140106E-2,1.1878185E-4,-7.589491E-2,1.8092869E-2,-7.591477E-2,-4.897218E-2,6.15059E-2,-1.37157105E-2,-7.6508656E-2,-1.862101E-2,1.3831452E-1,-2.0609468E-2,6.925838E-2],"split_indices":[1,1,8,0,0,1,8,8,8,6,1,0,6,0,8,0,0,0,0,0,0,0,0,0,0,0,0,0,0],"split_type":[0,0,0,0,0,0,0,0,0,0,0,0,0,0,0,0,0,0,0,0,0,0,0,0,0,0,0,0,0],"sum_hessian":[1.8960854E2,1.4427196E2,4.533658E1,1.23867294E2,2.0404663E1,1.6322077E1,2.90145E1,3.8393223E1,8.547407E1,1.10183325E1,9.38633E0,1.5874388E0,1.4734638E1,7.097851E0,2.1916649E1,3.1536692E1,6.856533E0,7.786078E1,7.6132846E0,1.1768024E0,9.84153E0,5.1045337E0,4.281796E0,9.550355E0,5.1842833E0,1.8450112E0,5.2528396E0,1.5778684E1,6.137965E0],"tree_param":{"num_deleted":"0","num_feature":"11","num_nodes":"29","size_leaf_vector":"1"}},{"base_weights":[8.803067E-3,2.0734431E-2,-6.3347325E-2,-8.486442E-4,6.25858E-1,-1.9455591E-1,8.04237E-2,1.1331023E0,-5.597958E-2,1.35993315E-2,-3.247764E-2,4.1300114E-2,1.147017E-3,5.845119E-4,1.183936E-1],"categories":[],"categories_nodes":[],"categories_segments":[],"categories_sizes":[],"default_left":[0,0,0,0,0,0,0,0,0,0,0,0,0,0,0],"id":38,"left_children":[1,3,-1,5,7,9,11,13,-1,-1,-1,-1,-1,-1,-1],"loss_changes":[1.8448409E0,2.4763458E0,0E0,2.9129384E0,5.183548E0,4.2836847E0,3.746967E0,1.9821978E0,0E0,0E0,0E0,0E0,0E0,0E0,0E0],"parents":[2147483647,0,0,1,1,3,3,4,4,5,5,6,6,7,7],"right_children":[2,4,-1,6,8,10,12,14,-1,-1,-1,-1,-1,-1,-1],"split_conditions":[4.7902778E-1,4.1607141E-1,-6.3347325E-2,6.125E-1,6.625E-1,1.6458334E-1,6.375E-1,6.155E-1,-5.597958E-2,1.35993315E-2,-3.247764E-2,4.1300114E-2,1.147017E-3,5.845119E-4,1.183936E-1],"split_indices":[8,8,0,5,5,8,5,1,0,0,0,0,0,0,0],"split_type":[0,0,0,0,0,0,0,0,0,0,0,0,0,0,0],"sum_hessian":[1.9040207E2,1.8856612E2,1.8359468E0,1.8303632E2,5.529799E0,5.3685825E1,1.293505E2,4.1044436E0,1.4253554E0,1.9778017E1,3.3907806E1,1.6134424E1,1.13216064E2,1.2071177E0,2.8973258E0],"tree_param":{"num_deleted":"0","num_feature":"11","num_nodes":"15","size_leaf_vector":"1"}},{"base_weights":[-1.1058414E-2,3.918568E-1,-4.909371E-2,9.4815993E-1,-1.3564694E-1,-1.3375592E-1,1.8212382E-1,-3.4585786E-1,1.1782726E-1,-3.9138484E-1,6.1462186E-2,-2.2353077E-1,1.8125823E-1,7.7574545E-1,7.549666E-2,-4.9061365E-2,5.6449263E-3,2.66122E-2,-8.009594E-2,-1.0962201E-2,-5.646348E-2,3.0958546E-2,-3.2299433E-2,1.4465992E-2,1.0878769E-1,-3.8126796E-2,2.1165201E-2],"categories":[],"categories_nodes":[],"categories_segments":[],"categories_sizes":[],"default_left":[0,0,0,0,0,0,0,0,0,0,0,0,0,0,0,0,0,0,0,0,0,0,0,0,0,0,0],"id":39,"left_children":[1,3,5,7,9,11,13,15,-1,17,-1,19,21,23,25,-1,-1,-1,-1,-1,-1,-1,-1,-1,-1,-1,-1],"loss_changes":[2.874832E0,4.877898E0,3.3747177E0,5.9424753E0,2.4232657E0,3.599768E0,2.8717654E0,3.9052224E-1,0E0,3.7856205E0,0E0,4.007902E0,3.5819366E0,2.166276E0,4.338276E0,0E0,0E0,0E0,0E0,0E0,0E0,0E0,0E0,0E0,0E0,0E0,0E0],"parents":[2147483647,0,0,1,1,2,2,3,3,4,4,5,5,6,6,7,7,9,9,11,11,12,12,13,13,14,14],"right_children":[2,4,6,8,10,12,14,16,-1,18,-1,20,22,24,26,-1,-1,-1,-1,-1,-1,-1,-1,-1,-1,-1,-1],"split_conditions":[6.666667E-2,1.4375E-1,7.75E-1,7.5E-2,6.045E-1,3.809524E-1,7.86E-1,2.2727273E-1,1.1782726E-1,4.06E-1,6.1462186E-2,7.145E-1,5.3333336E-1,7.125E-1,8.695652E-2,-4.9061365E-2,5.6449263E-3,2.66122E-2,-8.009594E-2,-1.0962201E-2,-5.646348E-2,3.0958546E-2,-3.2299433E-2,1.4465992E-2,1.0878769E-1,-3.8126796E-2,2.1165201E-2],"split_indices":[10,8,1,8,1,2,1,2,0,1,0,1,2,5,2,0,0,0,0,0,0,0,0,0,0,0,0],"split_type":[0,0,0,0,0,0,0,0,0,0,0,0,0,0,0,0,0,0,0,0,0,0,0,0,0,0,0],"sum_hessian":[1.8533571E2,1.5184191E1,1.701515E2,7.002226E0,8.181965E0,1.2485597E2,4.5295536E1,2.1184142E0,4.883812E0,6.819586E0,1.3623786E0,9.739119E1,2.7464785E1,5.941626E0,3.9353912E1,1.0021533E0,1.1162608E0,3.3255897E0,3.4939964E0,8.3667854E1,1.3723332E1,2.0569674E1,6.8951116E0,3.5923302E0,2.3492959E0,9.651302E0,2.9702608E1],"tree_param":{"num_deleted":"0","num_feature":"11","num_nodes":"27","size_leaf_vector":"1"}},{"base_weights":[-1.8875204E-2,6.9630906E-2,-1.0425457E-1,-2.2386955E-1,1.740098E-1,-3.254977E-2,-3.6853805E-1,-5.150963E-1,3.086657E-1,3.4903905E-1,-2.5693262E-1,-1.0862037E-1,4.813998E-1,-1.1459067E-1,-8.663123E-1,4.804035E-2,-5.4634444E-2,4.1910555E-2,-3.675519E-2,1.857626E-4,4.757434E-2,-5.3058457E-2,3.0501332E-2,-2.5597942E-4,-4.2602528E-2,7.135194E-2,-3.4679018E-2,-4.716448E-2,1.6775938E-2,-1.9122303E-2,-7.7142894E-2],"categories":[],"categories_nodes":[],"categories_segments":[],"categories_sizes":[],"default_left":[0,0,0,0,0,0,0,0,0,0,0,0,0,0,0,0,0,0,0,0,0,0,0,0,0,0,0,0,0,0,0],"id":40,"left_children":[1,3,5,7,9,11,13,15,17,19,21,23,25,27,29,-1,-1,-1,-1,-1,-1,-1,-1,-1,-1,-1,-1,-1,-1,-1,-1],"loss_changes":[1.4376433E0,2.9046516E0,1.8213987E0,4.0326514E0,5.3368216E0,3.0704064E0,2.4984674E0,3.5035362E0,1.8037716E0,4.248149E0,5.612399E0,3.0398161E0,4.193678E0,2.3971293E0,1.8679762E-1,0E0,0E0,0E0,0E0,0E0,0E0,0E0,0E0,0E0,0E0,0E0,0E0,0E0,0E0,0E0,0E0],"parents":[2147483647,0,0,1,1,2,2,3,3,4,4,5,5,6,6,7,7,8,8,9,9,10,10,11,11,12,12,13,13,14,14],"right_children":[2,4,6,8,10,12,14,16,18,20,22,24,26,28,30,-1,-1,-1,-1,-1,-1,-1,-1,-1,-1,-1,-1,-1,-1,-1,-1],"split_conditions":[8.75E-2,5.5E-2,2.75E-1,7.5E-1,7.375E-1,2.0952381E-1,2.619643E-1,2E-1,8.375E-1,6.125E-1,8.125E-1,2.6086956E-1,2.4196428E-1,3.4375E-1,2.9166666E-1,4.804035E-2,-5.4634444E-2,4.1910555E-2,-3.675519E-2,1.857626E-4,4.757434E-2,-5.3058457E-2,3.0501332E-2,-2.5597942E-4,-4.2602528E-2,7.135194E-2,-3.4679018E-2,-4.716448E-2,1.6775938E-2,-1.9122303E-2,-7.7142894E-2],"split_indices":[7,0,0,5,5,0,8,6,5,5,5,2,8,0,0,0,0,0,0,0,0,0,0,0,0,0,0,0,0,0,0],"split_type":[0,0,0,0,0,0,0,0,0,0,0,0,0,0,0,0,0,0,0,0,0,0,0,0,0,0,0,0,0,0,0],"sum_hessian":[1.8828947E2,9.2542435E1,9.574705E1,2.3977083E1,6.8565346E1,7.619669E1,1.9550354E1,1.5521572E1,8.455512E0,4.889605E1,1.9669298E1,6.7059715E1,9.136973E0,1.3760449E1,5.789904E0,1.692631E0,1.3828941E1,6.8532486E0,1.6022629E0,2.0694942E1,2.8201107E1,1.199419E1,7.6751075E0,5.4511135E1,1.2548585E1,6.3244104E0,2.8125632E0,5.251274E0,8.509175E0,1.2468153E0,4.543089E0],"tree_param":{"num_deleted":"0","num_feature":"11","num_nodes":"31","size_leaf_vector":"1"}},{"base_weights":[1.7186234E-2,3.29778E-2,-5.301963E-1,-1.2642908E-1,9.2761E-2,-6.9075465E-2,-1.17401965E-1,9.046543E-1,-2.853771E-1,-7.737474E-2,1.29272E-1,4.928378E-2,-5.974295E-2,9.381687E-2,-2.784581E-3,-8.656697E-2,-1.1489988E-2,6.73786E-2,7.169663E-3],"categories":[],"categories_nodes":[],"categories_segments":[],"categories_sizes":[],"default_left":[0,0,0,0,0,0,0,0,0,0,0,0,0,0,0,0,0,0,0],"id":41,"left_children":[1,3,5,7,9,-1,11,13,15,-1,17,-1,-1,-1,-1,-1,-1,-1,-1],"loss_changes":[1.6302975E0,1.7489325E0,6.2638307E-1,8.475917E0,5.277834E0,0E0,2.0851943E0,1.7877855E0,4.836913E0,0E0,3.588191E0,0E0,0E0,0E0,0E0,0E0,0E0,0E0,0E0],"parents":[2147483647,0,0,1,1,2,2,3,3,4,4,6,6,7,7,8,8,10,10],"right_children":[2,4,6,8,10,-1,12,14,16,-1,18,-1,-1,-1,-1,-1,-1,-1,-1],"split_conditions":[1E0,5E-1,1.6666667E-1,4.875E-1,4.75E-1,-6.9075465E-2,2.0654762E-1,4.5E-1,5.5E-1,-7.737474E-2,5.125E-1,4.928378E-2,-5.974295E-2,9.381687E-2,-2.784581E-3,-8.656697E-2,-1.1489988E-2,6.73786E-2,7.169663E-3],"split_indices":[6,6,2,5,5,0,8,6,5,0,5,0,0,0,0,0,0,0,0],"split_type":[0,0,0,0,0,0,0,0,0,0,0,0,0,0,0,0,0,0,0],"sum_hessian":[1.8558116E2,1.8129082E2,4.290347E0,4.9142273E1,1.3214854E2,1.769851E0,2.5204964E0,5.93712E0,4.3205154E1,3.5516262E0,1.2859691E2,1.173804E0,1.3466923E0,4.4259763E0,1.5111438E0,5.5240273E0,3.7681126E1,5.7087107E0,1.2288821E2],"tree_param":{"num_deleted":"0","num_feature":"11","num_nodes":"19","size_leaf_vector":"1"}},{"base_weights":[7.3546325E-3,-6.2368405E-1,2.3058027E-2,-6.962861E-2,1.0050132E-2,1.8538755E-1,-5.1128406E-2,2.7603924E-1,-6.565541E-1,-4.480922E-1,1.6662097E-2,1.07644545E-2,5.4073792E-2,-7.1231805E-2,2.0028237E-2,-6.52087E-2,7.3808827E-3,1.3825991E-2,-1.1698699E-2],"categories":[],"categories_nodes":[],"categories_segments":[],"categories_sizes":[],"default_left":[0,0,0,0,0,0,0,0,0,0,0,0,0,0,0,0,0,0,0],"id":42,"left_children":[1,3,5,-1,-1,7,9,11,13,15,17,-1,-1,-1,-1,-1,-1,-1,-1],"loss_changes":[1.9058775E0,9.725797E-1,2.2639556E0,0E0,0E0,4.679466E0,3.486206E0,2.9592009E0,1.5006268E0,3.8217921E0,2.8585765E0,0E0,0E0,0E0,0E0,0E0,0E0,0E0,0E0],"parents":[2147483647,0,0,1,1,2,2,5,5,6,6,7,7,8,8,9,9,10,10],"right_children":[2,4,6,-1,-1,8,10,12,14,16,18,-1,-1,-1,-1,-1,-1,-1,-1],"split_conditions":[3.185E-1,3.6666667E-1,5.765E-1,-6.962861E-2,1.0050132E-2,1E0,6.155E-1,5.385E-1,5.605E-1,1.9411765E-1,6.75E-1,1.07644545E-2,5.4073792E-2,-7.1231805E-2,2.0028237E-2,-6.52087E-2,7.3808827E-3,1.3825991E-2,-1.1698699E-2],"split_indices":[1,0,1,0,0,9,1,1,1,0,5,0,0,0,0,0,0,0,0],"split_type":[0,0,0,0,0,0,0,0,0,0,0,0,0,0,0,0,0,0,0],"sum_hessian":[1.8987808E2,3.6703188E0,1.8620776E2,2.6397624E0,1.0305564E0,5.7936424E1,1.2827133E2,5.2911583E1,5.0248404E0,1.7891771E1,1.1037957E2,4.00706E1,1.2840983E1,4.009267E0,1.0155737E0,1.0352031E1,7.53974E0,5.6323326E1,5.405624E1],"tree_param":{"num_deleted":"0","num_feature":"11","num_nodes":"19","size_leaf_vector":"1"}},{"base_weights":[-1.0106605E-3,1.6221348E-2,-6.595316E-1,1.2923185E-3,7.4125275E-2,-1.7001053E-2,-6.992638E-2,8.291499E-2,-1.5679184E-1,2.4967471E-2,-4.1419645E-3,6.550029E-3,-3.3590946E-2],"categories":[],"categories_nodes":[],"categories_segments":[],"categories_sizes":[],"default_left":[0,0,0,0,0,0,0,0,0,0,0,0,0],"id":43,"left_children":[1,3,5,7,-1,-1,-1,9,11,-1,-1,-1,-1],"loss_changes":[2.1605718E0,2.521216E0,2.7989507E-1,2.38213E0,0E0,0E0,0E0,3.774055E0,3.9818728E0,0E0,0E0,0E0,0E0],"parents":[2147483647,0,0,1,1,2,2,3,3,7,7,8,8],"right_children":[2,4,6,8,-1,-1,-1,10,12,-1,-1,-1,-1],"split_conditions":[1E0,9.78E-1,1E0,8E-1,7.4125275E-2,-1.7001053E-2,-6.992638E-2,1.6666667E-1,6.75E-1,2.4967471E-2,-4.1419645E-3,6.550029E-3,-3.3590946E-2],"split_indices":[6,1,3,10,0,0,0,2,5,0,0,0,0],"split_type":[0,0,0,0,0,0,0,0,0,0,0,0,0],"sum_hessian":[1.8845558E2,1.8460037E2,3.8552086E0,1.8260716E2,1.9932132E0,1.8957869E0,1.9594219E0,1.2074111E2,6.1866055E1,4.4206043E1,7.653507E1,3.2800137E1,2.9065916E1],"tree_param":{"num_deleted":"0","num_feature":"11","num_nodes":"13","size_leaf_vector":"1"}},{"base_weights":[1.9372571E-2,-6.667124E-3,4.2674023E-1,3.9045367E-2,-5.7836974E-1,-4.834344E-1,1.1986169E0,-6.82481E-3,4.046655E-1,-7.5806373E-1,3.9805744E-2,4.3166175E-2,-8.015367E-2,1.5562679E-2,1.0928876E-1,6.4137965E-3,-2.6816446E-2,8.411212E-3,1.2093695E-1,-1.4439253E-2,-8.750633E-2],"categories":[],"categories_nodes":[],"categories_segments":[],"categories_sizes":[],"default_left":[0,0,0,0,0,0,0,0,0,0,0,0,0,0,0,0,0,0,0,0,0],"id":44,"left_children":[1,3,5,7,9,11,13,15,17,19,-1,-1,-1,-1,-1,-1,-1,-1,-1,-1,-1],"loss_changes":[2.0156584E0,4.7092857E0,8.599537E0,2.803412E0,2.9565144E0,3.6972287E0,8.2144165E-1,4.293859E0,6.019165E0,2.0963497E0,0E0,0E0,0E0,0E0,0E0,0E0,0E0,0E0,0E0,0E0,0E0],"parents":[2147483647,0,0,1,1,2,2,3,3,4,4,5,5,6,6,7,7,8,8,9,9],"right_children":[2,4,6,8,10,12,14,16,18,20,-1,-1,-1,-1,-1,-1,-1,-1,-1,-1,-1],"split_conditions":[9.065E-1,8.35E-1,2.1428572E-1,8.125E-1,3.6875E-1,9.285E-1,1.9652778E-1,8.666667E-1,9.3333334E-1,1.6666667E-1,3.9805744E-2,4.3166175E-2,-8.015367E-2,1.5562679E-2,1.0928876E-1,6.4137965E-3,-2.6816446E-2,8.411212E-3,1.2093695E-1,-1.4439253E-2,-8.750633E-2],"split_indices":[1,1,2,5,8,1,8,10,10,2,0,0,0,0,0,0,0,0,0,0,0],"split_type":[0,0,0,0,0,0,0,0,0,0,0,0,0,0,0,0,0,0,0,0,0],"sum_hessian":[1.8874968E2,1.783339E2,1.0415799E1,1.6599303E2,1.2340854E1,4.951189E0,5.4646096E0,1.4836119E2,1.763185E1,1.0827915E1,1.5129385E0,1.6516619E0,3.2995272E0,1.0902475E0,4.374362E0,1.1788579E2,3.0475393E1,1.4739E1,2.8928483E0,4.545845E0,6.2820697E0],"tree_param":{"num_deleted":"0","num_feature":"11","num_nodes":"21","size_leaf_vector":"1"}},{"base_weights":[3.0985696E-3,-5.607307E-1,1.5915116E-2,-6.551362E-2,9.532408E-3,2.6349303E-1,-1.93517E-2,7.4392205E-1,-3.0610675E-2,-5.2291685E-1,1.6031291E-2,7.86425E-2,-1.6081868E-2,-6.416987E-2,1.4363093E-2,5.1747926E-2,-7.1430415E-2,3.876934E-3,-4.38703E-2],"categories":[],"categories_nodes":[],"categories_segments":[],"categories_sizes":[],"default_left":[0,0,0,0,0,0,0,0,0,0,0,0,0,0,0,0,0,0,0],"id":45,"left_children":[1,3,5,-1,-1,7,9,11,13,15,17,-1,-1,-1,-1,-1,-1,-1,-1],"loss_changes":[1.3715526E0,8.38114E-1,1.6234022E0,0E0,0E0,3.2977886E0,2.9156334E0,2.1951418E0,2.6307485E0,5.2263675E0,2.8348718E0,0E0,0E0,0E0,0E0,0E0,0E0,0E0,0E0],"parents":[2147483647,0,0,1,1,2,2,5,5,6,6,7,7,8,8,9,9,10,10],"right_children":[2,4,6,-1,-1,8,10,12,14,16,18,-1,-1,-1,-1,-1,-1,-1,-1],"split_conditions":[3.185E-1,3.6666667E-1,4.505E-1,-6.551362E-2,9.532408E-3,2.5E-1,3.5E-1,6.666667E-1,3.68E-1,4.4E-2,5.3333336E-1,7.86425E-2,-1.6081868E-2,-6.416987E-2,1.4363093E-2,5.1747926E-2,-7.1430415E-2,3.876934E-3,-4.38703E-2],"split_indices":[1,0,1,0,0,6,6,10,1,0,2,0,0,0,0,0,0,0,0],"split_type":[0,0,0,0,0,0,0,0,0,0,0,0,0,0,0,0,0,0,0],"sum_hessian":[1.87564E2,3.2186284E0,1.8434537E2,2.1845427E0,1.034086E0,2.2178417E1,1.6216696E2,7.840774E0,1.4337643E1,9.741972E0,1.5242499E2,6.2252345E0,1.6155396E0,2.466299E0,1.1871344E1,2.1609557E0,7.5810165E0,1.4500717E2,7.4178157E0],"tree_param":{"num_deleted":"0","num_feature":"11","num_nodes":"19","size_leaf_vector":"1"}},{"base_weights":[2.365626E-2,-1.2572996E-2,2.440726E-1,2.9377831E-2,-7.7325404E-1,8.933007E-1,6.441773E-2,1.4010344E-2,9.503432E-2,3.0791005E-2,-8.383791E-2,5.8904598E-3,1.0527732E0,-7.160953E-1,3.2959253E-1,-6.366493E-2,2.4105231E-3,-2.1282625E-3,1.14090346E-1,1.6425086E-2,-7.8093E-2,4.8731558E-2,-1.774302E-2],"categories":[],"categories_nodes":[],"categories_segments":[],"categories_sizes":[],"default_left":[0,0,0,0,0,0,0,0,0,0,0,0,0,0,0,0,0,0,0,0,0,0,0],"id":46,"left_children":[1,3,5,7,9,11,13,15,-1,-1,-1,-1,17,19,21,-1,-1,-1,-1,-1,-1,-1,-1],"loss_changes":[1.5253996E0,5.277735E0,3.0869992E0,2.7791693E0,3.153461E0,6.7614603E-1,4.829645E0,2.060461E0,0E0,0E0,0E0,0E0,1.952734E0,1.6246362E0,2.7941523E0,0E0,0E0,0E0,0E0,0E0,0E0,0E0,0E0],"parents":[2147483647,0,0,1,1,2,2,3,3,4,4,5,5,6,6,7,7,12,12,13,13,14,14],"right_children":[2,4,6,8,10,12,14,16,-1,-1,-1,-1,18,20,22,-1,-1,-1,-1,-1,-1,-1,-1],"split_conditions":[3.4166667E-1,2.9166666E-1,4.285E-1,2.9117647E-1,1.6E-1,3.5714287E-1,5.82E-1,3.185E-1,9.503432E-2,3.0791005E-2,-8.383791E-2,5.8904598E-3,3.57E-1,2.1428572E-1,4.7368422E-1,-6.366493E-2,2.4105231E-3,-2.1282625E-3,1.14090346E-1,1.6425086E-2,-7.8093E-2,4.8731558E-2,-1.774302E-2],"split_indices":[0,0,1,0,2,2,1,1,0,0,0,0,1,2,2,0,0,0,0,0,0,0,0],"split_type":[0,0,0,0,0,0,0,0,0,0,0,0,0,0,0,0,0,0,0,0,0,0,0],"sum_hessian":[1.8963641E2,1.6367632E2,2.5960089E1,1.5603265E2,7.643671E0,4.7657037E0,2.1194386E1,1.549889E2,1.0437418E0,1.3886201E0,6.2550507E0,1.0142566E0,3.7514467E0,4.9434414E0,1.6250944E1,2.0811553E0,1.5290775E2,1.2028219E0,2.548625E0,1.1344967E0,3.8089447E0,1.0714094E1,5.536851E0],"tree_param":{"num_deleted":"0","num_feature":"11","num_nodes":"23","size_leaf_vector":"1"}},{"base_weights":[3.1580824E-2,4.291828E-2,-6.103652E-2,2.2827294E-2,6.2280345E-1,4.6485808E-2,-7.077499E-1,1.1685131E0,-5.56196E-2,-9.252041E-3,9.352816E-3,-1.3519799E-2,-7.4682E-2,4.12583E-2,1.1207734E-1],"categories":[],"categories_nodes":[],"categories_segments":[],"categories_sizes":[],"default_left":[0,0,0,0,0,0,0,0,0,0,0,0,0,0,0],"id":47,"left_children":[1,3,-1,5,7,9,11,13,-1,-1,-1,-1,-1,-1,-1],"loss_changes":[1.7367079E0,2.169616E0,0E0,3.1822371E0,5.299815E0,2.0394807E0,5.449352E-1,3.587246E-3,0E0,0E0,0E0,0E0,0E0,0E0,0E0],"parents":[2147483647,0,0,1,1,3,3,4,4,5,5,6,6,7,7],"right_children":[2,4,-1,6,8,10,12,14,-1,-1,-1,-1,-1,-1,-1],"split_conditions":[4.7902778E-1,4.1607141E-1,-6.103652E-2,3.8125E-1,6.625E-1,6.125E-1,6.375E-1,8.75E-2,-5.56196E-2,-9.252041E-3,9.352816E-3,-1.3519799E-2,-7.4682E-2,4.12583E-2,1.1207734E-1],"split_indices":[8,8,0,8,5,5,5,7,0,0,0,0,0,0,0],"split_type":[0,0,0,0,0,0,0,0,0,0,0,0,0,0,0],"sum_hessian":[1.8816046E2,1.86446E2,1.7144622E0,1.8120717E2,5.238827E0,1.7643015E2,4.777023E0,3.7851284E0,1.453699E0,5.323238E1,1.2319776E2,1.9270791E0,2.8499436E0,1.8391092E0,1.9460192E0],"tree_param":{"num_deleted":"0","num_feature":"11","num_nodes":"15","size_leaf_vector":"1"}},{"base_weights":[2.053036E-2,3.1894695E-2,-5.2213587E-2,1.0125892E-2,7.5253755E-1,-1.7316112E-2,3.137577E-1,9.516707E-2,8.499869E-2,1.04452025E-4,-7.14035E-2,-3.945606E-2,4.053321E-2,8.202503E-3,2.3125855E-3],"categories":[],"categories_nodes":[],"categories_segments":[],"categories_sizes":[],"default_left":[0,0,0,0,0,0,0,0,0,0,0,0,0,0,0],"id":48,"left_children":[1,3,-1,5,7,9,11,-1,13,-1,-1,-1,-1,-1,-1],"loss_changes":[1.480222E0,2.9502137E0,0E0,1.5388356E0,1.5078444E0,2.7674007E0,2.6325963E0,0E0,2.4110079E-4,0E0,0E0,0E0,0E0,0E0,0E0],"parents":[2147483647,0,0,1,1,3,3,4,4,5,5,6,6,8,8],"right_children":[2,4,-1,6,8,10,12,-1,14,-1,-1,-1,-1,-1,-1],"split_conditions":[9E-1,8.75E-1,-5.2213587E-2,1E0,1.14583336E-1,9.285E-1,5.5E-1,9.516707E-2,2.0263158E-1,1.04452025E-4,-7.14035E-2,-3.945606E-2,4.053321E-2,8.202503E-3,2.3125855E-3],"split_indices":[5,5,0,10,0,1,5,0,0,0,0,0,0,0,0],"split_type":[0,0,0,0,0,0,0,0,0,0,0,0,0,0,0],"sum_hessian":[1.8976015E2,1.8754678E2,2.2133665E0,1.830319E2,4.5148807E0,1.6872559E2,1.4306316E1,2.255868E0,2.2590125E0,1.661882E2,2.537391E0,2.4598317E0,1.1846484E1,1.0902858E0,1.1687267E0],"tree_param":{"num_deleted":"0","num_feature":"11","num_nodes":"15","size_leaf_vector":"1"}},{"base_weights":[-2.662098E-2,8.6433135E-2,-1.10750444E-1,-6.670108E-2,4.325375E-1,1.5538783E-1,-2.528793E-1,-5.581294E-1,8.579102E-2,-1.8979155E-1,8.4444743E-1,4.6424022E-1,-4.548215E-1,-1.3740572E-1,-8.289086E-2,2.3292532E-2,-6.496313E-2,1.3911742E-2,-6.2308133E-2,4.0019386E-2,-6.761262E-2,4.2608366E-3,9.2201166E-2,-3.9167855E-2,4.9742747E-2,-4.897816E-2,5.646048E-2,-2.4229486E-2,3.0097445E-2],"categories":[],"categories_nodes":[],"categories_segments":[],"categories_sizes":[],"default_left":[0,0,0,0,0,0,0,0,0,0,0,0,0,0,0,0,0,0,0,0,0,0,0,0,0,0,0,0,0],"id":49,"left_children":[1,3,5,7,9,11,13,15,17,19,21,23,25,27,-1,-1,-1,-1,-1,-1,-1,-1,-1,-1,-1,-1,-1,-1,-1],"loss_changes":[1.7933762E0,4.2996287E0,4.1232834E0,4.2991457E0,6.530503E0,7.411619E0,6.257728E0,3.162232E0,3.4996881E0,5.2678027E0,3.6280012E0,4.190699E0,2.869839E0,5.4529996E0,0E0,0E0,0E0,0E0,0E0,0E0,0E0,0E0,0E0,0E0,0E0,0E0,0E0,0E0,0E0],"parents":[2147483647,0,0,1,1,2,2,3,3,4,4,5,5,6,6,7,7,8,8,9,9,10,10,11,11,12,12,13,13],"right_children":[2,4,6,8,10,12,14,16,18,20,22,24,26,28,-1,-1,-1,-1,-1,-1,-1,-1,-1,-1,-1,-1,-1,-1,-1],"split_conditions":[6.5E-1,6.125E-1,1.3636364E-1,4.1666668E-2,6E-1,8E-1,3.2875E-1,5E-1,6E-1,5.05E-1,1.7083333E-1,6.75E-1,1.1764706E-1,8.5E-1,-8.289086E-2,2.3292532E-2,-6.496313E-2,1.3911742E-2,-6.2308133E-2,4.0019386E-2,-6.761262E-2,4.2608366E-3,9.2201166E-2,-3.9167855E-2,4.9742747E-2,-4.897816E-2,5.646048E-2,-2.4229486E-2,3.0097445E-2],"split_indices":[5,5,2,2,10,10,8,5,5,1,8,5,2,6,0,0,0,0,0,0,0,0,0,0,0,0,0,0,0],"split_type":[0,0,0,0,0,0,0,0,0,0,0,0,0,0,0,0,0,0,0,0,0,0,0,0,0,0,0,0,0],"sum_hessian":[1.8654805E2,7.958008E1,1.0696798E2,5.57297E1,2.3850378E1,3.720597E1,6.9762E1,1.256786E1,4.316184E1,9.7137375E0,1.4136641E1,2.486166E1,1.2344312E1,6.182302E1,7.938985E0,2.8588362E0,9.709023E0,3.9895435E1,3.2664027E0,4.8470182E0,4.8667197E0,4.2905116E0,9.846129E0,3.2254908E0,2.163617E1,1.1286095E1,1.0582173E0,4.7069885E1,1.4753136E1],"tree_param":{"num_deleted":"0","num_feature":"11","num_nodes":"29","size_leaf_vector":"1"}},{"base_weights":[-1.0766172E-2,1.1465148E-3,-5.3553957E-2,-1.4283784E-2,6.3138396E-1,4.3813914E-2,-1.5780465E-1,7.707262E-2,-6.035501E-3,-2.5031049E-2,1.069434E-2,2.946044E-2,-3.3344056E-2],"categories":[],"categories_nodes":[],"categories_segments":[],"categories_sizes":[],"default_left":[0,0,0,0,0,0,0,0,0,0,0,0,0],"id":50,"left_children":[1,3,-1,5,7,9,11,-1,-1,-1,-1,-1,-1],"loss_changes":[1.4796745E0,1.8191098E0,0E0,1.5299925E0,1.1218017E0,4.2349434E0,7.354518E0,0E0,0E0,0E0,0E0,0E0,0E0],"parents":[2147483647,0,0,1,1,3,3,4,4,5,5,6,6],"right_children":[2,4,-1,6,8,10,12,-1,-1,-1,-1,-1,-1],"split_conditions":[9E-1,8.75E-1,-5.3553957E-2,7.375E-1,1.7875E-1,2.8947368E-2,4.1666668E-2,7.707262E-2,-6.035501E-3,-2.5031049E-2,1.069434E-2,2.946044E-2,-3.3344056E-2],"split_indices":[5,5,0,5,8,0,2,0,0,0,0,0,0],"split_type":[0,0,0,0,0,0,0,0,0,0,0,0,0],"sum_hessian":[1.8748248E2,1.8513239E2,2.350099E0,1.8166203E2,3.470352E0,1.2980946E2,5.185256E1,2.1142201E0,1.356132E0,2.5622896E1,1.0418657E2,1.6967382E1,3.4885178E1],"tree_param":{"num_deleted":"0","num_feature":"11","num_nodes":"13","size_leaf_vector":"1"}},{"base_weights":[-2.2197815E-2,-1.7419629E-1,3.2226413E-2,4.2739573E-1,-2.9591084E-1,7.3194736E-1,-2.445806E-3,-6.4534016E-2,7.878876E-1,-6.525261E-1,-9.79677E-2,1.115841E0,-3.70036E-2,7.0380285E-2,-2.770513E-1,-1.1250343E-2,8.412812E-2,2.9067509E-2,-6.358869E-2,7.979883E-2,-2.1314459E-2,1.05826445E-2,1.0692747E-1,1.2624037E-3,4.8425898E-2,4.7160372E-2,-5.029756E-2],"categories":[],"categories_nodes":[],"categories_segments":[],"categories_sizes":[],"default_left":[0,0,0,0,0,0,0,0,0,0,0,0,0,0,0,0,0,0,0,0,0,0,0,0,0,0,0],"id":51,"left_children":[1,3,5,7,9,11,13,-1,15,17,19,21,-1,23,25,-1,-1,-1,-1,-1,-1,-1,-1,-1,-1,-1,-1],"loss_changes":[1.5439111E0,3.7278504E0,3.344244E0,4.4995384E0,2.865433E0,3.5003316E0,2.664564E0,0E0,1.9177198E0,2.4050088E0,5.407646E0,9.5614386E-1,0E0,3.0671308E0,8.88102E0,0E0,0E0,0E0,0E0,0E0,0E0,0E0,0E0,0E0,0E0,0E0,0E0],"parents":[2147483647,0,0,1,1,2,2,3,3,4,4,5,5,6,6,8,8,9,9,10,10,11,11,13,13,14,14],"right_children":[2,4,6,8,10,12,14,-1,16,18,20,22,-1,24,26,-1,-1,-1,-1,-1,-1,-1,-1,-1,-1,-1,-1],"split_conditions":[5.5E-2,4.5E-1,7.5E-2,5E-2,6.26E-1,6.666667E-1,2.7767858E-1,-6.4534016E-2,3.68E-1,2E-1,6.48E-1,4.72E-1,-3.70036E-2,2.7321428E-1,5.75E-1,-1.1250343E-2,8.412812E-2,2.9067509E-2,-6.358869E-2,7.979883E-2,-2.1314459E-2,1.05826445E-2,1.0692747E-1,1.2624037E-3,4.8425898E-2,4.7160372E-2,-5.029756E-2],"split_indices":[0,1,0,6,1,10,8,0,1,6,1,1,0,8,5,0,0,0,0,0,0,0,0,0,0,0,0],"split_type":[0,0,0,0,0,0,0,0,0,0,0,0,0,0,0,0,0,0,0,0,0,0,0,0,0,0,0],"sum_hessian":[1.849554E2,4.8184055E1,1.3677135E2,7.6855645E0,4.0498493E1,5.5078006E0,1.3126355E2,1.4577035E0,6.227861E0,1.3635742E1,2.6862751E1,4.218028E0,1.2897723E0,1.04336845E2,2.6926699E1,1.4808023E0,4.7470584E0,1.484886E0,1.2150856E1,2.9245276E0,2.3938223E1,1.0663157E0,3.1517124E0,9.56079E1,8.728942E0,7.5777736E0,1.9348925E1],"tree_param":{"num_deleted":"0","num_feature":"11","num_nodes":"27","size_leaf_vector":"1"}},{"base_weights":[-1.6178564E-3,7.518354E-2,-8.7393895E-2,-1.7339412E-2,4.9702278E-1,4.4397688E-1,-1.9448398E-1,2.259449E-2,-7.4000165E-2,-6.087031E-2,6.5060425E-1,6.6412216E-1,-6.366786E-2,-8.004181E-2,-1.4104399E-1,-7.169017E-3,3.4858663E-2,8.346084E-2,-9.395284E-3,7.166706E-2,-8.210908E-3,5.7344675E-2,-1.508053E-2],"categories":[],"categories_nodes":[],"categories_segments":[],"categories_sizes":[],"default_left":[0,0,0,0,0,0,0,0,0,0,0,0,0,0,0,0,0,0,0,0,0,0,0],"id":52,"left_children":[1,3,5,7,9,11,13,15,-1,-1,17,19,-1,-1,21,-1,-1,-1,-1,-1,-1,-1,-1],"loss_changes":[1.2411661E0,3.8887491E0,5.150513E0,3.0111737E0,3.9562883E0,4.685916E0,3.0792468E0,3.7475142E0,0E0,0E0,5.1003394E0,2.486957E0,0E0,0E0,3.037271E0,0E0,0E0,0E0,0E0,0E0,0E0,0E0,0E0],"parents":[2147483647,0,0,1,1,2,2,3,3,4,4,5,5,6,6,7,7,10,10,11,11,14,14],"right_children":[2,4,6,8,10,12,14,16,-1,-1,18,20,-1,-1,22,-1,-1,-1,-1,-1,-1,-1,-1],"split_conditions":[1.4347826E-1,1.1578947E-1,5.375E-1,9.285E-1,3.5E-1,9.3333334E-1,5.5E-1,7.8E-1,-7.4000165E-2,-6.087031E-2,7E-1,6.81E-1,-6.366786E-2,-8.004181E-2,5.625E-1,-7.169017E-3,3.4858663E-2,8.346084E-2,-9.395284E-3,7.166706E-2,-8.210908E-3,5.7344675E-2,-1.508053E-2],"split_indices":[0,0,5,1,6,10,5,1,0,0,6,1,0,0,5,0,0,0,0,0,0,0,0],"split_type":[0,0,0,0,0,0,0,0,0,0,0,0,0,0,0,0,0,0,0,0,0,0,0],"sum_hessian":[1.8640863E2,9.841456E1,8.799407E1,8.149825E1,1.6916302E1,1.4231734E1,7.376234E1,7.899774E1,2.5005102E0,1.4103837E0,1.5505918E1,1.2480092E1,1.7516426E0,3.4844089E0,7.027793E1,6.274067E1,1.6257076E1,1.0023275E1,5.482641E0,9.454559E0,3.0255327E0,2.9450858E0,6.733285E1],"tree_param":{"num_deleted":"0","num_feature":"11","num_nodes":"23","size_leaf_vector":"1"}},{"base_weights":[-2.8303523E-2,-4.0956218E-2,5.904993E-2,-3.1400785E-2,-5.7113342E-2,-5.1294167E-2,5.740677E-1,-2.5784613E-3,-5.2933965E-2,8.268616E-2,-1.2912502E-2],"categories":[],"categories_nodes":[],"categories_segments":[],"categories_sizes":[],"default_left":[0,0,0,0,0,0,0,0,0,0,0],"id":53,"left_children":[1,3,-1,5,-1,7,9,-1,-1,-1,-1],"loss_changes":[1.8298154E0,1.1576174E0,0E0,2.22142E0,0E0,2.039555E0,2.1510205E0,0E0,0E0,0E0,0E0],"parents":[2147483647,0,0,1,1,3,3,5,5,6,6],"right_children":[2,4,-1,6,-1,8,10,-1,-1,-1,-1],"split_conditions":[8.888889E-1,4.7902778E-1,5.904993E-2,4.1607141E-1,-5.7113342E-2,3.8125E-1,6E-1,-2.5784613E-3,-5.2933965E-2,8.268616E-2,-1.2912502E-2],"split_indices":[2,8,0,8,0,8,5,0,0,0,0],"split_type":[0,0,0,0,0,0,0,0,0,0,0],"sum_hessian":[1.8457442E2,1.8250801E2,2.066401E0,1.8098485E2,1.5231606E0,1.7611371E2,4.871141E0,1.7180083E2,4.3128786E0,2.748569E0,2.122572E0],"tree_param":{"num_deleted":"0","num_feature":"11","num_nodes":"11","size_leaf_vector":"1"}},{"base_weights":[2.7019516E-2,-1.2749152E-1,7.866017E-2,8.3367443E-1,-2.9490414E-1,-8.016086E-2,1.20211154E-1,1.178913E0,3.1734768E-1,-8.214217E-2,-1.7327175E-1,3.4685843E-2,2.798108E-1,3.7378207E-2,1.14676565E-1,-3.8256805E-2,8.202687E-2,2.6432388E-2,-3.1718858E-2,4.9053174E-2,-2.3033016E-3,7.5981595E-2,7.5142323E-3],"categories":[],"categories_nodes":[],"categories_segments":[],"categories_sizes":[],"default_left":[0,0,0,0,0,0,0,0,0,0,0,0,0,0,0,0,0,0,0,0,0,0,0],"id":54,"left_children":[1,3,5,7,9,-1,11,13,15,-1,17,19,21,-1,-1,-1,-1,-1,-1,-1,-1,-1,-1],"loss_changes":[1.5016786E0,7.842666E0,6.4398527E0,9.208298E-1,3.4671326E0,0E0,1.8523569E0,5.2197933E-2,2.9006426E0,0E0,4.2137375E0,3.3210645E0,5.8205442E0,0E0,0E0,0E0,0E0,0E0,0E0,0E0,0E0,0E0,0E0],"parents":[2147483647,0,0,1,1,2,2,3,3,4,4,6,6,7,7,8,8,10,10,11,11,12,12],"right_children":[2,4,6,8,10,-1,12,14,16,-1,18,20,22,-1,-1,-1,-1,-1,-1,-1,-1,-1,-1],"split_conditions":[5E-1,4.875E-1,4.75E-1,5.3333336E-1,5.5E-1,-8.016086E-2,2.777778E-1,4.78E-1,7.31E-1,-8.214217E-2,4.395E-1,5E-1,5.625E-1,3.7378207E-2,1.14676565E-1,-3.8256805E-2,8.202687E-2,2.6432388E-2,-3.1718858E-2,4.9053174E-2,-2.3033016E-3,7.5981595E-2,7.5142323E-3],"split_indices":[6,5,5,10,5,0,2,1,1,0,1,1,5,0,0,0,0,0,0,0,0,0,0],"split_type":[0,0,0,0,0,0,0,0,0,0,0,0,0,0,0,0,0,0,0,0,0,0,0],"sum_hessian":[1.8594582E2,4.6211178E1,1.3973463E2,6.264582E0,3.9946598E1,4.3179092E0,1.3541673E2,2.9852467E0,3.2793353E0,4.6322556E0,3.5314342E1,8.8961754E1,4.6454975E1,1.5334334E0,1.4518132E0,1.6969943E0,1.582341E0,1.0696883E1,2.4617458E1,7.9403396E0,8.1021416E1,9.197139E0,3.7257835E1],"tree_param":{"num_deleted":"0","num_feature":"11","num_nodes":"23","size_leaf_vector":"1"}},{"base_weights":[-1.4246744E-3,9.681767E-2,-1.0091528E-1,-6.302923E-1,1.24155134E-1,1.4553967E-1,-1.8928778E-1,-5.963281E-2,-1.315939E-2,1.6461557E-1,-2.8595653E-1,1.0137025E-2,5.77185E-1,-1.019523E-1,-5.1204586E-1,5.9847985E-3,3.5606347E-2,1.7340263E-2,-7.486659E-2,1.5724663E-2,-2.5981545E-2,7.121933E-2,-1.2882928E-2,-3.1166857E-2,6.456496E-4,-5.4749034E-2,1.9118961E-2],"categories":[],"categories_nodes":[],"categories_segments":[],"categories_sizes":[],"default_left":[0,0,0,0,0,0,0,0,0,0,0,0,0,0,0,0,0,0,0,0,0,0,0,0,0,0,0],"id":55,"left_children":[1,3,5,7,9,11,13,-1,-1,15,17,19,21,23,25,-1,-1,-1,-1,-1,-1,-1,-1,-1,-1,-1,-1],"loss_changes":[1.8639991E0,1.9857328E0,2.0910609E0,7.266426E-2,1.595571E0,1.4887029E0,1.925837E0,0E0,0E0,2.1221077E0,3.0599422E0,1.3426858E0,1.5503848E0,1.7904274E0,2.065407E0,0E0,0E0,0E0,0E0,0E0,0E0,0E0,0E0,0E0,0E0,0E0,0E0],"parents":[2147483647,0,0,1,1,2,2,3,3,4,4,5,5,6,6,9,9,10,10,11,11,12,12,13,13,14,14],"right_children":[2,4,6,8,10,12,14,-1,-1,16,18,20,22,24,26,-1,-1,-1,-1,-1,-1,-1,-1,-1,-1,-1,-1],"split_conditions":[8.75E-2,6.25E-2,8E-2,7E-1,9.5E-1,2.8947368E-2,2.752976E-1,-5.963281E-2,-1.315939E-2,8E-1,2.0654762E-1,8E-1,6E-1,2E-1,4.1607141E-1,5.9847985E-3,3.5606347E-2,1.7340263E-2,-7.486659E-2,1.5724663E-2,-2.5981545E-2,7.121933E-2,-1.2882928E-2,-3.1166857E-2,6.456496E-4,-5.4749034E-2,1.9118961E-2],"split_indices":[7,8,2,6,6,0,8,0,0,6,8,10,6,2,8,0,0,0,0,0,0,0,0,0,0,0,0],"split_type":[0,0,0,0,0,0,0,0,0,0,0,0,0,0,0,0,0,0,0,0,0,0,0,0,0,0,0],"sum_hessian":[1.8870662E2,9.496246E1,9.374415E1,2.6417716E0,9.2320694E1,2.4571573E1,6.917258E1,1.6369389E0,1.0048327E0,8.457534E1,7.745352E0,1.9483337E1,5.088236E0,5.54769E1,1.3695678E1,6.5021835E1,1.9553507E1,4.7429357E0,3.0024161E0,1.2781677E1,6.7016597E0,3.4284217E0,1.659814E0,1.4646233E1,4.0830666E1,1.1211972E1,2.4837055E0],"tree_param":{"num_deleted":"0","num_feature":"11","num_nodes":"27","size_leaf_vector":"1"}},{"base_weights":[-1.9771438E-2,-3.2600954E-2,6.377312E-2,-8.600021E-3,-5.197335E-1,-2.0697957E-2,7.499463E-2,2.4476983E-2,-7.1651065E-1,-3.291885E-3,4.1009646E-2,-7.3666126E-2,-6.9517884E-3],"categories":[],"categories_nodes":[],"categories_segments":[],"categories_sizes":[],"default_left":[0,0,0,0,0,0,0,0,0,0,0,0,0],"id":56,"left_children":[1,3,-1,5,7,9,-1,-1,11,-1,-1,-1,-1],"loss_changes":[1.9627976E0,2.1339061E0,0E0,2.0260234E0,1.6118875E0,1.9198514E0,0E0,0E0,8.488977E-1,0E0,0E0,0E0,0E0],"parents":[2147483647,0,0,1,1,3,3,4,4,5,5,8,8],"right_children":[2,4,-1,6,8,10,-1,-1,12,-1,-1,-1,-1],"split_conditions":[8.888889E-1,5.3333336E-1,6.377312E-2,5.294118E-1,4.12E-1,8.75E-1,7.499463E-2,2.4476983E-2,7.25E-1,-3.291885E-3,4.1009646E-2,-7.3666126E-2,-6.9517884E-3],"split_indices":[2,2,0,2,1,5,0,0,5,0,0,0,0],"split_type":[0,0,0,0,0,0,0,0,0,0,0,0,0],"sum_hessian":[1.8379445E2,1.8189795E2,1.896512E0,1.7432655E2,7.571384E0,1.7309117E2,1.2353809E0,1.3503442E0,6.22104E0,1.675877E2,5.503465E0,4.3476543E0,1.8733854E0],"tree_param":{"num_deleted":"0","num_feature":"11","num_nodes":"13","size_leaf_vector":"1"}},{"base_weights":[-7.701559E-3,7.586951E-3,-6.1198014E-1,-5.618497E-1,2.0668961E-2,-1.4242437E-2,-6.606841E-2,-6.3760355E-2,5.5538625E-3,9.059022E-3,6.543485E-1,4.4194E-3,-1.6623173E-2,1.321095E-2,6.5817714E-2],"categories":[],"categories_nodes":[],"categories_segments":[],"categories_sizes":[],"default_left":[0,0,0,0,0,0,0,0,0,0,0,0,0,0,0],"id":57,"left_children":[1,3,5,7,9,-1,-1,-1,-1,11,13,-1,-1,-1,-1],"loss_changes":[1.7225715E0,1.3700211E0,2.7998102E-1,6.6851723E-1,1.3125995E0,0E0,0E0,0E0,0E0,1.7842112E0,1.2858546E-1,0E0,0E0,0E0,0E0],"parents":[2147483647,0,0,1,1,2,2,3,3,4,4,9,9,10,10],"right_children":[2,4,6,8,10,-1,-1,-1,-1,12,14,-1,-1,-1,-1],"split_conditions":[1E0,3.185E-1,1E0,3.6666667E-1,9.78E-1,-1.4242437E-2,-6.606841E-2,-6.3760355E-2,5.5538625E-3,9.3333334E-1,1.4347826E-1,4.4194E-3,-1.6623173E-2,1.321095E-2,6.5817714E-2],"split_indices":[6,1,3,0,1,0,0,0,0,10,0,0,0,0,0],"split_type":[0,0,0,0,0,0,0,0,0,0,0,0,0,0,0],"sum_hessian":[1.8495279E2,1.8135194E2,3.6008382E0,3.1306813E0,1.7822127E2,1.7937489E0,1.8070893E0,2.0897105E0,1.0409708E0,1.7601079E2,2.21048E0,1.4572101E2,3.0289774E1,1.073162E0,1.137318E0],"tree_param":{"num_deleted":"0","num_feature":"11","num_nodes":"15","size_leaf_vector":"1"}},{"base_weights":[3.221981E-2,4.574341E-3,3.5906315E-1,2.0108301E-2,-6.664894E-2,6.6671416E-2,9.774226E-1,-5.7254373E-3,9.541993E-1,4.7593907E-1,-7.343168E-2,1.13869414E-1,-9.151767E-3,1.0080907E-3,-6.950945E-2,-9.588118E-3,1.1775165E-1,-5.0021067E-2,5.83708E-2],"categories":[],"categories_nodes":[],"categories_segments":[],"categories_sizes":[],"default_left":[0,0,0,0,0,0,0,0,0,0,0,0,0,0,0,0,0,0,0],"id":58,"left_children":[1,3,5,7,-1,9,11,13,15,17,-1,-1,-1,-1,-1,-1,-1,-1,-1],"loss_changes":[1.6438468E0,2.2148354E0,2.5002875E0,4.031028E0,0E0,4.7512827E0,2.3451562E0,2.594502E0,2.6760454E0,2.753117E0,0E0,0E0,0E0,0E0,0E0,0E0,0E0,0E0,0E0],"parents":[2147483647,0,0,1,1,2,2,3,3,5,5,6,6,7,7,8,8,9,9],"right_children":[2,4,6,8,-1,10,12,14,16,18,-1,-1,-1,-1,-1,-1,-1,-1,-1],"split_conditions":[1E0,9.285E-1,2.919643E-1,9.065E-1,-6.664894E-2,2.0654762E-1,3.8125E-1,8.845E-1,1.7391305E-1,1.24810606E-1,-7.343168E-2,1.13869414E-1,-9.151767E-3,1.0080907E-3,-6.950945E-2,-9.588118E-3,1.1775165E-1,-5.0021067E-2,5.83708E-2],"split_indices":[10,1,8,1,0,8,8,1,2,8,0,0,0,0,0,0,0,0,0],"split_type":[0,0,0,0,0,0,0,0,0,0,0,0,0,0,0,0,0,0,0],"sum_hessian":[1.8110902E2,1.6791982E2,1.3189206E1,1.6582085E2,2.0989683E0,9.707043E0,3.482163E0,1.6232535E2,3.4954891E0,7.2217054E0,2.4853375E0,2.256747E0,1.225416E0,1.5991537E2,2.409983E0,1.3868076E0,2.1086817E0,1.0779774E0,6.143728E0],"tree_param":{"num_deleted":"0","num_feature":"11","num_nodes":"19","size_leaf_vector":"1"}},{"base_weights":[1.4694128E-2,-5.3668314E-1,2.6553713E-2,2.9794772E-3,-6.220394E-2,-5.5133417E-2,3.5363007E-2,5.9779525E-2,2.3952693E-2,-1.2870805E-2,4.493031E-3],"categories":[],"categories_nodes":[],"categories_segments":[],"categories_sizes":[],"default_left":[0,0,0,0,0,0,0,0,0,0,0],"id":59,"left_children":[1,3,5,-1,-1,-1,7,-1,9,-1,-1],"loss_changes":[1.2302022E0,5.7673895E-1,1.1781117E0,0E0,0E0,0E0,1.4581296E0,0E0,1.079986E0,0E0,0E0],"parents":[2147483647,0,0,1,1,2,2,6,6,8,8],"right_children":[2,4,6,-1,-1,-1,8,-1,10,-1,-1],"split_conditions":[3.185E-1,2.36E-1,4E-1,2.9794772E-3,-6.220394E-2,-5.5133417E-2,4.25E-1,5.9779525E-2,5.5E-1,-1.2870805E-2,4.493031E-3],"split_indices":[1,1,5,0,0,0,5,0,5,0,0],"split_type":[0,0,0,0,0,0,0,0,0,0,0],"sum_hessian":[1.8495071E2,2.962546E0,1.8198817E2,1.1256845E0,1.8368615E0,1.273692E0,1.8071448E2,1.8335286E0,1.7888095E2,2.5953325E1,1.5292763E2],"tree_param":{"num_deleted":"0","num_feature":"11","num_nodes":"11","size_leaf_vector":"1"}},{"base_weights":[-1.1308019E-2,-1.5937804E-1,5.3038966E-2,1.352162E-2,-6.218361E-1,4.9538976E-1,-1.0643492E-2,-2.7362683E-1,3.2753226E-1,-7.9139084E-1,6.3366055E-2,7.494823E-1,-3.9696193E-1,2.2333036E-1,-9.802493E-2,3.2837602E-4,-6.598023E-2,4.6760216E-2,-1.9714847E-2,-1.5140811E-2,-8.500724E-2,1.2003479E-3,9.493874E-2,-6.940726E-2,1.4317521E-2,3.354681E-2,-7.932531E-2,-1.895925E-2,1.3728088E-2],"categories":[],"categories_nodes":[],"categories_segments":[],"categories_sizes":[],"default_left":[0,0,0,0,0,0,0,0,0,0,0,0,0,0,0,0,0,0,0,0,0,0,0,0,0,0,0,0,0],"id":60,"left_children":[1,3,5,7,9,11,13,15,17,19,-1,21,23,25,27,-1,-1,-1,-1,-1,-1,-1,-1,-1,-1,-1,-1,-1,-1],"loss_changes":[1.7883539E0,4.553241E0,3.6947093E0,3.9082778E0,4.3401117E0,4.039448E0,2.3826175E0,3.4728107E0,3.1948235E0,2.1390657E0,0E0,4.2187533E0,1.3238854E0,7.964941E0,3.2167058E0,0E0,0E0,0E0,0E0,0E0,0E0,0E0,0E0,0E0,0E0,0E0,0E0,0E0,0E0],"parents":[2147483647,0,0,1,1,2,2,3,3,4,4,5,5,6,6,7,7,8,8,9,9,11,11,12,12,13,13,14,14],"right_children":[2,4,6,8,10,12,14,16,18,20,-1,22,24,26,28,-1,-1,-1,-1,-1,-1,-1,-1,-1,-1,-1,-1,-1,-1],"split_conditions":[6.125E-1,5.75E-1,6.375E-1,1E0,5.3333336E-1,2.1153846E-1,4.1666668E-2,8E-1,8.075E-1,9.565217E-2,6.3366055E-2,6E-1,3.1785715E-1,8.13E-1,3.529412E-1,3.2837602E-4,-6.598023E-2,4.6760216E-2,-1.9714847E-2,-1.5140811E-2,-8.500724E-2,1.2003479E-3,9.493874E-2,-6.940726E-2,1.4317521E-2,3.354681E-2,-7.932531E-2,-1.895925E-2,1.3728088E-2],"split_indices":[5,5,5,3,2,0,2,10,1,0,0,10,0,1,2,0,0,0,0,0,0,0,0,0,0,0,0,0,0],"split_type":[0,0,0,0,0,0,0,0,0,0,0,0,0,0,0,0,0,0,0,0,0,0,0,0,0,0,0,0,0],"sum_hessian":[1.8581013E2,5.5839645E1,1.2997047E2,4.1350613E1,1.4489034E1,1.5503195E1,1.14467285E2,2.166634E1,1.9684275E1,1.3330712E1,1.1583214E0,1.2191759E1,3.3114357E0,